tree
version=v3
num_class=1
num_tree_per_iteration=1
label_index=0
max_feature_idx=759
objective=regression
feature_names=Column_0 Column_1 Column_2 Column_3 Column_4 Column_5 Column_6 Column_7 Column_8 Column_9 Column_10 Column_11 Column_12 Column_13 Column_14 Column_15 Column_16 Column_17 Column_18 Column_19 Column_20 Column_21 Column_22 Column_23 Column_24 Column_25 Column_26 Column_27 Column_28 Column_29 Column_30 Column_31 Column_32 Column_33 Column_34 Column_35 Column_36 Column_37 Column_38 Column_39 Column_40 Column_41 Column_42 Column_43 Column_44 Column_45 Column_46 Column_47 Column_48 Column_49 Column_50 Column_51 Column_52 Column_53 Column_54 Column_55 Column_56 Column_57 Column_58 Column_59 Column_60 Column_61 Column_62 Column_63 Column_64 Column_65 Column_66 Column_67 Column_68 Column_69 Column_70 Column_71 Column_72 Column_73 Column_74 Column_75 Column_76 Column_77 Column_78 Column_79 Column_80 Column_81 Column_82 Column_83 Column_84 Column_85 Column_86 Column_87 Column_88 Column_89 Column_90 Column_91 Column_92 Column_93 Column_94 Column_95 Column_96 Column_97 Column_98 Column_99 Column_100 Column_101 Column_102 Column_103 Column_104 Column_105 Column_106 Column_107 Column_108 Column_109 Column_110 Column_111 Column_112 Column_113 Column_114 Column_115 Column_116 Column_117 Column_118 Column_119 Column_120 Column_121 Column_122 Column_123 Column_124 Column_125 Column_126 Column_127 Column_128 Column_129 Column_130 Column_131 Column_132 Column_133 Column_134 Column_135 Column_136 Column_137 Column_138 Column_139 Column_140 Column_141 Column_142 Column_143 Column_144 Column_145 Column_146 Column_147 Column_148 Column_149 Column_150 Column_151 Column_152 Column_153 Column_154 Column_155 Column_156 Column_157 Column_158 Column_159 Column_160 Column_161 Column_162 Column_163 Column_164 Column_165 Column_166 Column_167 Column_168 Column_169 Column_170 Column_171 Column_172 Column_173 Column_174 Column_175 Column_176 Column_177 Column_178 Column_179 Column_180 Column_181 Column_182 Column_183 Column_184 Column_185 Column_186 Column_187 Column_188 Column_189 Column_190 Column_191 Column_192 Column_193 Column_194 Column_195 Column_196 Column_197 Column_198 Column_199 Column_200 Column_201 Column_202 Column_203 Column_204 Column_205 Column_206 Column_207 Column_208 Column_209 Column_210 Column_211 Column_212 Column_213 Column_214 Column_215 Column_216 Column_217 Column_218 Column_219 Column_220 Column_221 Column_222 Column_223 Column_224 Column_225 Column_226 Column_227 Column_228 Column_229 Column_230 Column_231 Column_232 Column_233 Column_234 Column_235 Column_236 Column_237 Column_238 Column_239 Column_240 Column_241 Column_242 Column_243 Column_244 Column_245 Column_246 Column_247 Column_248 Column_249 Column_250 Column_251 Column_252 Column_253 Column_254 Column_255 Column_256 Column_257 Column_258 Column_259 Column_260 Column_261 Column_262 Column_263 Column_264 Column_265 Column_266 Column_267 Column_268 Column_269 Column_270 Column_271 Column_272 Column_273 Column_274 Column_275 Column_276 Column_277 Column_278 Column_279 Column_280 Column_281 Column_282 Column_283 Column_284 Column_285 Column_286 Column_287 Column_288 Column_289 Column_290 Column_291 Column_292 Column_293 Column_294 Column_295 Column_296 Column_297 Column_298 Column_299 Column_300 Column_301 Column_302 Column_303 Column_304 Column_305 Column_306 Column_307 Column_308 Column_309 Column_310 Column_311 Column_312 Column_313 Column_314 Column_315 Column_316 Column_317 Column_318 Column_319 Column_320 Column_321 Column_322 Column_323 Column_324 Column_325 Column_326 Column_327 Column_328 Column_329 Column_330 Column_331 Column_332 Column_333 Column_334 Column_335 Column_336 Column_337 Column_338 Column_339 Column_340 Column_341 Column_342 Column_343 Column_344 Column_345 Column_346 Column_347 Column_348 Column_349 Column_350 Column_351 Column_352 Column_353 Column_354 Column_355 Column_356 Column_357 Column_358 Column_359 Column_360 Column_361 Column_362 Column_363 Column_364 Column_365 Column_366 Column_367 Column_368 Column_369 Column_370 Column_371 Column_372 Column_373 Column_374 Column_375 Column_376 Column_377 Column_378 Column_379 Column_380 Column_381 Column_382 Column_383 Column_384 Column_385 Column_386 Column_387 Column_388 Column_389 Column_390 Column_391 Column_392 Column_393 Column_394 Column_395 Column_396 Column_397 Column_398 Column_399 Column_400 Column_401 Column_402 Column_403 Column_404 Column_405 Column_406 Column_407 Column_408 Column_409 Column_410 Column_411 Column_412 Column_413 Column_414 Column_415 Column_416 Column_417 Column_418 Column_419 Column_420 Column_421 Column_422 Column_423 Column_424 Column_425 Column_426 Column_427 Column_428 Column_429 Column_430 Column_431 Column_432 Column_433 Column_434 Column_435 Column_436 Column_437 Column_438 Column_439 Column_440 Column_441 Column_442 Column_443 Column_444 Column_445 Column_446 Column_447 Column_448 Column_449 Column_450 Column_451 Column_452 Column_453 Column_454 Column_455 Column_456 Column_457 Column_458 Column_459 Column_460 Column_461 Column_462 Column_463 Column_464 Column_465 Column_466 Column_467 Column_468 Column_469 Column_470 Column_471 Column_472 Column_473 Column_474 Column_475 Column_476 Column_477 Column_478 Column_479 Column_480 Column_481 Column_482 Column_483 Column_484 Column_485 Column_486 Column_487 Column_488 Column_489 Column_490 Column_491 Column_492 Column_493 Column_494 Column_495 Column_496 Column_497 Column_498 Column_499 Column_500 Column_501 Column_502 Column_503 Column_504 Column_505 Column_506 Column_507 Column_508 Column_509 Column_510 Column_511 Column_512 Column_513 Column_514 Column_515 Column_516 Column_517 Column_518 Column_519 Column_520 Column_521 Column_522 Column_523 Column_524 Column_525 Column_526 Column_527 Column_528 Column_529 Column_530 Column_531 Column_532 Column_533 Column_534 Column_535 Column_536 Column_537 Column_538 Column_539 Column_540 Column_541 Column_542 Column_543 Column_544 Column_545 Column_546 Column_547 Column_548 Column_549 Column_550 Column_551 Column_552 Column_553 Column_554 Column_555 Column_556 Column_557 Column_558 Column_559 Column_560 Column_561 Column_562 Column_563 Column_564 Column_565 Column_566 Column_567 Column_568 Column_569 Column_570 Column_571 Column_572 Column_573 Column_574 Column_575 Column_576 Column_577 Column_578 Column_579 Column_580 Column_581 Column_582 Column_583 Column_584 Column_585 Column_586 Column_587 Column_588 Column_589 Column_590 Column_591 Column_592 Column_593 Column_594 Column_595 Column_596 Column_597 Column_598 Column_599 Column_600 Column_601 Column_602 Column_603 Column_604 Column_605 Column_606 Column_607 Column_608 Column_609 Column_610 Column_611 Column_612 Column_613 Column_614 Column_615 Column_616 Column_617 Column_618 Column_619 Column_620 Column_621 Column_622 Column_623 Column_624 Column_625 Column_626 Column_627 Column_628 Column_629 Column_630 Column_631 Column_632 Column_633 Column_634 Column_635 Column_636 Column_637 Column_638 Column_639 Column_640 Column_641 Column_642 Column_643 Column_644 Column_645 Column_646 Column_647 Column_648 Column_649 Column_650 Column_651 Column_652 Column_653 Column_654 Column_655 Column_656 Column_657 Column_658 Column_659 Column_660 Column_661 Column_662 Column_663 Column_664 Column_665 Column_666 Column_667 Column_668 Column_669 Column_670 Column_671 Column_672 Column_673 Column_674 Column_675 Column_676 Column_677 Column_678 Column_679 Column_680 Column_681 Column_682 Column_683 Column_684 Column_685 Column_686 Column_687 Column_688 Column_689 Column_690 Column_691 Column_692 Column_693 Column_694 Column_695 Column_696 Column_697 Column_698 Column_699 Column_700 Column_701 Column_702 Column_703 Column_704 Column_705 Column_706 Column_707 Column_708 Column_709 Column_710 Column_711 Column_712 Column_713 Column_714 Column_715 Column_716 Column_717 Column_718 Column_719 Column_720 Column_721 Column_722 Column_723 Column_724 Column_725 Column_726 Column_727 Column_728 Column_729 Column_730 Column_731 Column_732 Column_733 Column_734 Column_735 Column_736 Column_737 Column_738 Column_739 Column_740 Column_741 Column_742 Column_743 Column_744 Column_745 Column_746 Column_747 Column_748 Column_749 Column_750 Column_751 Column_752 Column_753 Column_754 Column_755 Column_756 Column_757 Column_758 Column_759
feature_infos=[-4.1260000000000003:9.5999999999999996] [-2.5630000000000002:3.9129999999999998] [-3.8639999999999999:4.4749999999999996] [-3.8559999999999999:5.2000000000000002] [-3.4079999999999999:3.4420000000000002] [-2.367:3.5590000000000002] [-2.6800000000000002:3.6499999999999999] [-4.149:7.2000000000000002] [-2.9199999999999999:4.5730000000000004] [-2.1960000000000002:3.7959999999999998] [-2.2610000000000001:3.431] [-2.3220000000000001:4.7389999999999999] [-2.5659999999999998:2.5939999999999999] [-4:4.2220000000000004] [-3.9590000000000001:4.649] [-1.8100000000000001:2.347] [-2.552:2.9089999999999998] [-10.882999999999999:7] [-3.7719999999999998:3.6520000000000001] [-5.5709999999999997:10] [-3.3650000000000002:7.149] [-3.3650000000000002:10.119999999999999] [-10.15:6.5599999999999996] [-6.5279999999999996:9.1280000000000001] [-2.794:8.4580000000000002] [-5.8330000000000002:5.8639999999999999] [-3.5430000000000001:14.711] [-6.3529999999999998:4.5099999999999998] [-4.077:3.6589999999999998] [-3.109:6.0670000000000002] [-5.3879999999999999:10.698] [-3.5019999999999998:6.9560000000000004] [-5.1440000000000001:11.552] [-3.3319999999999999:5.4000000000000004] [-3.3300000000000001:5.9400000000000004] [-5.8250000000000002:7.7300000000000004] [-15.800000000000001:12.073] [-7.5:7.6040000000000001] [-3.4689999999999999:3.5609999999999999] [-3.8580000000000001:5.4059999999999997] [-4.5369999999999999:6.3220000000000001] [-4.5970000000000004:7.1890000000000001] [-4.7859999999999996:4.6849999999999996] [-3.4300000000000002:5.9240000000000004] [-3.4950000000000001:5.1130000000000004] [-4.1870000000000003:4.5410000000000004] [-3.2559999999999998:4.1890000000000001] [-2.3610000000000002:3.6659999999999999] [-3.734:3.6200000000000001] [-4.1379999999999999:6.1459999999999999] [-3.8759999999999999:4.1840000000000002] [-4.2370000000000001:6.2149999999999999] [-3.5569999999999999:3.1139999999999999] [-3.73:4.0659999999999998] [-4.319:3.6059999999999999] [-6.0499999999999998:12.794] [-4.6950000000000003:5.9980000000000002] [-2.4359999999999999:4.0270000000000001] [-5.0170000000000003:6.0199999999999996] [-3.5009999999999999:8.8439999999999994] [-3.2170000000000001:7.0750000000000002] [-3.4900000000000002:5.165] [-3.536:4.9139999999999997] [-2.9660000000000002:5.1440000000000001] [-4.75:3.645] [-3.2410000000000001:3.9780000000000002] [-2.1110000000000002:4.0780000000000003] [-3:4.1109999999999998] [-3.6749999999999998:5.3689999999999998] [-3.2890000000000001:4.1760000000000002] [-6:4.7850000000000001] [-2.3879999999999999:3.8330000000000002] [-2.9430000000000001:3.1850000000000001] [-2.7770000000000001:4.601] [-8.0500000000000007:10.557] [-3.6709999999999998:5.7329999999999997] [-5.7889999999999997:3.6080000000000001] [-8.3689999999999998:13.694000000000001] [-4.0860000000000003:5] [-2.8479999999999999:5.1609999999999996] [-4.1589999999999998:5.3460000000000001] [-6.4290000000000003:6.8179999999999996] [-3.7669999999999999:5.2430000000000003] [-5.0999999999999996:6.1070000000000002] [-4.2999999999999998:6.3029999999999999] [-2.7429999999999999:3.5049999999999999] [-3.2930000000000001:4.6239999999999997] [-4.1399999999999997:9.8849999999999998] [-2.79:4.5] [-5.4820000000000002:8] [-3.0369999999999999:4.0999999999999996] [-2.5259999999999998:3.766] [-3.1699999999999999:4.899] [-14:16.617000000000001] [-6.9939999999999998:9.1219999999999999] [-3.754:6.2359999999999998] [-8.9420000000000002:7.1079999999999997] [-2.883:4.7590000000000003] [-3:6.3209999999999997] [-5.2130000000000001:7.2060000000000004] [-3.262:8.3580000000000005] [-5.4699999999999998:6.6189999999999998] [-3.444:5.7539999999999996] [-5.1390000000000002:6.3449999999999998] [-3.585:4.5999999999999996] [-3.8180000000000001:5.3940000000000001] [-5.1639999999999997:7.6529999999999996] [-3.8399999999999999:3.9169999999999998] [-3.8130000000000002:7.1609999999999996] [-3.5979999999999999:3.653] [-2.661:4.0289999999999999] [-5.4630000000000001:6.319] [-4.0499999999999998:10.907] [-3.3940000000000001:11.272] [-3.484:9.4670000000000005] [-3.8340000000000001:18.411000000000001] [-2.972:4.617] [-5.4500000000000002:5.5049999999999999] [-5.4329999999999998:5.8200000000000003] [-4.7670000000000003:15.845000000000001] [-5.7640000000000002:4.7080000000000002] [-7.3170000000000002:3.7000000000000002] [-5.1399999999999997:3.7639999999999998] [-4.6319999999999997:3.7330000000000001] [-6.1020000000000003:2.798] [-4.3860000000000001:5.1740000000000004] [-4.5670000000000002:3.8620000000000001] [-6.7220000000000004:7.3300000000000001] [-4.7460000000000004:4.3330000000000002] [-3.2149999999999999:3.8180000000000001] [-4.6120000000000001:4.2460000000000004] [-11.4:9.2159999999999993] [-6.0999999999999996:5.8070000000000004] [-2.9649999999999999:4.8120000000000003] [-4.6390000000000002:9.907] [-5.9329999999999998:4.0670000000000002] [-4.7329999999999997:4.4500000000000002] [-5.6109999999999998:4.9000000000000004] [-4.1100000000000003:5.9820000000000002] [-3.4249999999999998:4.7380000000000004] [-5.4000000000000004:5.0359999999999996] [-4.1559999999999997:5.0949999999999998] [-3.548:3.4039999999999999] [-4.4000000000000004:3.3340000000000001] [-3.407:5.6440000000000001] [-3.2240000000000002:4.4340000000000002] [-4.5739999999999998:5.524] [-2.9329999999999998:3.75] [-2.5499999999999998:2.9009999999999998] [-4.3959999999999999:4.3470000000000004] [-5.681:13.067] [-4.258:4.2670000000000003] [-3.0920000000000001:6.7329999999999997] [-5.7590000000000003:7.452] [-3.294:4.867] [-4.6470000000000002:3.5059999999999998] [-3.3100000000000001:9.2219999999999995] [-4.367:4.8710000000000004] [-3.2000000000000002:8.6940000000000008] [-3.911:4.9779999999999998] [-4.1790000000000003:3.7719999999999998] [-2.472:3.335] [-5:4.2350000000000003] [-3.992:4.4180000000000001] [-4.7460000000000004:3.6859999999999999] [-10:9.4629999999999992] [-2.5830000000000002:3.6389999999999998] [-2.5840000000000001:3.1920000000000002] [-2.9860000000000002:4.9720000000000004] [-8.5999999999999996:17.5] [-3.048:5] [-3.4119999999999999:3.71] [-3.972:9.0079999999999991] [-4.8440000000000003:4.6200000000000001] [-4.032:4.3550000000000004] [-4.5199999999999996:4.5030000000000001] [-4.7309999999999999:6.0800000000000001] [-4.1360000000000001:4.0309999999999997] [-4.3200000000000003:4.5300000000000002] [-3.9500000000000002:4.2210000000000001] [-3.1659999999999999:3.9169999999999998] [-4.319:4.7050000000000001] [-4.4580000000000002:7.8620000000000001] [-3.9020000000000001:3.8260000000000001] [-4.5060000000000002:5.8170000000000002] [-3.2330000000000001:4.3890000000000002] [-2.7330000000000001:3.6509999999999998] [-4.2249999999999996:4.7460000000000004] [-6.9530000000000003:7.1890000000000001] [-4.258:5.0069999999999997] [-2.145:2.387] [-4.0890000000000004:6.7690000000000001] [-2.9209999999999998:3.7080000000000002] [-2.6429999999999998:3.8069999999999999] [-3.4359999999999999:4.3940000000000001] [-3.1720000000000002:4.0730000000000004] [-2.9630000000000001:5.4829999999999997] [-2.972:3.5049999999999999] [-2.9249999999999998:2.6299999999999999] [-3.4239999999999999:3.0030000000000001] [-3.2549999999999999:3.4199999999999999] [-2.9470000000000001:4.1310000000000002] [-3.0369999999999999:3.7309999999999999] [-3.1120000000000001:5.1900000000000004] [-2.173:3.5990000000000002] [-1.964:2.0819999999999999] [-2.7789999999999999:3.1680000000000001] [-4.5890000000000004:6.8150000000000004] [-2.9550000000000001:4.423] [-3.9340000000000002:7.617] [-4.649:6.9000000000000004] [-5.875:4.0979999999999999] [-4.1059999999999999:2.4660000000000002] [-5.0899999999999999:5.0529999999999999] [-4.5:4.2370000000000001] [-4.5110000000000001:6.1180000000000003] [-3.468:6.0030000000000001] [-5:3.1549999999999998] [-3.8199999999999998:5.9109999999999996] [-2.0880000000000001:4.3979999999999997] [-3.472:5.8239999999999998] [-3.7690000000000001:3.3210000000000002] [-8:3.6000000000000001] [-3.887:2.9620000000000002] [-3.1779999999999999:3.7290000000000001] [-3.2109999999999999:5.1769999999999996] [-9:14] [-5.617:4.0620000000000003] [-3.2290000000000001:4.4109999999999996] [-5.7859999999999996:10.263999999999999] [-3.9020000000000001:5.3929999999999998] [-4.6150000000000002:4.7009999999999996] [-4.1459999999999999:6.601] [-4.1189999999999998:9.3529999999999998] [-5.7610000000000001:5.7240000000000002] [-3.8029999999999999:5.1369999999999996] [-5.8449999999999998:6.383] [-4.3120000000000003:4.718] [-3.0449999999999999:3.5609999999999999] [-4.3570000000000002:6.1260000000000003] [-3.4119999999999999:4.6529999999999996] [-5.4279999999999999:5.069] [-3.3039999999999998:3.891] [-2.1899999999999999:5.1020000000000003] [-3.8620000000000001:5.1539999999999999] [-7.5999999999999996:23.155999999999999] [-3.3330000000000002:7.0039999999999996] [-2.1320000000000001:2.6389999999999998] [-4.6920000000000002:9.3810000000000002] [-2.6960000000000002:5.3780000000000001] [-4.444:4.0469999999999997] [-2.8130000000000002:5.1550000000000002] [-2.7250000000000001:4.0780000000000003] [-3.3660000000000001:4.3280000000000003] [-2.698:3.1309999999999998] [-5.2009999999999996:3.6459999999999999] [-3.0089999999999999:3.3380000000000001] [-2.5870000000000002:3.1560000000000001] [-3.3839999999999999:4.7279999999999998] [-3.8100000000000001:3.819] [-6:4.7190000000000003] [-2.54:3.117] [-2.5299999999999998:4.407] [-2.4489999999999998:2.75] [-6.6500000000000004:10.5] [-2.8319999999999999:5.0389999999999997] [-4.3419999999999996:4.0780000000000003] [-9.3629999999999995:10.005000000000001] [-4:4.2939999999999996] [-6:3.5369999999999999] [-3.105:8.2189999999999994] [-4.2919999999999998:5.6289999999999996] [-4:6.819] [-4.1500000000000004:4.891] [-10:6.2309999999999999] [-4.3049999999999997:4.0179999999999998] [-2.5539999999999998:4.2640000000000002] [-8:4.1669999999999998] [-4:6.109] [-6:4.8289999999999997] [-4:4.173] [-2.9119999999999999:3.508] [-3.3170000000000002:4.2969999999999997] [-8.5:28] [-3.1589999999999998:8] [-2.3069999999999999:2.5910000000000002] [-4.8600000000000003:4.4000000000000004] [-3.2570000000000001:3.8100000000000001] [-3.1629999999999998:4.3490000000000002] [-3.8119999999999998:6.9720000000000004] [-3.5059999999999998:3.7890000000000001] [-2.9940000000000002:4.3010000000000002] [-2.9449999999999998:3.105] [-2.5:4.2549999999999999] [-3.2040000000000002:2.9079999999999999] [-1.883:2.4199999999999999] [-2.859:3.4710000000000001] [-3.7029999999999998:4.1749999999999998] [-2.798:2.9460000000000002] [-4:3.7749999999999999] [-2.1539999999999999:2.7360000000000002] [-2.5569999999999999:2.9670000000000001] [-7.2999999999999998:7] [-3.222:4.3280000000000003] [-2.2639999999999998:3.3570000000000002] [-3.7919999999999998:5.4219999999999997] [-2.585:3.4249999999999998] [-2.976:5.1020000000000003] [-3.4470000000000001:3.903] [-2.819:3.9670000000000001] [-1.742:4.7510000000000003] [-2.9660000000000002:3.286] [-2.194:4.79] [-2.79:3.984] [-1.827:2.8039999999999998] [-2.2400000000000002:2.8140000000000001] [-4.04:3.2829999999999999] [-1.7989999999999999:3.2269999999999999] [-2.589:4.625] [-2.4420000000000002:2.871] [-2.0390000000000001:3.286] [-3.9329999999999998:7.2450000000000001] [-2.3210000000000002:4.2999999999999998] [-2.7170000000000001:3.9009999999999998] [-3.8029999999999999:8.3369999999999997] [-3.6419999999999999:4.9260000000000002] [-3.3109999999999999:2.952] [-6.2169999999999996:4.4470000000000001] [-4.4770000000000003:6.5369999999999999] [-3.4809999999999999:4.3099999999999996] [-3.9249999999999998:4.6559999999999997] [-4.5:3.7349999999999999] [-3.464:4.3150000000000004] [-3.0110000000000001:2.9580000000000002] [-3.2389999999999999:3.5920000000000001] [-3.3029999999999999:7] [-3.1499999999999999:4.056] [-4.7210000000000001:5.234] [-2.6379999999999999:3.4489999999999998] [-2.214:2.3490000000000002] [-4.71:10.532999999999999] [-3.4830000000000001:4.2850000000000001] [-7.133:11.180999999999999] [-8.8000000000000007:6.907] [-3.6499999999999999:8.7530000000000001] [-3.7719999999999998:10.5] [-14:16.736000000000001] [-5.1509999999999998:17.5] [-3.911:18.550000000000001] [-6.133:10.667] [-7.2000000000000002:17.5] [-6.5890000000000004:7.915] [-4.7329999999999997:5.569] [-3.8999999999999999:14] [-5.9199999999999999:13.137] [-4.484:10.5] [-4.4669999999999996:28] [-5.1669999999999998:7] [-2.6520000000000001:4.4749999999999996] [-4.9889999999999999:10.867000000000001] [-14:14.010999999999999] [-6.2610000000000001:4.1550000000000002] [-6.2279999999999998:12.499000000000001] [-4.6070000000000002:5.2130000000000001] [-3.2810000000000001:4.5570000000000004] [-6.4939999999999998:7.3109999999999999] [-5.6699999999999999:8.3300000000000001] [-6.2370000000000001:6.367] [-5.359:5.9370000000000003] [-6.25:5.8029999999999999] [-4.0270000000000001:4.8700000000000001] [-2.3290000000000002:2.9009999999999998] [-3.5099999999999998:4.5499999999999998] [-3.5779999999999998:5.8849999999999998] [-2.6989999999999998:5.976] [-4.8780000000000001:8] [-2.5059999999999998:3.5590000000000002] [-2.8610000000000002:4.149] [-3.6909999999999998:4.7309999999999999] [-14:12.917] [-3.528:4.1289999999999996] [-2.8079999999999998:3.1299999999999999] [-2.8610000000000002:3.931] [-2.8889999999999998:7.9029999999999996] [-3.3180000000000001:5.125] [-3.133:3.9569999999999999] [-2.9590000000000001:3.3410000000000002] [-4.0830000000000002:7.8609999999999998] [-3.4100000000000001:4.101] [-2.222:2.758] [-2.9169999999999998:4.4340000000000002] [-3.1960000000000002:4.7750000000000004] [-2.8330000000000002:3.056] [-2.9769999999999999:4.9690000000000003] [-2.6890000000000001:4.3470000000000004] [-2.032:3.0950000000000002] [-2.4079999999999999:3.3919999999999999] [-9.7919999999999998:10.917] [-3.569:3.8999999999999999] [-5:12.638999999999999] [-3.3599999999999999:5.782] [-5.6520000000000001:7.8200000000000003] [-4.6369999999999996:16.972000000000001] [-11.077999999999999:8.7650000000000006] [-4.7080000000000002:13.574999999999999] [-4.4820000000000002:6.9720000000000004] [-8.625:5.7270000000000003] [-4.8789999999999996:7.7549999999999999] [-3.5169999999999999:4.8849999999999998] [-4.0279999999999996:5.3390000000000004] [-5.7549999999999999:9.0239999999999991] [-6.0830000000000002:12.885999999999999] [-8.0280000000000005:6.8789999999999996] [-3.8740000000000001:5.3609999999999998] [-2.4449999999999998:4.7009999999999996] [-4.0069999999999997:5.25] [-14:8.0180000000000007] [-4.5:11.324999999999999] [-3.7269999999999999:3.1360000000000001] [-3.9020000000000001:5.4279999999999999] [-4.931:3.7280000000000002] [-3.681:6.8109999999999999] [-5.8570000000000002:6.1749999999999998] [-4.7699999999999996:4.1429999999999998] [-4.1669999999999998:13.167] [-6.2919999999999998:4.3330000000000002] [-5.3799999999999999:9.5969999999999995] [-3.3450000000000002:5.0279999999999996] [-4.8140000000000001:3.782] [-5.8159999999999998:6.5209999999999999] [-4.6390000000000002:4.851] [-4.4139999999999997:4.2110000000000003] [-3.6579999999999999:3.77] [-3.0649999999999999:2.8700000000000001] [-3.9169999999999998:10.25] [-13.138999999999999:9.609] [-3.8130000000000002:9.6669999999999998] [-4.694:3] [-3.8999999999999999:7.6500000000000004] [-5.899:4.2290000000000001] [-5.8330000000000002:5.4870000000000001] [-4.54:7.7800000000000002] [-5.5529999999999999:3.8359999999999999] [-4.25:9.4169999999999998] [-5.8570000000000002:3.75] [-4.4630000000000001:9.4309999999999992] [-2.9990000000000001:4.819] [-5.5300000000000002:3.0529999999999999] [-3.722:3.4089999999999998] [-4.6689999999999996:4.2439999999999998] [-4.9710000000000001:6] [-4.4980000000000002:3.4350000000000001] [-2.9860000000000002:2.7010000000000001] [-3.5030000000000001:6.875] [-10.5:9.4440000000000008] [-3.722:4.4550000000000001] [-2.75:3.9790000000000001] [-7.1260000000000003:11.257] [-2.9430000000000001:7.9729999999999999] [-4.1950000000000003:5.8659999999999997] [-7.0570000000000004:12.75] [-5.1619999999999999:14.25] [-7.117:8.9169999999999998] [-5.5419999999999998:7.8170000000000002] [-6.1390000000000002:4.9169999999999998] [-3.532:4.2750000000000004] [-4:6.4580000000000002] [-7.6399999999999997:7.5229999999999997] [-4.4969999999999999:6.5739999999999998] [-8:10.944000000000001] [-3.25:8.0830000000000002] [-3.3340000000000001:4.0899999999999999] [-6.2859999999999996:9.25] [-12.694000000000001:14] [-7:7.444] [-2.9870000000000001:3.786] [-6.335:11.343] [-4.6470000000000002:5.3209999999999997] [-4.367:4.3879999999999999] [-6.3689999999999998:9.0969999999999995] [-6.1020000000000003:8.9489999999999998] [-6.3819999999999997:6.2400000000000002] [-5.367:4.6959999999999997] [-7.2439999999999998:6.2300000000000004] [-4.6669999999999998:4.3570000000000002] [-4.5670000000000002:3.1339999999999999] [-4.8730000000000002:9.0730000000000004] [-4.0069999999999997:5.5129999999999999] [-6.0449999999999999:6.8380000000000001] [-3.4199999999999999:2.9750000000000001] [-2.6360000000000001:2.831] [-4.9690000000000003:5.1790000000000003] [-4.5419999999999998:9.6460000000000008] [-4.9630000000000001:6.6280000000000001] [-2.4809999999999999:12.25] [-4.944:6.4569999999999999] [-3.77:5.4699999999999998] [-5.7030000000000003:7.25] [-13.125:6.2969999999999997] [-9.9600000000000009:5.7919999999999998] [-5.3330000000000002:8.5350000000000001] [-5.5410000000000004:14.861000000000001] [-4.75:6.5910000000000002] [-3.5630000000000002:5.9420000000000002] [-4.8159999999999998:7.1420000000000003] [-4.6920000000000002:6.0759999999999996] [-6.3810000000000002:6.75] [-5.8799999999999999:9] [-3.2709999999999999:6.4169999999999998] [-4.0579999999999998:5.4829999999999997] [-3.6539999999999999:9.4619999999999997] [-15.555999999999999:4.8760000000000003] [-10.167:5.8300000000000001] [-3:3.3879999999999999] [-6.1909999999999998:4.6299999999999999] [-2.9380000000000002:8.7430000000000003] [-3.3340000000000001:6.3049999999999997] [-6.1639999999999997:5.3079999999999998] [-4.21:6.3289999999999997] [-3.4249999999999998:9.2780000000000005] [-3.484:7.5709999999999997] [-6.5410000000000004:4.3650000000000002] [-4.2869999999999999:2.9670000000000001] [-2.8069999999999999:5.4870000000000001] [-7.6230000000000002:8] [-4.0940000000000003:6.1429999999999998] [-3.0649999999999999:7.0590000000000002] [-4.3860000000000001:4.7430000000000003] [-2.6920000000000002:3.895] [-6.1820000000000004:3.786] [-7.5650000000000004:7.6669999999999998] [-3.2829999999999999:5.5750000000000002] [-5.6669999999999998:3.0059999999999998] [-5.6740000000000004:13.9] [-5.1280000000000001:3.9849999999999999] [-5.8570000000000002:5.431] [-5:7.9039999999999999] [-4.9089999999999998:5.4160000000000004] [-7.25:6.0529999999999999] [-5.8330000000000002:7.3209999999999997] [-4.4699999999999998:8.7859999999999996] [-2.5379999999999998:5.694] [-5.3659999999999997:5] [-3.1960000000000002:3.891] [-6.1970000000000001:3.75] [-7.0620000000000003:10] [-3.8330000000000002:3.073] [-3.1339999999999999:3.5619999999999998] [-5.4169999999999998:5] [-17.5:17.722000000000001] [-5:5.6749999999999998] [-3:4.2779999999999996] [-6.282:6.1799999999999997] [-3.2989999999999999:9.3200000000000003] [-3.831:5.5259999999999998] [-5.0149999999999997:5.7439999999999998] [-6.3150000000000004:6.5730000000000004] [-3.823:6.1689999999999996] [-9.4169999999999998:5.1950000000000003] [-3.8759999999999999:8.7859999999999996] [-3.7650000000000001:2.6669999999999998] [-2.9159999999999999:5.7149999999999999] [-5.7800000000000002:5.298] [-4.9349999999999996:4.2949999999999999] [-3.9390000000000001:6.9240000000000004] [-2.9649999999999999:4.2830000000000004] [-3.8650000000000002:4.6580000000000004] [-7.375:4.5380000000000003] [-7.2249999999999996:15.013999999999999] [-3.7000000000000002:5.0549999999999997] [-2.5800000000000001:2.9380000000000002] [-4.9299999999999997:4.1539999999999999] [-2.98:5.6139999999999999] [-2.5539999999999998:3.6539999999999999] [-3.4870000000000001:3.6699999999999999] [-4.2220000000000004:3.944] [-2.8620000000000001:5.415] [-6.0830000000000002:3.1499999999999999] [-2.718:4.3929999999999998] [-4.5279999999999996:3.6030000000000002] [-3.5600000000000001:4.069] [-3.9660000000000002:5.0350000000000001] [-3.004:3.4489999999999998] [-3.1549999999999998:4.3719999999999999] [-2.73:2.903] [-2.948:3.1920000000000002] [-4.75:2.7610000000000001] [-4.8639999999999999:9.7200000000000006] [-2.75:4.1159999999999997] [-2.7839999999999998:4.5] [-3.415:5.9470000000000001] [-6.7610000000000001:3.1890000000000001] [-4.3920000000000003:4.0700000000000003] [-5.625:4.8739999999999997] [-4.3470000000000004:6.4710000000000001] [-7.1029999999999998:5.04] [-4:6.2869999999999999] [-4.5030000000000001:9.375] [-4.0940000000000003:5.8029999999999999] [-2.9500000000000002:3.367] [-3.1640000000000001:6.093] [-4.3739999999999997:3] [-4.7960000000000003:8] [-3.8140000000000001:3.9500000000000002] [-2.6899999999999999:4.0739999999999998] [-3.5169999999999999:5.7069999999999999] [-14:5.6429999999999998] [-4.3890000000000002:4.6180000000000003] [-3.6400000000000001:4.1500000000000004] [-6.0289999999999999:10.249000000000001] [-4.2400000000000002:10.061] [-3.798:6.5979999999999999] [-6.4889999999999999:7.2199999999999998] [-5.1799999999999997:9.3000000000000007] [-4.4500000000000002:6.282] [-5.2549999999999999:5.0330000000000004] [-3.6880000000000002:6.4960000000000004] [-5.9249999999999998:6.1390000000000002] [-4.7530000000000001:3.4550000000000001] [-4.0030000000000001:4.7469999999999999] [-3.4660000000000002:4.7450000000000001] [-5.0499999999999998:8.2699999999999996] [-3.323:4.4459999999999997] [-4.0960000000000001:4.2839999999999998] [-4.5119999999999996:4.577] [-7:7.2080000000000002] [-5.4560000000000004:6.4909999999999997] [-3.528:2.75] [-4.6699999999999999:6.4870000000000001] [-5.8490000000000002:5.4960000000000004] [-5.093:3.9609999999999999] [-5.069:4.7279999999999998] [-3.4700000000000002:10.486000000000001] [-5.9569999999999999:3.2280000000000002] [-4.1669999999999998:6.5069999999999997] [-4.3929999999999998:3.75] [-3.1160000000000001:5.5209999999999999] [-3.343:3.0019999999999998] [-4.8330000000000002:3] [-3.2090000000000001:3.3759999999999999] [-5.8159999999999998:6] [-4.4290000000000003:3.4580000000000002] [-2.9510000000000001:3.6240000000000001] [-3.5:5.0259999999999998] [-10.5:6.6369999999999996] [-3.806:3.6680000000000001] [-4.056:4.5609999999999999] [-10.680999999999999:7.8380000000000001] [-5.0720000000000001:4.8570000000000002] [-4.5860000000000003:6] [-8:5.8499999999999996] [-6.0780000000000003:5.4160000000000004] [-5.3330000000000002:5.109] [-4.6669999999999998:7.5389999999999997] [-6.7839999999999998:10] [-4.298:6.5069999999999997] [-2.4119999999999999:4.5549999999999997] [-4.532:8] [-3.6349999999999998:6.1470000000000002] [-4.9740000000000002:6] [-3.984:4.1219999999999999] [-3.2869999999999999:4.2000000000000002] [-3.9169999999999998:6.6020000000000003] [-28:9.2780000000000005] [-8:5.5309999999999997] [-1.8839999999999999:4.0279999999999996] [-3.863:3.1440000000000001] [-4.3849999999999998:4.1989999999999998] [-4.1459999999999999:4.0620000000000003] [-3.1850000000000001:4.4119999999999999] [-4.109:5.3639999999999999] [-4.9409999999999998:4.5] [-3.3929999999999998:5.1799999999999997] [-4.0910000000000002:4.5350000000000001] [-4.3869999999999996:4.7220000000000004] [-2.7570000000000001:2.9740000000000002] [-3.7669999999999999:3.7429999999999999] [-3.875:4.1529999999999996] [-3.3029999999999999:3.1589999999999998] [-3.2280000000000002:4.0720000000000001] [-2.3799999999999999:2.7360000000000002] [-3.3740000000000001:4.415] [-7:8.9369999999999994] [-2.8559999999999999:4.4489999999999998] [-2.903:3.4790000000000001] [-3.8980000000000001:3.0569999999999999] [-2.931:7.2489999999999997] [-4.0970000000000004:3.4009999999999998] [-2.375:5.0129999999999999] [-2.8399999999999999:4.1970000000000001] [-2.7959999999999998:4.8280000000000003] [-3.4969999999999999:4.04] [-3.456:3.9060000000000001] [-4.0940000000000003:3.7669999999999999] [-2.6040000000000001:3.835] [-2.9180000000000001:4.25] [-3.8620000000000001:4.7000000000000002] [-3.2639999999999998:5.1920000000000002] [-2.8620000000000001:3.4359999999999999] [-5.3319999999999999:3.4740000000000002] [-2.9060000000000001:3.266] [-4.218:14.063000000000001] [-2.835:4.7619999999999996] [-3.1480000000000001:3.1400000000000001] [-5.4649999999999999:3.1600000000000001] [-2.8580000000000001:7.4219999999999997] [-2.339:4.9500000000000002] [-5.6890000000000001:4.1790000000000003] [-3.569:6.6399999999999997] [-3.7010000000000001:6.5389999999999997] [-6.4269999999999996:4.7850000000000001] [-3.6110000000000002:5.875] [-6.2220000000000004:4.242] [-4:2.9060000000000001] [-2.6709999999999998:5.1980000000000004] [-6.3659999999999997:6.8799999999999999] [-3.3170000000000002:4.9569999999999999] [-3.1629999999999998:6.2030000000000003] [-5.3689999999999998:3.4929999999999999] [-3.6469999999999998:3.286] [-6.984:6.8609999999999998] [-4.2359999999999998:4.1159999999999997] [-7:5.4059999999999997] [-4.9870000000000001:9.875] [-7.4870000000000001:12.778] [-10.5:8.2360000000000007] [-10.414:14] [-7.782:10.807] [-7:8.6760000000000002] [-8.1229999999999993:5.3140000000000001] [-17.5:13] [-5.6840000000000002:7.9279999999999999] [-4.8819999999999997:6.8300000000000001] [-14:9.5540000000000003] [-7:12.654] [-10.5:9.4130000000000003] [-28:8.0679999999999996] [-7:5.4690000000000003] [-3.5:6.8380000000000001] [-7.4139999999999997:4.4000000000000004] [-7.0220000000000002:14] [-3.5990000000000002:4.556] [-5.8869999999999996:17.265000000000001] [-4.4889999999999999:5.5490000000000004] [-4.7919999999999998:5.6479999999999997] [-7.2640000000000002:6.7930000000000001] [-8.1509999999999998:6.25] [-4.7009999999999996:7.0419999999999998] [-3.98:4.1959999999999997] [-7.7080000000000002:7] [-3.8330000000000002:6.0949999999999998] [-2.5:4.532] [-4.1020000000000003:6.7560000000000002] [-3.8500000000000001:6.2160000000000002] [-4.8860000000000001:3.9580000000000002] [-8:7.7359999999999998] [-3.4239999999999999:5] [-2.1040000000000001:4.7359999999999998] [-3.4540000000000002:4.1879999999999997] [-10.222:14]
tree_sizes=2699 2805 2803 2832 2812 2800 2814 2835 2825 2834 2833 2812 2834 2838 2836 2841 2852 2858 2851 2869 2836 2874 2873 2866 2892 2861 2881 2860 2887 2860 2879 2871 2874 2871 2901 2891 2902 2897 2907 2915 2921 2901 2940 2937 2935 2940 2937 2923 2928 2936 2945 2931 2948 2949 2936 2925 2939 2930 2940 2936 2930 2939 2938 2941 2937 2921 2958 2962 2949 2971 2975 2964 2974 2960 2974 2979 2981 2962 2967 2982 2978 2971 2991 2991 2991 2991 2987 2980 2996 2978 2994 2994 3000 2994 2993 2991 2967 3003 2997 2992

Tree=0
num_leaves=31
num_cat=0
split_feature=542 258 7 592 605 104 410 62 644 174 141 325 32 34 734 501 31 304 203 299 714 57 748 413 17 14 74 212 84 2
split_gain=41.1869 20.2418 12.5185 10.6825 9.85125 9.20718 7.02334 6.61824 6.49802 4.89704 4.07516 6.11413 4.07473 5.48744 3.61 3.13942 3.025 2.91757 3.74635 4.8898 4.42489 2.52976 1.68206 1.32234 1.31047 1.0294 0.663594 0.555301 0.178022 0.0435484
threshold=-1.1484999999999996 -0.98549999999999993 -1.2029999999999998 -0.79699999999999993 1.4085000000000003 -0.092499999999999985 0.059500000000000004 0.03450000000000001 -1.7494999999999996 1.0305000000000002 -0.10549999999999998 0.60150000000000003 0.82600000000000007 -0.31499999999999995 0.10450000000000001 -0.14149999999999996 0.56150000000000022 0.026500000000000003 -0.72549999999999992 0.52000000000000013 -0.72649999999999981 -0.24799999999999997 -0.66399999999999992 0.7390000000000001 0.074500000000000011 0.45600000000000007 0.75100000000000011 0.48200000000000004 -0.93149999999999988 -0.71149999999999991
decision_type=2 2 2 2 2 2 2 2 2 2 2 2 2 2 2 2 2 2 2 2 2 2 2 2 2 2 2 2 2 2
left_child=3 5 24 15 8 -2 -6 16 -4 12 11 -11 17 -14 -13 25 -5 18 19 -10 -20 -7 -22 26 -3 28 29 -24 -1 -19
right_child=1 2 4 7 6 21 -8 -9 9 10 -12 14 13 -15 -16 -17 -18 23 20 -21 22 -23 27 -25 -26 -27 -28 -29 -30 -31
leaf_value=0.53916666422729143 0.46416666646246557 0.54916666392926816 0.52916666452531458 0.49416666556839589 0.54361110853928107 0.51345237927935106 0.47189393895944759 0.45685897437255946 0.534166664376303 0.54499999738677785 0.45392857152948934 0.4571666666710818 0.45392857152948934 0.52013440672998068 0.51416666497234942 0.50416666527037268 0.54916666392926816 0.45416666676048878 0.50568840435545603 0.46839743556714802 0.47773809462943406 0.54916666392926816 0.44916666690950036 0.47916666601543073 0.51416666497234942 0.52416666467432615 0.46916666631345394 0.46655797073902522 0.54916666392926816 0.44916666690950036
leaf_weight=20 20 23 20 20 36 28 22 26 20 24 21 25 21 31 20 20 20 20 23 26 35 68 91 20 20 20 20 23 162 135
leaf_count=20 20 23 20 20 36 28 22 26 20 24 21 25 21 31 20 20 20 20 23 26 35 68 91 20 20 20 20 23 162 135
internal_value=0.499074 0.487298 0.480676 0.531458 0.477129 0.525891 0.516408 0.496136 0.473167 0.471149 0.4925 0.504239 0.467016 0.493397 0.4825 0.541959 0.521667 0.463695 0.471644 0.496993 0.464864 0.53875 0.458563 0.454808 0.532888 0.545701 0.452024 0.452675 0.548068 0.449812
internal_weight=0 792 676 288 633 116 58 66 575 555 90 69 465 52 45 222 40 413 218 46 172 96 149 195 43 202 175 114 182 155
internal_count=1080 792 676 288 633 116 58 66 575 555 90 69 465 52 45 222 40 413 218 46 172 96 149 195 43 202 175 114 182 155
shrinkage=1


Tree=1
num_leaves=31
num_cat=0
split_feature=542 258 259 7 605 43 644 406 600 28 121 34 80 353 613 543 656 537 178 470 619 79 432 129 428 118 430 149 497 729
split_gain=33.4871 16.3801 11.4134 10.4746 10.8571 6.81845 6.55701 5.15763 4.9584 3.8313 3.82099 3.7337 3.51471 2.64382 2.28144 2.08976 2.24055 2.07259 1.56579 2.18401 1.21627 0.922963 0.613248 0.544674 0.312164 0.253251 0.181725 0.0178941 0.0122626 0.00863575
threshold=-1.2909999999999997 -0.89799999999999991 0.21050000000000002 -1.2029999999999998 1.018 0.58650000000000013 -1.8169999999999999 1.1235000000000002 -0.64449999999999996 -0.64449999999999996 -0.47449999999999992 -0.18049999999999997 -0.56649999999999989 -1.0649999999999997 -0.38449999999999995 -1.1289999999999998 -1.1724999999999997 -1.2064999999999999 -1.0244999999999997 -0.092999999999999985 -0.25149999999999995 -0.63049999999999995 0.60050000000000014 -0.38999999999999996 0.93700000000000017 -0.26199999999999996 -1.0504999999999998 -0.65199999999999991 -0.6359999999999999 -0.62249999999999994
decision_type=2 2 2 2 2 2 2 2 2 2 2 2 2 2 2 2 2 2 2 2 2 2 2 2 2 2 2 2 2 2
left_child=5 2 10 21 6 12 -5 9 -6 11 -2 -8 -1 -11 -10 -15 -17 -18 19 -19 23 -3 27 -14 26 -16 -20 -12 -25 -28
right_child=1 3 -4 4 8 -7 7 -9 14 13 22 -13 20 15 25 16 17 18 24 -21 -22 -23 -24 28 -26 -27 29 -29 -30 -31
leaf_value=-0.00094288993965495728 -0.0038751076568256724 0.046515153077515692 -0.043199962766274164 0.031683333963155751 -0.021556667784849805 -0.023826281130313876 -0.031461605881199693 0.0088597830188901806 -0.00050970375537872324 -0.001990884427840893 0.045434003284102992 0.015423344033105033 0.029613783458868666 -0.01038776831701398 0.046792115211486823 -0.0053123212995983306 -0.0099432051181793223 0.00092455565929412849 -0.035931970924139023 -0.043030020250723916 0.018284799513362704 0.016833334863185886 0.026683335006237031 0.045315892959749977 -0.034706481568741079 0.03169489607214928 -0.047253119396535981 0.048910544216632851 0.047476107965816153 -0.045599526629090947
leaf_weight=22 22 22 23 20 30 20 33 38 20 26 57 35 24 32 25 21 23 20 20 26 21 20 20 129 33 20 38 20 33 187
leaf_count=22 22 22 23 20 30 20 33 38 20 26 57 35 24 32 25 21 23 20 20 26 21 20 20 129 33 20 38 20 33 187
internal_value=0 -0.00963887 0.0212871 -0.0160126 -0.019154 0.0321683 -0.024528 -0.0266412 0.0120716 -0.0293721 0.033751 -0.00732965 0.0370586 -0.0328906 0.0275924 -0.0348991 -0.0370305 -0.03895 -0.0410092 -0.0239193 0.0410975 0.032381 0.0422847 0.0436731 -0.043837 0.0400822 -0.0450668 0.046337 0.0457559 -0.0458788
internal_weight=0 831 142 689 647 249 552 532 95 494 119 68 229 426 65 400 368 347 324 46 207 42 97 186 278 45 245 77 162 225
internal_count=1080 831 142 689 647 249 552 532 95 494 119 68 229 426 65 400 368 347 324 46 207 42 97 186 278 45 245 77 162 225
shrinkage=0.1


Tree=2
num_leaves=31
num_cat=0
split_feature=542 67 259 7 723 592 165 63 585 510 285 509 39 542 501 182 317 289 449 197 165 655 122 121 475 128 205 249 199 258
split_gain=27.2965 13.9732 10.1068 9.21975 7.94979 7.4898 5.22629 5.14865 5.06774 3.63389 3.40632 3.11439 2.99336 2.6484 2.22052 1.98514 1.76007 1.58795 1.38943 3.00605 1.29791 0.862728 0.75141 0.541644 0.478973 0.339675 0.283404 0.1572 0.156327 0.0520207
threshold=-1.1484999999999996 -0.92699999999999994 0.23050000000000004 -1.2029999999999998 -1.3469999999999998 -0.79699999999999993 -1.1444999999999996 1.6285000000000001 0.25850000000000006 0.80550000000000022 -0.025499999999999998 -0.11049999999999999 0.73750000000000016 -0.83399999999999985 -0.14149999999999996 1.9000000000000001 -0.88649999999999995 0.19950000000000004 0.49350000000000005 -0.29749999999999993 1.3290000000000004 -2.1229999999999998 0.76000000000000012 -0.26749999999999996 0.94700000000000006 0.94400000000000006 -0.022499999999999996 1.0310000000000001 -0.8095 -0.98549999999999993
decision_type=2 2 2 2 2 2 2 2 2 2 2 2 2 2 2 2 2 2 2 2 2 2 2 2 2 2 2 2 2 2
left_child=5 2 7 21 12 14 10 23 -7 13 -6 -11 -5 -8 22 16 -15 -13 20 -20 24 -3 28 -2 25 27 -21 -18 -1 -25
right_child=1 3 -4 4 6 8 9 -9 -10 11 -12 17 -14 15 -16 -17 18 -19 19 26 -22 -23 -24 29 -26 -27 -28 -29 -30 -31
leaf_value=0.032157491296529776 0.024327426105737689 0.042808058316057385 -0.039538544989549201 -0.0060465268113396387 0.038286832787773832 0.020573595715196513 -0.0016233995105281022 -0.010026059437681128 -0.035493544489145282 -0.030389750666088528 -0.018019326811745055 0.033515172898769381 0.045020621145764994 -0.0041628982126712807 0.0033725233376026157 -0.0058747595754163016 -0.042932780264037677 -0.0058567156394322721 0.0076259786668031113 -0.02845708250999451 -0.015358622372150422 0.014111136347055436 0.021288962079131085 0.041203780643275532 -0.025847219772960828 -0.028789434688431877 -0.044733486097791923 -0.033638572990894317 0.041538066515382735 0.046974376127833416
leaf_weight=20 20 22 26 22 22 38 33 27 28 27 21 20 24 20 20 29 202 21 23 20 24 20 23 61 23 21 23 20 159 21
leaf_count=20 20 22 26 22 22 38 33 27 28 27 21 20 24 20 20 29 202 21 23 20 24 20 23 61 23 21 23 20 159 21
internal_value=0 -0.00958684 0.0173402 -0.016139 -0.0193353 0.0263638 -0.0226812 0.0288042 -0.00321246 -0.0255255 0.0107885 -0.00401781 0.0205972 -0.0288646 0.0351568 -0.0310842 -0.0330286 0.0133491 -0.0346502 -0.0215548 -0.0376306 0.0291429 0.0383037 0.0390828 -0.0396401 -0.0409456 -0.0371631 -0.0420955 0.04049 0.0426816
internal_weight=0 792 155 637 595 288 549 129 66 506 43 68 46 438 222 405 376 41 356 66 290 42 202 102 266 243 43 222 179 82
internal_count=1080 792 155 637 595 288 549 129 66 506 43 68 46 438 222 405 376 41 356 66 290 42 202 102 266 243 43 222 179 82
shrinkage=0.1


Tree=3
num_leaves=31
num_cat=0
split_feature=542 258 259 217 21 727 43 5 549 455 58 220 692 121 80 548 281 510 651 129 716 375 24 660 181 699 372 462 520 501
split_gain=22.1418 11.1701 7.71787 7.03975 7.28919 4.98418 4.89653 3.97023 4.61033 3.95355 5.10578 3.80527 3.30469 2.58774 2.44689 2.05662 1.97028 1.83832 1.34464 0.972584 0.787276 0.657967 0.647834 0.539015 0.412661 0.377185 0.175981 0.0728565 0.0605503 0.0418983
threshold=-1.2909999999999997 -0.89799999999999991 0.21050000000000002 1.3025000000000002 1.5940000000000001 -1.0000000180025095e-35 0.58650000000000013 -0.054499999999999993 -0.55349999999999999 0.22550000000000003 0.37150000000000005 0.019500000000000003 1.0190000000000003 -0.47449999999999992 -0.56649999999999989 -0.34699999999999992 -0.70649999999999979 0.79200000000000015 0.68500000000000016 -0.38999999999999996 0.40450000000000008 -0.79599999999999993 1.0000000180025095e-35 0.63950000000000007 0.75750000000000017 0.13450000000000004 -0.28449999999999992 -0.50599999999999989 0.77850000000000008 -0.23749999999999996
decision_type=2 2 2 2 2 2 2 2 2 2 2 2 2 2 2 2 2 2 2 2 2 2 2 2 2 2 2 2 2 2
left_child=6 2 13 4 7 -5 14 8 11 18 15 -3 16 -2 -1 -11 -9 21 22 -16 -17 -18 26 -15 27 29 -10 -23 -29 -21
right_child=1 3 -4 5 -6 -7 -8 12 9 10 -12 -13 -14 23 19 20 17 -19 -20 25 -22 24 -24 -25 -26 -27 -28 28 -30 -31
leaf_value=-0.0014059635725888339 -0.0030144203792918812 0.035543683256421772 -0.035328530228656271 -0.0175406268487374 0.031758993764718378 0.040102979093790056 -0.021293771862983705 -0.0051365221368855447 -0.029724865853786472 0.0091254943609237662 0.030529001445481277 -0.016154978051781656 0.009626791529033495 0.039010057528813681 0.016340456690107072 -0.040759393114310045 -0.020835624405970941 -0.0090001154562522629 -0.0099920409731566913 0.037394848980491967 -0.014369311928749086 -0.043148904045422876 -0.019071361919244134 0.021209065751595934 -0.02776053784524693 0.023439577221870424 -0.040579244949049874 -0.03960448555324389 -0.033653432840392704 0.04229009419679642
leaf_weight=22 22 35 23 24 30 40 20 29 20 20 33 24 23 75 28 26 26 29 32 139 20 48 24 22 34 20 59 92 21 20
leaf_count=22 22 35 23 24 30 40 20 29 20 20 33 24 23 75 28 26 26 29 32 139 20 48 24 22 34 20 59 92 21 20
internal_value=0 -0.00783779 0.0177006 -0.0131011 -0.0163357 0.0184866 0.0261574 -0.0187607 -0.0104675 -0.0167662 -0.00158751 0.0145137 -0.0268067 0.0279499 0.0303017 -0.0176458 -0.0298101 -0.0326723 -0.0278973 0.0336715 -0.0292854 -0.0357786 -0.0334601 0.0349727 -0.037771 0.0363826 -0.0378313 -0.039885 -0.0384985 0.0380106
internal_weight=0 831 142 689 625 64 249 595 293 234 99 59 302 119 229 66 279 250 135 207 46 221 103 97 195 179 79 161 113 159
internal_count=1080 831 142 689 625 64 249 595 293 234 99 59 302 119 229 66 279 250 135 207 46 221 103 97 195 179 79 161 113 159
shrinkage=0.1


Tree=4
num_leaves=31
num_cat=0
split_feature=542 67 264 217 592 723 555 165 291 467 309 510 509 542 293 259 26 557 643 627 146 345 45 655 67 20 690 68 366 594
split_gain=18.0946 9.55017 7.4388 6.42357 5.64089 4.54231 3.61026 3.49782 3.20152 3.06284 2.81778 2.58196 2.92589 2.59321 1.69138 1.53219 1.43394 1.37576 2.68499 1.2105 0.804267 1.24288 2.37419 0.27599 0.25443 0.245664 0.207158 0.0868887 0.0848348 0.0604892
threshold=-1.1484999999999996 -0.85749999999999982 -0.037499999999999992 1.2800000000000002 -0.28649999999999992 -1.3469999999999998 -0.28699999999999992 -1.1994999999999998 0.22150000000000003 -0.39949999999999997 -0.39849999999999997 0.83050000000000013 -0.11049999999999999 -0.83399999999999985 -0.77899999999999991 -0.081499999999999989 -1.3714999999999999 0.29150000000000004 0.38050000000000006 0.12650000000000003 -0.36449999999999994 -0.15349999999999997 0.50350000000000017 0.29300000000000004 0.78300000000000014 0.093000000000000013 -0.34849999999999992 -0.85249999999999992 -0.24999999999999997 -1.9909999999999999
decision_type=2 2 2 2 2 2 2 2 2 2 2 2 2 2 2 2 2 2 2 2 2 2 2 2 2 2 2 2 2 2
left_child=4 2 -2 5 9 -3 -6 -7 24 -1 -4 13 -13 -9 -15 25 -16 18 -11 -14 21 22 -18 -23 -5 -12 -22 -27 -19 -30
right_child=1 3 10 8 6 7 -8 11 -10 17 15 12 19 14 16 -17 20 28 -20 -21 26 23 -24 -25 -26 27 -28 -29 29 -31
leaf_value=-0.010348767787218095 -0.02657137448723252 0.015799843195157173 -0.0105403271317482 0.038423994928598409 -0.041844625416256137 0.011900023529023836 0.017521239817142487 0.0010406016475624509 -0.01455668146195619 0.033007086851657964 0.025668480396270756 -0.030651629343628885 0.030910020619630815 -0.0073011713914382147 -0.0067016725356762235 0.0050208857655525208 0.0067270066056932731 0.04092480079694228 -0.011344036034175329 -0.0038821966946125035 -0.028724466787802206 -0.037178738628114973 -0.034097119549225119 -0.023493744432926178 0.023152203410863877 0.043427805873480718 -0.037095915662999059 0.0359308571769641 0.029154404401779178 0.035077558636665347
leaf_weight=20 37 39 20 24 21 33 20 36 23 39 20 24 20 39 26 20 28 22 21 20 37 56 29 20 20 22 147 52 20 125
leaf_count=20 37 39 20 24 21 33 20 36 23 39 20 24 20 39 26 20 28 22 21 20 37 56 29 20 20 22 147 52 20 125
internal_value=0 -0.00780542 0.0131208 -0.0135677 0.0214649 -0.0171046 -0.0128857 -0.0195964 0.0156779 0.0271668 0.0240806 -0.0217528 -0.00304817 -0.0246167 -0.0270347 0.0301544 -0.0292784 0.0304722 0.0174842 0.0135139 -0.0311301 -0.0252056 -0.0140432 -0.0335774 0.0314823 0.035502 -0.0354125 0.0381597 0.0351385 0.0342606
internal_weight=0 792 171 621 288 554 41 515 67 247 134 482 64 418 382 114 343 227 60 40 317 133 57 76 44 94 184 74 167 145
internal_count=1080 792 171 621 288 554 41 515 67 247 134 482 64 418 382 114 343 227 60 40 317 133 57 76 44 94 184 74 167 145
shrinkage=0.1


Tree=5
num_leaves=31
num_cat=0
split_feature=542 67 63 217 677 260 291 721 362 300 88 39 412 720 592 169 609 438 361 243 466 87 602 384 99 234 85 108 129 214
split_gain=14.6566 7.8116 5.59439 5.47531 5.04219 4.41671 4.24174 3.39894 3.08311 2.59992 3.37871 2.41304 2.91498 2.51523 2.38514 2.00322 1.8448 1.44118 0.971099 1.52746 0.870504 0.649316 0.599534 0.563614 0.250969 0.250401 0.181516 0.121653 0.110082 0.0854058
threshold=-1.1484999999999996 -1.2024999999999999 1.8510000000000002 1.0825000000000002 0.24750000000000003 -1.6524999999999996 0.12950000000000003 -0.92549999999999988 1.6020000000000001 0.10950000000000001 -0.023999999999999997 0.37900000000000006 0.26700000000000007 1.6520000000000004 -0.28649999999999992 0.42000000000000004 0.16950000000000004 1.2935000000000001 -0.33249999999999996 0.010500000000000001 0.16700000000000004 0.0045000000000000014 -0.15749999999999997 -1.2169999999999999 1.3900000000000001 0.21100000000000002 0.15200000000000002 -1.1019999999999996 -0.14599999999999996 0.20100000000000004
decision_type=2 2 2 2 2 2 2 2 2 2 2 2 2 2 2 2 2 2 2 2 2 2 2 2 2 2 2 2 2 2
left_child=4 2 20 5 14 -3 21 9 11 10 -7 13 15 18 17 26 -14 22 19 -9 28 -5 25 -20 27 29 -13 -25 -2 -1
right_child=1 3 -4 6 -6 7 -8 8 -10 -11 -12 12 16 -15 -16 -17 -18 -19 23 -21 -22 -23 -24 24 -26 -27 -28 -29 -30 -31
leaf_value=0.031235836303397404 0.040224146544933323 0.027834422951159274 -0.018327058809144158 0.012831439574559532 -0.02669059309092435 0.038387434503861839 -0.016410970025592383 -0.032742391313825336 0.012079929134675435 -0.027434840940293817 -0.010738541185855866 -0.035633714880262103 -0.0093835821747779852 0.0060885139487006452 -0.0034353381395339968 0.0050150793223153987 0.033567581772804264 0.0032742974658807123 -0.016309770941734313 -0.0025141527876257896 0.010760233373869034 0.034641743317628523 0.012652250230312349 -0.02727449953556061 -0.023602386142896573 0.020806692540645599 -0.023691374808549881 -0.03551460095616274 0.031470532335487071 0.037672875449061394
leaf_weight=146 20 23 35 21 22 28 36 35 28 21 28 35 20 22 30 21 20 24 21 32 21 39 20 20 23 22 20 172 51 24
leaf_count=146 20 23 35 21 22 28 36 35 28 21 28 35 20 22 30 21 20 24 21 32 21 39 20 20 23 22 20 172 51 24
internal_value=0 -0.00702488 0.0157008 -0.011365 0.0193184 -0.0150921 0.010726 -0.0169003 -0.0200973 0.00257191 0.0138244 -0.0221403 -0.00975871 -0.0265595 0.0231237 -0.0212591 0.012092 0.0264998 -0.02893 -0.018305 0.0286461 0.0270081 0.0291291 -0.0319464 -0.0334737 0.0308455 -0.031291 -0.0346563 0.0339363 0.0321446
internal_weight=0 792 127 665 288 569 96 546 469 77 56 441 116 325 266 76 40 236 303 67 92 60 212 236 215 192 55 192 71 170
internal_count=1080 792 127 665 288 569 96 546 469 77 56 441 116 325 266 76 40 236 303 67 92 60 212 236 215 192 55 192 71 170
shrinkage=0.1


Tree=6
num_leaves=31
num_cat=0
split_feature=673 39 337 510 281 424 46 682 608 187 21 611 717 608 608 375 592 758 481 342 655 683 280 639 224 496 542 542 317 113
split_gain=12.3171 7.2095 4.61462 4.40224 3.79928 3.46953 3.42454 3.30427 3.10221 3.0205 2.47963 2.60841 2.34543 2.1764 2.05079 1.85759 1.72045 1.27363 0.951906 0.876065 0.850998 0.70697 0.674204 1.30713 0.442783 0.389532 0.158491 0.139582 0.107764 0.0778759
threshold=-0.88049999999999995 0.48200000000000004 -1.5444999999999998 0.80550000000000022 0.60400000000000009 -0.54599999999999993 -0.51899999999999991 -0.28549999999999992 -0.45199999999999996 -1.2574999999999996 0.24750000000000003 -0.19299999999999998 -1.1609999999999998 -0.37649999999999995 0.070500000000000021 0.11100000000000002 -0.8304999999999999 -1.1944999999999999 0.25400000000000006 0.026000000000000006 -0.72499999999999987 0.70600000000000007 0.50050000000000006 -0.11599999999999999 1.0000000180025095e-35 -0.78449999999999986 -0.83399999999999985 -1.2909999999999997 -0.62999999999999989 0.18950000000000003
decision_type=2 2 2 2 2 2 2 2 2 2 2 2 2 2 2 2 2 2 2 2 2 2 2 2 2 2 2 2 2 2
left_child=6 2 5 9 8 -2 -1 -5 -3 15 11 18 -11 -9 -15 -4 24 -14 -10 29 -7 22 25 -24 27 -19 -27 -8 -28 -12
right_child=1 4 3 7 -6 20 16 13 10 12 19 -13 17 14 -16 -17 -18 21 -20 -21 -22 -23 23 -25 -26 26 28 -29 -30 -31
leaf_value=-0.01188453080192689 -0.024097620993852615 -0.016259404151670397 0.025149677287448536 0.03318258406860488 -0.028965331117312115 0.03428776527152342 0.028374863835051656 -0.031053951978683471 0.0025003474205732346 0.0015296162002616459 0.034957298040390015 -0.021201167172855803 -0.0014951593819118683 0.029200849384069444 -0.016084756255149841 -0.01338482951295787 0.0045088768005371099 -0.0188554540924404 0.032330282874729326 0.010155169789989789 0.0082917574048042304 -0.013320748858592092 -0.0017381812334060669 -0.031676799101488927 0.016290172112399134 -0.040048823595046995 -0.037591069340705878 0.036286988744029296 -0.030485663032286787 0.029010699780619875
leaf_weight=31 20 31 22 28 24 34 128 25 20 36 40 27 21 20 20 29 39 23 23 24 20 34 25 35 29 25 25 27 146 49
leaf_count=31 20 31 22 28 24 34 128 25 20 36 40 27 21 20 20 29 39 23 23 24 20 34 25 35 29 25 25 27 146 49
internal_value=0 -0.005922 -0.0118658 -0.0152271 0.00876262 0.011482 0.0192582 0.00446328 0.0129938 -0.0195768 0.0179492 0.0031596 -0.0227215 -0.00790811 0.00655805 0.0032379 0.0235874 -0.0253354 0.0184559 0.027111 0.0246596 -0.0269349 -0.028594 -0.0192024 0.0276312 -0.031167 -0.0326118 0.0297531 -0.0315245 0.0316833
internal_weight=0 826 588 514 238 74 254 93 214 421 183 70 370 65 40 51 223 334 43 113 54 313 279 60 184 219 196 155 171 89
internal_count=1080 826 588 514 238 74 254 93 214 421 183 70 370 65 40 51 223 334 43 113 54 313 279 60 184 219 196 155 171 89
shrinkage=0.1


Tree=7
num_leaves=31
num_cat=0
split_feature=542 104 162 140 723 658 230 365 272 734 515 192 235 277 250 698 100 416 282 105 252 692 319 124 704 246 483 47 207 204
split_gain=10.1345 6.18708 5.09658 4.55078 4.1149 3.65143 3.56034 2.89533 2.71766 2.54165 2.07236 1.78569 1.29426 1.11548 2.20629 1.02833 0.905217 0.8346 0.819977 0.784082 0.641552 0.586586 0.545036 0.433494 0.357314 0.333748 0.189216 0.19184 0.154857 0.146962
threshold=-1.2909999999999997 -0.018999999999999996 -0.70799999999999985 -1.5924999999999998 -1.4404999999999999 0.0080000000000000019 0.14500000000000002 -1.1784999999999999 0.52950000000000019 -0.25649999999999995 0.084500000000000006 0.47100000000000003 -0.43749999999999994 0.49150000000000005 0.17000000000000001 0.19300000000000003 1.1735000000000002 -0.81799999999999984 -0.0064999999999999997 0.49950000000000006 0.66850000000000021 0.17550000000000002 -0.35599999999999993 0.58100000000000007 0.56050000000000011 -0.62249999999999994 -0.21149999999999997 -0.42849999999999994 -0.15299999999999997 -0.11149999999999999
decision_type=2 2 2 2 2 2 2 2 2 2 2 2 2 2 2 2 2 2 2 2 2 2 2 2 2 2 2 2 2 2
left_child=8 4 10 23 -2 6 9 -6 12 -5 22 18 -1 16 -15 -8 24 -7 -11 -16 29 26 -3 -4 25 -9 -14 -28 -24 -19
right_child=1 2 3 5 7 17 15 13 -10 11 -12 -13 21 14 19 -17 -18 20 -20 -21 -22 -23 28 -25 -26 -27 27 -29 -30 -31
leaf_value=-0.0010114702085653941 0.024155775581796966 0.0093973670899868012 0.034482708832492 -0.020856142653660342 0.012493028298572259 -0.0033969029039144522 -0.028740394188136589 -0.01984221382487205 -0.015861685506322169 0.015192496005831094 -0.0053215102354685472 -2.568115790685018e-05 0.035166692957282066 0.017153008803725243 -0.0075486243419025257 -0.0010822185873985291 -0.0062899672172286305 -0.022241664826869966 0.038408730179071426 -0.031754631642252208 -0.01050288738174872 0.011967463253272905 0.025003917422145607 0.015067474349685337 -0.015083315894007682 -0.031324607339026277 0.016188422590494158 0.026314992320537568 0.034155776179753815 -0.032080797046896009
leaf_weight=24 24 20 23 22 27 20 41 31 22 29 30 39 20 20 23 20 22 20 32 32 22 36 64 23 20 138 22 125 26 63
leaf_count=24 24 20 23 22 27 20 41 31 22 29 30 39 20 20 23 20 22 20 32 32 22 36 64 23 20 138 22 125 26 63
internal_value=0 -0.00530259 0.0018242 -0.00456341 -0.0157496 -0.00894513 5.36859e-05 -0.0188094 0.0176966 0.0099166 0.0179757 0.0166866 0.0209489 -0.0217645 -0.0112894 -0.0196721 -0.0254879 -0.0221194 0.0273715 -0.0216321 -0.0256856 0.0235452 0.0243295 0.0247751 -0.0277226 -0.0292184 0.026041 0.0247995 0.0276478 -0.0297099
internal_weight=0 831 494 354 337 308 183 313 249 122 140 100 227 286 75 61 211 125 61 55 105 203 110 46 189 169 167 147 90 83
internal_count=1080 831 494 354 337 308 183 313 249 122 140 100 227 286 75 61 211 125 61 55 105 203 110 46 189 169 167 147 90 83
shrinkage=0.1


Tree=8
num_leaves=31
num_cat=0
split_feature=673 68 162 677 232 243 277 654 40 712 566 172 692 489 163 27 429 679 298 423 642 130 438 309 203 610 298 740 676 358
split_gain=8.4121 5.48946 5.07409 3.44058 2.67367 2.63749 3.21767 2.63868 2.41308 1.9901 1.76921 1.65012 1.52883 1.46007 1.26939 1.06846 0.991932 0.886402 1.14046 0.881428 0.880468 0.653123 0.64189 0.514503 0.511959 0.30309 0.287504 0.232931 0.27515 0.22567
threshold=-0.88049999999999995 0.27950000000000008 -0.69349999999999989 0.23150000000000004 0.11900000000000001 0.50100000000000011 0.42200000000000004 -1.4139999999999997 0.54950000000000021 1.8880000000000001 0.45050000000000007 -0.30899999999999994 0.14850000000000002 0.25150000000000006 -0.10149999999999999 -0.76049999999999984 -0.0099999999999999967 0.085500000000000007 -0.047999999999999994 -0.8095 0.11650000000000002 0.40750000000000003 -0.19349999999999998 -0.21599999999999997 -0.79899999999999993 -0.045999999999999992 0.27100000000000007 -0.12649999999999997 -0.25749999999999995 -0.20899999999999996
decision_type=2 2 2 2 2 2 2 2 2 2 2 2 2 2 2 2 2 2 2 2 2 2 2 2 2 2 2 2 2 2
left_child=8 2 4 5 -2 6 7 -4 13 14 17 12 -9 20 -3 -5 -13 18 -8 -16 25 26 -7 -6 -21 29 -17 -26 -29 -1
right_child=1 9 3 15 23 22 10 11 -10 -11 -12 16 -14 -15 19 21 -18 -19 -20 24 -22 -23 -24 -25 27 -27 -28 28 -30 -31
leaf_value=0.034951400384306906 -0.0072689245144526172 0.0031341850757598878 0.02468959814310074 0.0018122326760064988 0.011775354127730092 -0.008530734479427338 0.029424156469327434 -0.012433239509319438 -0.017424486204981805 0.012170323207974435 -0.0050666614220692564 -0.027278819002888421 0.022090548600839532 -0.0046011113872130712 -0.0034814649820327764 -0.030512079289035196 -0.0012727212160825729 0.037214152646415373 -0.0020817334204912183 -0.01063374549150467 0.0014775652438402177 -0.009255609688935457 -0.032566148042678836 0.026734570003627389 -0.031510037648213376 0.012498964978889986 -0.017001259823640189 -0.013633722960948945 -0.027364297569901858 0.023634016473551053
leaf_weight=20 39 20 25 21 31 20 27 29 20 20 26 55 23 24 20 63 20 34 20 20 20 27 25 89 77 22 21 20 54 148
leaf_count=20 39 20 25 21 31 20 27 29 20 20 26 55 23 24 20 63 20 34 20 20 20 27 25 89 77 22 21 20 54 148
internal_value=0 -0.00489404 0.000185477 -0.00539121 0.0154775 0.000462389 0.00434492 -0.00500678 0.0159153 -0.0179776 0.0176296 -0.0108525 0.0028369 0.0187648 -0.0208353 -0.0188722 -0.0203439 0.0249148 0.0160174 -0.0233451 0.0214352 -0.0227855 -0.0218837 0.0228701 -0.0256684 0.023536 -0.0271344 -0.0276597 -0.0236533 0.0249813
internal_weight=0 826 595 436 159 304 259 152 254 231 107 127 52 234 211 132 75 81 47 191 210 111 45 120 171 190 84 151 74 168
internal_count=1080 826 595 436 159 304 259 152 254 231 107 127 52 234 211 132 75 81 47 191 210 111 45 120 171 190 84 151 74 168
shrinkage=0.1


Tree=9
num_leaves=31
num_cat=0
split_feature=673 68 162 677 620 277 43 232 232 279 511 297 295 186 545 151 647 31 677 543 117 519 309 326 568 39 556 486 755 658
split_gain=6.8138 4.44646 4.12429 2.86495 2.26111 2.15835 2.09875 2.05505 1.77074 1.64386 1.61465 1.61331 1.59783 1.58082 1.50541 1.30941 0.985879 0.934593 0.888913 0.690291 0.58764 1.07758 0.529043 0.500924 0.899367 0.494277 0.390832 0.326284 0.213544 0.188578
threshold=-0.88049999999999995 0.27950000000000008 -0.64899999999999991 0.23150000000000004 -1.0054999999999998 0.46600000000000008 0.55750000000000022 0.18350000000000002 -0.34749999999999992 1.4270000000000003 -0.12799999999999997 0.49300000000000005 0.016500000000000004 -0.39899999999999997 -0.18349999999999997 1.6060000000000001 -0.74899999999999989 0.47200000000000003 -0.20399999999999999 -1.0000000180025095e-35 -0.43599999999999994 0.99650000000000005 -0.30149999999999993 0.096000000000000016 -0.0054999999999999988 0.47750000000000004 0.47500000000000003 -0.26449999999999996 0.26450000000000007 0.13600000000000004
decision_type=2 2 2 2 2 2 2 2 2 2 2 2 2 2 2 2 2 2 2 2 2 2 2 2 2 2 2 2 2 2
left_child=6 2 7 4 -4 8 11 10 -6 15 -2 20 18 -7 -14 17 -5 25 -10 26 21 -1 -9 24 -18 -3 -15 29 -24 -22
right_child=1 9 3 16 5 13 -8 22 12 -11 -12 -13 14 19 -16 -17 23 -19 -20 -21 27 -23 28 -25 -26 -27 -28 -29 -30 -31
leaf_value=-0.0075572384148836136 0.012969649795975006 -0.026208230244441771 -0.022728915230647937 0.0019723640924150295 -0.022228074608704983 -0.0090625282038341876 -0.015194922346960417 0.0061782976984977728 -0.026311382244933734 0.011220281496644021 -0.022788998484611512 -0.0086410500786521221 0.025516861481101889 0.035851123126653527 -0.0044491954644521074 0.005567336529493332 -0.024718710524695264 -0.0019384726204655389 0.00076772432636331637 0.0059017753736539322 0.021918041443470683 0.024514471942728218 0.032461211409257805 -0.028332388859528764 0.0010837184434587305 -0.011447679610164078 0.019665141105651859 0.030223213245229027 0.02139306159483062 0.012368114865743199
leaf_weight=20 28 142 37 22 39 22 22 20 22 20 23 22 38 26 30 20 35 22 27 22 101 22 23 52 22 27 35 41 72 26
leaf_count=20 28 142 37 22 39 22 22 20 22 20 23 22 38 26 30 20 35 22 27 22 101 22 23 52 22 27 35 41 72 26
internal_value=0 -0.00440463 0.000166929 -0.00501202 0.000406211 0.0036859 0.0143237 0.0135511 -0.00377469 -0.0161799 -0.0031568 0.0171229 0.00237644 0.0147702 0.0122965 -0.018777 -0.0173374 -0.0213262 -0.0113902 0.0210873 0.019822 0.00924223 0.0209606 -0.0212348 -0.0147599 -0.02385 0.0265641 0.0224669 0.0240727 0.0199629
internal_weight=0 826 595 429 298 261 254 166 156 231 51 232 117 105 68 211 131 191 49 83 210 42 115 109 57 169 61 168 95 127
internal_count=1080 826 595 429 298 261 254 166 156 231 51 232 117 105 68 211 131 191 49 83 210 42 115 109 57 169 61 168 95 127
shrinkage=0.1


Tree=10
num_leaves=31
num_cat=0
split_feature=542 104 36 162 140 658 614 64 720 742 477 515 366 32 390 555 601 567 57 462 314 50 319 477 756 714 251 542 375 598
split_gain=5.56909 3.80736 3.1176 2.64504 3.0641 2.66438 2.08164 1.9613 1.92015 1.834 1.60311 1.54357 1.18888 0.941848 0.914239 0.749299 0.743332 1.31019 0.594414 0.479152 0.394283 0.515254 0.36927 0.359985 0.348471 0.527933 0.262672 0.169331 0.144118 0.142786
threshold=-1.3424999999999998 -1.0000000180025095e-35 -0.65049999999999997 -0.70799999999999985 -1.5129999999999997 -0.21499999999999997 0.34650000000000009 -0.030999999999999996 -0.44799999999999995 -0.75749999999999995 0.31150000000000005 0.084500000000000006 -0.47949999999999993 0.74350000000000016 -0.28599999999999992 -0.16899999999999998 0.43200000000000005 0.16300000000000003 0.82750000000000001 0.15150000000000002 -0.22149999999999997 -0.055499999999999994 -0.35599999999999993 1.0675000000000001 0.056500000000000009 0.44550000000000006 -0.6974999999999999 -0.68499999999999994 0.072500000000000009 -1.0084999999999997
decision_type=2 2 2 2 2 2 2 2 2 2 2 2 2 2 2 2 2 2 2 2 2 2 2 2 2 2 2 2 2 2
left_child=10 2 7 11 19 6 8 -2 -6 -4 12 22 -1 18 -10 -16 23 -18 20 -5 21 -7 -3 26 25 -14 -11 -28 -24 -19
right_child=1 3 9 4 5 13 -8 -9 14 16 -12 -13 24 -15 15 -17 17 29 -20 -21 -22 -23 28 -25 -26 -27 27 -29 -30 -31
leaf_value=-0.0068271758407354366 0.024866695044671788 0.0068036361783742911 0.0055472783105713986 0.010796186279866005 -0.010483211326983669 -0.0017042589932680131 -0.016569651166598 -0.01400237133105596 0.0039474465526067298 -0.012774392291903497 -0.01199694106524641 -0.0062070986916941987 0.021443262222138319 0.0047672769427299505 0.015030633091926574 0.039767801637450861 0.0083290655612945561 -0.026415662254605978 -0.0024709857255220415 0.029616707315047581 -0.025453448530874757 -0.02343709288785855 0.018601460230571253 -0.0093559957295656204 0.021066428100902763 -0.0010052514076232912 -0.031301122542583583 -0.023190323244302702 0.026839476866381509 -0.014754332318192438
leaf_weight=20 34 20 35 31 31 20 39 21 26 20 22 31 22 20 25 24 25 21 20 24 76 24 54 20 149 20 33 117 35 21
leaf_count=20 34 20 35 31 31 20 39 21 26 20 22 31 22 20 25 24 25 21 20 24 76 24 54 20 149 20 33 117 35 21
internal_value=0 -0.00376631 -0.0118144 0.00181903 -0.00271666 -0.00663436 0.00318366 0.0100258 0.0104514 -0.0159281 0.0136913 0.0134822 0.0163697 -0.0155319 0.0191044 0.0271468 -0.0188527 -0.00979617 -0.0184318 0.0190088 -0.021092 -0.0135585 0.019082 -0.0220464 0.0187987 0.0107535 -0.0235394 -0.0249747 0.0218411 -0.020585
internal_weight=0 847 347 500 360 305 145 55 106 292 233 140 211 160 75 49 257 67 140 55 120 44 109 190 191 42 170 150 89 42
internal_count=1080 847 347 500 360 305 145 55 106 292 233 140 211 160 75 49 257 67 140 55 120 44 109 190 191 42 170 150 89 42
shrinkage=0.1


Tree=11
num_leaves=31
num_cat=0
split_feature=596 34 39 387 619 304 186 232 614 375 47 84 427 523 283 446 546 670 125 411 599 104 590 200 505 706 431 541 138 164
split_gain=4.78724 3.65199 3.04724 2.96937 2.5039 2.35639 2.4448 1.65554 1.60911 1.50046 1.39162 1.73963 1.30574 1.26594 1.18865 1.16074 0.97664 0.852369 0.699475 0.618447 0.614803 0.591463 0.519482 0.50423 0.46523 0.45612 0.411982 0.227039 0.225883 0.183013
threshold=1.3915000000000002 -0.31499999999999995 0.88900000000000012 -0.85349999999999981 -0.71349999999999991 0.093500000000000014 0.51900000000000013 -0.41749999999999993 0.17200000000000001 0.23250000000000004 0.49450000000000005 -0.69499999999999984 -0.030499999999999996 0.55650000000000011 0.18900000000000003 0.46150000000000008 -0.51249999999999984 0.39900000000000008 -0.25999999999999995 0.82300000000000006 -0.19349999999999998 -0.37199999999999994 0.13500000000000004 -0.44549999999999995 -0.7164999999999998 -0.55449999999999988 -1.1884999999999997 0.048000000000000008 0.5635 -0.33949999999999997
decision_type=2 2 2 2 2 2 2 2 2 2 2 2 2 2 2 2 2 2 2 2 2 2 2 2 2 2 2 2 2 2
left_child=1 10 3 12 23 6 7 -6 21 15 19 -12 -3 18 -11 20 -7 -8 28 -1 25 -2 -20 -5 -23 -9 -14 -28 -4 -25
right_child=8 2 13 4 5 16 17 9 -10 14 11 -13 26 -15 -16 -17 -18 -19 22 -21 -22 24 -24 29 -26 -27 27 -29 -30 -31
leaf_value=-0.023481516183173956 0.0023896138050726484 -0.0083110857009887698 0.036447854127202715 -0.0075585544109344482 -0.011706611152851222 0.0012840223312377932 -0.025773848864165224 0.026927931256154003 -0.013881214857101441 -0.017282506823539736 -0.021580273048444232 0.016627398419838686 0.0087949943263083696 -0.0044245248039563503 0.014897743002934892 -0.0016774752736091617 -0.019579379796312097 0.00038867980241775514 0.0016808567643165587 -0.0055689463796822925 0.038650008973975976 0.0041160442289851964 0.023303395137190819 -0.032871982520041261 0.020001515815194871 0.0086942844416784213 0.017992406897246838 0.031574336737394335 0.022503621360430354 -0.021985748061474335
leaf_weight=119 28 25 21 20 33 30 33 34 20 24 22 26 32 27 22 20 89 20 25 23 24 21 20 23 151 23 32 20 26 47
leaf_count=119 28 25 21 20 33 30 33 34 20 24 22 26 32 27 22 20 89 20 25 23 24 21 20 23 151 23 32 20 26 47
internal_value=0 -0.00336738 0.00010282 -0.00303128 -0.0066768 -0.00287098 0.00297621 0.00853456 0.0131634 0.0130785 -0.0156044 -0.000884451 0.0117514 0.0146145 -0.00189195 0.0198967 -0.0143197 -0.0159012 0.020202 -0.0205802 0.0252237 0.0158679 0.0112909 -0.0215617 0.018062 0.0195705 0.0177224 0.0232162 0.028734 -0.0255627
internal_weight=0 860 670 551 442 352 233 180 220 147 190 48 109 119 46 101 119 53 92 142 81 200 45 90 172 57 84 52 47 70
internal_count=1080 860 670 551 442 352 233 180 220 147 190 48 109 119 46 101 119 53 92 142 81 200 45 90 172 57 84 52 47 70
shrinkage=0.1


Tree=12
num_leaves=31
num_cat=0
split_feature=673 21 104 103 230 732 754 550 427 111 714 706 485 6 266 532 249 461 477 644 667 138 475 564 492 220 342 567 533 331
split_gain=3.89488 2.80782 2.43522 2.60427 1.77257 1.75452 1.67961 1.64249 1.37668 1.31073 1.30251 1.62527 0.7986 1.37806 0.796722 0.8032 0.722708 0.702496 0.63758 0.445793 0.421963 0.412585 0.405363 0.396317 0.391444 0.355105 0.31089 0.292517 0.398723 0.278539
threshold=-0.88049999999999995 1.5940000000000001 -0.013499999999999998 1.4030000000000002 1.0020000000000002 0.17550000000000002 0.57500000000000007 -1.0274999999999996 -0.17499999999999996 0.88300000000000012 0.30400000000000005 0.9105000000000002 -0.49099999999999994 -0.17699999999999996 -1.1939999999999997 0.64850000000000019 -0.08649999999999998 0.52550000000000019 0.76850000000000007 0.80400000000000016 0.33900000000000008 -0.074499999999999983 -0.074999999999999983 -0.98099999999999987 0.40500000000000008 0.61850000000000016 0.016000000000000004 -1.0429999999999999 0.47650000000000003 0.37200000000000005
decision_type=2 2 2 2 2 2 2 2 2 2 2 2 2 2 2 2 2 2 2 2 2 2 2 2 2 2 2 2 2 2
left_child=8 2 7 4 5 6 10 -2 -1 20 18 16 29 -14 -9 19 -12 -5 23 27 -7 -3 -6 -4 25 26 -25 -16 -29 -10
right_child=1 21 3 17 22 9 -8 14 12 -11 11 -13 13 -15 15 -17 -18 -19 -20 -21 -22 -23 -24 24 -26 -27 -28 28 -30 -31
leaf_value=-0.014352676123380662 0.013306728564202785 0.0088373943418264388 0.030438499450683595 -0.022383031286930633 -0.0069836917377653577 -0.025630718264086496 -0.010357518264880548 0.0052745625376701358 0.014541001366199674 0.010214469403028489 0.00066261341174443569 0.018638837234727267 -0.018461321368813517 0.01411899167138177 -0.027942321216687563 0.00024220527246080595 -0.025898657441139224 -0.00069627463817596442 -6.3193812966346751e-05 -0.0064669562270864844 -0.0067498715221881861 0.027507252477366351 -0.026876199990510941 0.018674771795197141 0.0038233593851327895 0.0080811156202917518 0.032985339611768721 -0.020033690538115174 -0.0080187936127185822 0.02525865548643573
leaf_weight=20 24 20 25 59 21 29 39 20 148 25 21 29 20 37 32 29 20 20 20 32 20 29 20 63 20 23 20 131 35 29
leaf_count=20 24 20 25 59 21 29 39 20 148 25 21 29 20 37 32 29 20 20 20 32 20 29 20 63 20 23 20 131 35 29
internal_value=0 -0.00333014 -0.00479427 -0.000318267 0.00299662 0.0052764 0.00889562 -0.0117963 0.0108295 -0.00841793 0.0120113 0.000520972 0.0129818 0.0026873 -0.0139557 -0.0154407 -0.0122941 -0.0168927 0.0167149 -0.0174181 -0.0179243 0.0198869 -0.0166874 0.0189372 0.0166552 0.0190763 0.0221231 -0.019188 -0.0175004 0.016297
internal_weight=0 826 777 474 395 354 280 303 254 74 241 70 234 57 279 259 41 79 171 230 49 49 41 151 126 106 83 198 166 177
internal_count=1080 826 777 474 395 354 280 303 254 74 241 70 234 57 279 259 41 79 171 230 49 49 41 151 126 106 83 198 166 177
shrinkage=0.1


Tree=13
num_leaves=31
num_cat=0
split_feature=259 233 605 59 647 9 109 62 696 83 526 444 732 262 313 295 27 172 237 338 140 341 526 501 32 52 296 80 357 697
split_gain=3.36269 2.99401 2.61882 2.12533 2.0473 2.29911 1.97706 1.33469 1.60473 0.989593 0.956727 0.903461 0.799002 0.776779 0.773884 0.679125 0.534476 0.518186 0.481092 0.470184 0.467391 0.447296 0.409268 0.400995 0.376253 0.371091 0.365585 0.407393 0.265844 0.240813
threshold=0.6130000000000001 1.4205000000000003 0.85350000000000004 1.1205000000000003 -0.86649999999999994 -0.073999999999999982 -0.79299999999999993 -0.11349999999999999 0.059000000000000004 -0.34749999999999992 1.0210000000000001 0.17800000000000002 -0.90599999999999992 -0.53799999999999992 0.60000000000000009 -0.77899999999999991 -0.078999999999999987 0.55800000000000016 0.94600000000000006 0.10950000000000001 -1.1824999999999999 0.019500000000000003 -0.90649999999999997 -0.048499999999999995 -0.42549999999999993 0.53400000000000014 -0.34949999999999992 0.18900000000000003 0.056000000000000008 0.45750000000000007
decision_type=2 2 2 2 2 2 2 2 2 2 2 2 2 2 2 2 2 2 2 2 2 2 2 2 2 2 2 2 2 2
left_child=1 2 3 4 11 10 23 14 9 25 13 -1 -2 -6 19 -4 -15 -3 26 28 -13 -21 -14 -7 -10 -9 27 -17 -8 -28
right_child=12 17 15 -5 5 6 7 8 24 -11 -12 20 22 16 -16 18 -18 -19 -20 21 -22 -23 -24 -25 -26 -27 29 -29 -30 -31
leaf_value=0.0021086046143489723 0.0040011902650197353 -0.02160070293716022 -0.0042951562220142001 -0.022731444199342987 0.00054386801741741319 -0.0063385811590013054 0.030733738287731457 0.027772415181001028 -0.025016434814618984 -0.0039125038997123119 0.004871550807729364 0.011355720646679402 -0.0058903264884765339 -0.023905494614289358 -0.0019912821905953542 -0.00070261803010235671 -0.0084320994860985696 -0.0037728756666183475 -0.00023220494389534 0.016239731050417074 0.029092400501935914 -0.00012498203179110652 -0.019973566420376301 -0.025880831728378934 -0.006262384839355946 0.0087393951416015626 0.017330749788218077 0.015657667981253731 0.015925000438636001 0.029276624843478205
leaf_weight=34 21 56 21 37 27 21 27 21 23 38 32 24 26 65 28 23 34 23 20 61 39 23 100 21 20 20 108 45 22 20
leaf_count=34 21 56 21 37 27 21 27 21 23 38 32 24 26 65 28 23 34 23 20 61 39 23 100 21 20 20 108 45 22 20
internal_value=0 0.00221488 0.00393782 0.000505753 0.00198813 -0.000674369 0.00413617 0.00714085 -0.000748297 0.00771308 -0.0105695 0.0152457 -0.0140577 -0.014491 0.013119 0.0128728 -0.0185914 -0.0164103 0.0145419 0.0163001 0.0223356 0.0117589 -0.0170675 -0.0161097 -0.0162936 0.018488 0.0160494 0.010124 0.0240849 0.0191973
internal_weight=0 933 854 617 580 483 325 283 122 79 158 97 147 126 161 237 99 79 216 133 63 84 126 42 43 41 196 68 49 128
internal_count=1080 933 854 617 580 483 325 283 122 79 158 97 147 126 161 237 99 79 216 133 63 84 126 42 43 41 196 68 49 128
shrinkage=0.1


Tree=14
num_leaves=31
num_cat=0
split_feature=596 34 58 165 259 393 14 376 644 715 549 614 225 184 305 336 447 641 280 364 463 430 642 207 546 743 236 443 576 659
split_gain=2.76401 2.31035 1.82588 2.43002 1.74145 1.47074 1.33385 1.4257 1.18893 1.0462 1.22297 0.939998 0.904205 0.84912 0.770546 0.661433 0.551367 0.542092 0.627599 0.448308 0.542443 0.418912 0.391267 0.331876 0.331688 0.327597 0.22841 0.194735 0.443379 0.250254
threshold=1.3915000000000002 -0.31499999999999995 0.038500000000000006 1.6425000000000003 0.6130000000000001 -1.0179999999999996 0.16950000000000004 -0.53749999999999998 -1.3384999999999998 -0.45349999999999996 -0.38999999999999996 0.17200000000000001 1.2375000000000003 -1.5239999999999998 0.12700000000000003 -1.1079999999999999 -0.62849999999999995 0.20700000000000002 0.43550000000000005 0.58000000000000007 0.24450000000000002 -0.0064999999999999997 0.13950000000000004 0.088000000000000009 -0.53199999999999992 -0.75649999999999984 0.084500000000000006 1.0390000000000001 0.56950000000000001 -0.83249999999999991
decision_type=2 2 2 2 2 2 2 2 2 2 2 2 2 2 2 2 2 2 2 2 2 2 2 2 2 2 2 2 2 2
left_child=1 12 3 5 6 -3 9 -8 -7 10 -4 22 13 -1 -5 -10 26 18 23 20 -11 -9 27 -18 -21 -15 -17 28 -2 -29
right_child=11 2 4 14 -6 8 7 21 15 19 -12 -13 -14 25 -16 16 17 -19 -20 24 -22 -23 -24 -25 -26 -27 -28 29 -30 -31
leaf_value=0.0046236924454569816 0.015404343392167771 0.015906250815499911 0.017941583196322122 0.024698148090993206 -0.019077906785187899 0.01234788615256548 0.014452151291900212 -0.0056160465710692938 0.0034417957067489624 -0.0013118886285358004 -0.012751527481219349 -0.010668350532650948 0.0072781892759459363 -0.0054120208695530893 -0.00011092899810700189 -0.028355110414100416 -0.016882233020095599 -0.019313709817149423 0.0089047858119010916 0.015124345636543106 0.014732091346134743 -0.02398145859656127 0.0013288514110548744 -0.0032413072884082796 0.029970307151476545 -0.019166782720721972 -0.016298905586202939 0.013757582608519531 -0.0023917029301325481 0.025016812922862858
leaf_weight=20 42 22 21 31 27 20 27 27 22 27 34 20 21 20 21 33 42 55 20 34 96 23 29 31 27 129 30 82 21 26
leaf_count=20 42 22 21 31 27 20 27 27 22 27 34 20 21 20 21 33 42 55 20 34 96 23 29 31 27 129 30 82 21 26
internal_value=0 -0.0025587 0.000201424 -0.00514511 0.00529856 -0.00889369 0.00738136 -0.00406492 -0.0110502 0.0110691 -0.00103234 0.0100022 -0.0122918 -0.0147236 0.0146791 -0.0130586 -0.014779 -0.0114439 -0.00678966 0.0146863 0.0112102 -0.0140641 0.0120693 -0.0110895 0.0216955 -0.0173205 -0.0226141 0.0138907 0.00947233 0.0164681
internal_weight=0 860 670 327 343 275 316 77 253 239 55 220 190 169 52 233 211 148 93 184 123 50 200 73 61 149 63 171 63 108
internal_count=1080 860 670 327 343 275 316 77 253 239 55 220 190 169 52 233 211 148 93 184 123 50 200 73 61 149 63 171 63 108
shrinkage=0.1


Tree=15
num_leaves=31
num_cat=0
split_feature=297 59 673 714 490 314 654 243 687 565 15 727 413 654 5 103 304 326 504 338 21 152 461 76 642 640 238 479 110 498
split_gain=2.31689 2.0273 1.89823 1.47202 1.38834 1.31012 1.23771 1.14905 0.998206 0.986929 0.940832 0.994402 0.776524 0.743039 0.861909 0.738574 0.719179 0.622504 0.612597 0.473824 0.567158 0.469564 0.355402 0.351766 0.385351 0.345398 0.309956 0.296122 0.269656 0.22237
threshold=0.46700000000000008 0.77750000000000019 -0.72149999999999992 0.14800000000000002 -0.8284999999999999 0.10050000000000002 0.41550000000000004 -0.15249999999999997 -0.25299999999999995 -0.26149999999999995 0.52350000000000019 0.93250000000000022 0.22750000000000004 -0.45399999999999996 0.21400000000000002 0.26500000000000007 0.10400000000000001 0.78200000000000014 -0.33149999999999996 0.011000000000000001 -0.35449999999999993 -0.13349999999999998 0.52550000000000019 -0.099499999999999991 0.028500000000000004 -0.45249999999999996 0.10850000000000001 0.97900000000000009 0.063500000000000015 -0.079999999999999988
decision_type=2 2 2 2 2 2 2 2 2 2 2 2 2 2 2 2 2 2 2 2 2 2 2 2 2 2 2 2 2 2
left_child=1 2 17 4 -4 7 27 21 -9 -8 11 13 -3 18 16 -10 19 23 -6 20 -15 -5 -7 28 -25 -17 -21 -2 -1 -20
right_child=6 12 3 5 10 22 9 8 15 -11 -12 -13 -14 14 -16 25 -18 -19 29 26 -22 -23 -24 24 -26 -27 -28 -29 -30 -31
leaf_value=0.026713081662143978 -0.017787314234214407 -0.017710095717374124 -0.015983683692997901 -0.0014498684393322988 0.005930766426026822 -0.01940088720350969 -0.012152267416769807 -0.011371396388858557 0.00076926057085846414 0.016888659179210664 -0.010163568165795557 -0.012645426914095878 0.00071595128093447007 0.011414710767567157 -0.0060124965090500686 0.011901871826161039 -0.0024249329697340729 -0.0038304852545261387 0.034821547493338587 -0.00080477051436901093 0.035229798108339309 -0.020733541942068511 -0.0054382333675256148 0.012419688575775238 -0.0023692444711923603 0.029831589616480327 0.013664376173625915 -0.0045307595282793045 0.011722643212193535 0.019909465201199059
leaf_weight=28 107 66 29 23 20 61 22 24 33 25 29 20 35 20 38 22 32 25 20 20 20 28 26 148 20 21 57 20 21 20
leaf_count=28 107 66 29 23 20 61 22 24 33 25 29 20 35 20 38 22 32 25 20 20 20 28 26 148 20 21 57 20 21 20
internal_value=0 0.00202979 0.00370534 0.000521653 0.00489738 -0.0054536 -0.0105689 0.000178083 0.00640777 0.00329503 0.00694316 0.00880119 -0.0113248 0.0105378 0.00743097 0.0120222 0.0108595 0.011112 0.0202206 0.0144929 0.0233223 -0.012037 -0.0152281 0.0128335 0.0106591 0.0206582 0.00990616 -0.0156997 0.0202886 0.0273655
internal_weight=0 906 805 563 325 238 174 151 100 47 296 267 101 247 187 76 149 242 60 117 40 51 87 217 168 43 77 127 49 40
internal_count=1080 906 805 563 325 238 174 151 100 47 296 267 101 247 187 76 149 242 60 117 40 51 87 217 168 43 77 127 49 40
shrinkage=0.1


Tree=16
num_leaves=31
num_cat=0
split_feature=615 423 259 238 37 142 367 436 459 379 42 490 613 83 469 633 658 322 148 391 472 548 458 515 173 497 474 103 545 69
split_gain=1.97951 1.65865 1.58924 1.40315 1.25646 1.33843 0.998942 0.972261 1.22054 1.05152 0.827827 0.749151 0.725511 0.562711 0.557783 0.462822 0.560404 0.425598 0.334119 0.322265 0.309482 0.307719 0.280729 0.426698 0.270106 0.268906 0.265839 0.234019 0.205058 0.173185
threshold=-0.21949999999999997 0.50300000000000011 0.60350000000000004 -0.94099999999999984 -1.0259999999999996 -1.3179999999999998 -0.98049999999999982 -0.0034999999999999996 0.20950000000000002 -0.20899999999999996 0.8630000000000001 -0.11549999999999999 -0.16299999999999998 -0.54399999999999993 0.95000000000000007 0.40950000000000003 0.39950000000000008 0.11250000000000002 -0.15699999999999997 0.31550000000000006 -0.10099999999999999 0.87450000000000017 -0.77749999999999997 -0.70449999999999979 -0.42899999999999994 -0.57549999999999979 -0.64999999999999991 0.15600000000000003 0.087500000000000008 -0.015999999999999997
decision_type=2 2 2 2 2 2 2 2 2 2 2 2 2 2 2 2 2 2 2 2 2 2 2 2 2 2 2 2 2 2
left_child=4 2 3 -2 17 -6 -7 8 11 -10 15 -5 28 -4 21 16 19 -1 -11 24 29 22 -8 -24 25 -9 -25 -26 -3 -13
right_child=1 12 13 7 5 6 14 10 9 18 -12 20 -14 -15 -16 -17 -18 -19 -20 -21 -22 -23 23 26 27 -27 -28 -29 -30 -31
leaf_value=8.3797164261341099e-05 -0.017380831514795622 -0.023588873087256046 0.003194175551955899 -0.0045851037386924988 0.01159836571663618 0.010867743687704205 -0.018904557810337456 0.011395297919710478 0.0061113008763641124 -0.007830770491134554 -0.0095658713206648836 0.014475882161528834 0.0031812279820442203 -0.015495447297485507 -1.4020828530192376e-06 0.025062234764513764 -0.0050289352509108459 0.020713825728744268 -0.024648981293042504 0.00082850304360573108 0.023874828083948654 -0.024345613557558793 0.0031051870808005335 -0.0021113318577408789 0.010084468834712859 1.6673543938884028e-05 -0.014720137349749899 0.017845567390670846 -0.011146371983564817 0.0027142710806358429
leaf_weight=20 24 27 24 31 30 20 54 90 32 21 20 31 25 49 32 23 22 20 27 26 22 26 20 20 61 27 102 107 26 21
leaf_count=20 24 27 24 31 30 20 54 90 32 21 20 31 25 49 32 23 22 20 27 26 22 26 20 20 61 27 102 107 26 21
internal_value=0 0.0029269 0.00456135 0.00629741 -0.0062622 -0.00845443 -0.01065 0.00731039 0.00137542 -0.00793009 0.0102305 0.00846533 -0.0108612 -0.00935091 -0.0123443 0.0113427 0.0103951 0.0103988 -0.017291 0.0114862 0.0139324 -0.0141235 -0.0127675 -0.0104336 0.0124584 0.00876946 -0.0126531 0.0150275 -0.017485 0.009726
internal_weight=0 736 658 585 344 304 274 561 185 80 376 105 78 73 254 356 333 40 48 311 74 222 196 142 285 117 122 168 53 52
internal_count=1080 736 658 585 344 304 274 561 185 80 376 105 78 73 254 356 333 40 48 311 74 222 196 142 285 117 122 168 53 52
shrinkage=0.1


Tree=17
num_leaves=31
num_cat=0
split_feature=596 34 353 14 42 690 186 258 171 657 632 184 186 620 105 55 320 492 735 305 733 111 491 608 16 647 720 354 447 292
split_gain=1.63578 1.43613 1.39735 1.80375 1.44631 1.22012 1.04165 0.634157 0.597502 0.591537 0.579994 0.57919 0.514319 0.6124 0.413197 0.396442 0.352115 0.329194 0.326653 0.309841 0.266341 0.302759 0.251309 0.478464 0.210395 0.164233 0.157426 0.141018 0.134637 0.122493
threshold=1.3915000000000002 -0.31499999999999995 -1.0649999999999997 0.16000000000000003 0.83500000000000008 0.45700000000000007 0.50800000000000012 -0.74099999999999988 0.44400000000000006 -0.65999999999999992 -0.9554999999999999 -1.5239999999999998 -0.77799999999999991 -0.92949999999999988 -0.59299999999999986 0.44250000000000006 0.21850000000000003 -0.21149999999999997 -0.32349999999999995 -0.57999999999999985 -0.11849999999999998 -0.095499999999999988 1.6185000000000003 -0.35549999999999993 0.67200000000000015 0.45350000000000007 -1.1044999999999998 -0.032499999999999994 -0.71099999999999985 0.62250000000000016
decision_type=2 2 2 2 2 2 2 2 2 2 2 2 2 2 2 2 2 2 2 2 2 2 2 2 2 2 2 2 2 2
left_child=1 7 -3 4 5 6 12 -1 -8 22 -5 -9 -4 -14 17 19 -6 -15 -16 -12 -20 -22 23 -2 26 -21 -13 -25 -28 -23
right_child=9 2 3 10 16 -7 8 11 -10 -11 15 24 13 14 18 -17 -18 -19 20 25 21 29 -24 27 -26 -27 28 -29 -30 -31
leaf_value=0.0048674954531284483 -0.0043230300148328149 0.018577264172908586 -0.0017727375533935184 0.0046173539299231309 -0.018592013269662859 -0.012081857159351693 0.0061631441630166156 0.004003649614751339 -0.012896559073736795 -0.0034762223561604823 -0.0022567334451845714 -0.0078012510779358092 -0.005899268202483654 0.012574306715812004 0.026487502881458833 0.0013070531544231235 -0.0024471423673358833 -0.0027599124237895015 0.004376629127987793 -0.013545333970618504 0.025255710942049821 0.010159568818926346 0.01986790338288183 0.017620491666289477 -0.0046394913643598564 -0.022823803530385101 -0.023860696284100414 0.0094171405045522585 -0.015308412897129415 0.017660133439031514
leaf_weight=26 24 39 37 26 35 39 29 20 38 39 21 21 20 28 21 21 22 28 28 93 24 64 23 26 20 24 24 108 79 33
leaf_count=26 24 39 37 26 35 39 29 20 38 39 21 21 20 28 21 21 22 28 28 93 24 64 23 26 20 24 24 108 79 33
internal_value=0 -0.0019684 0.000207745 -0.000927613 0.00251582 0.00469566 0.00656516 -0.00964216 -0.00464684 0.00769464 -0.00922908 -0.0119425 0.00921959 0.0108729 0.0123572 -0.0114933 -0.0123607 0.0049072 0.0148113 -0.0134412 0.0131656 0.0151995 0.0101016 0.00867994 -0.0141572 -0.0154486 -0.0156923 0.0110088 -0.0173012 0.0127113
internal_weight=0 860 670 631 446 389 350 190 67 220 185 164 283 246 226 159 57 56 170 138 149 121 181 158 144 117 124 134 103 97
internal_count=1080 860 670 631 446 389 350 190 67 220 185 164 283 246 226 159 57 56 170 138 149 121 181 158 144 117 124 134 103 97
shrinkage=0.1


Tree=18
num_leaves=31
num_cat=0
split_feature=615 80 259 59 478 512 27 477 32 145 639 327 459 231 249 63 336 417 204 198 224 702 24 466 297 108 132 400 339 136
split_gain=1.37503 1.20844 1.07862 1.08486 1.01057 0.994058 0.99192 0.761669 0.725129 0.602719 1.35873 0.657441 0.584514 0.568059 0.53607 0.521714 0.519948 0.515935 0.468403 0.538358 0.454432 0.362163 0.306482 0.258227 0.226372 0.212699 0.208327 0.19189 0.154585 0.151087
threshold=-0.21949999999999997 -0.64749999999999985 0.60350000000000004 1.2575000000000001 1.0000000180025095e-35 -0.82549999999999979 0.29900000000000004 1.2555000000000003 0.78300000000000014 -0.41499999999999992 0.17150000000000001 -0.46299999999999997 -0.037999999999999992 0.11300000000000002 0.12150000000000001 1.6075000000000002 -0.57999999999999985 -0.70949999999999991 -0.31049999999999994 0.61350000000000005 0.16600000000000004 0.25150000000000006 -0.17949999999999997 0.023500000000000004 -0.22699999999999998 0.24000000000000002 -0.19449999999999998 0.036500000000000012 0.31350000000000006 0.39450000000000007
decision_type=2 2 2 2 2 2 2 2 2 2 2 2 2 2 2 2 2 2 2 2 2 2 2 2 2 2 2 2 2 2
left_child=4 8 3 9 17 -6 7 18 21 11 13 -3 -12 15 -15 22 -4 -1 -7 -20 24 23 -11 -2 -13 27 -8 -24 -26 -29
right_child=1 2 16 -5 5 6 26 -9 -10 10 12 20 -14 14 -16 -17 -18 -19 19 -21 -22 -23 25 -25 28 -27 -28 29 -30 -31
leaf_value=0.0040329735912382611 -0.0055547816492617129 0.027352194962176408 0.0040870915167033678 -0.016177078573541209 0.016848699722824427 0.020508005044289998 -0.0076799362621386537 -0.014123568087816238 0.0085639241920865104 0.0017869977694418696 0.0025501580536365512 0.019666726694062907 -0.019242456112988294 -0.0094902610406279574 0.010513619227068765 -0.0059188308871605186 -0.014210862844166431 -0.013129743422441026 -0.0069782692525121905 0.013386782616376878 -0.001957574510766614 3.6520333517165412e-05 0.0040933610503806886 -0.019165434283406838 0.011281564313334873 0.018891205761049478 -0.019382026817264229 0.0090779634369980728 0.0014878355339169504 0.016481752397150409
leaf_weight=20 20 22 24 22 29 21 32 20 23 36 20 27 32 37 21 22 44 141 27 25 31 21 38 46 83 35 29 63 20 49
leaf_count=20 20 22 24 22 29 21 32 20 23 36 20 27 32 37 21 22 44 141 27 25 31 21 38 46 83 35 29 63 20 49
internal_value=0 0.00243941 0.00413798 0.00558703 -0.0052192 -0.000135363 -0.00333366 0.00316616 -0.00722699 0.00648033 0.00406591 0.0111377 -0.0108607 0.00664459 -0.00224748 0.00876698 -0.00775276 -0.0109977 0.00790307 0.00281262 0.00892201 -0.0114016 0.0102289 -0.015041 0.0115164 0.0118717 -0.0132432 0.0102338 0.00937987 0.0123171
internal_weight=0 736 626 558 344 183 154 93 110 536 353 183 52 301 58 243 68 161 73 52 161 87 221 66 130 185 61 150 103 112
internal_count=1080 736 626 558 344 183 154 93 110 536 353 183 52 301 58 243 68 161 73 52 161 87 221 66 130 185 61 150 103 112
shrinkage=0.1


Tree=19
num_leaves=31
num_cat=0
split_feature=596 59 495 34 353 14 186 466 42 499 610 571 131 660 636 620 620 433 379 578 237 244 407 192 722 361 288 454 390 181
split_gain=1.15572 1.03288 0.995454 1.04577 0.91235 1.31685 1.11162 0.809453 0.779011 0.580658 0.575503 0.523624 0.560445 0.384371 0.37314 0.507386 0.352316 0.337237 0.305129 0.289113 0.271393 0.314711 0.269705 0.268034 0.229808 0.381906 0.19009 0.182274 0.166315 0.145154
threshold=1.3065000000000002 1.1205000000000003 -1.8154999999999999 -0.29449999999999993 -1.0649999999999997 0.16000000000000003 0.29650000000000004 0.19650000000000004 0.8630000000000001 0.19850000000000004 0.21250000000000002 0.64100000000000013 -0.40799999999999992 -0.14949999999999997 1.1025000000000003 0.41550000000000004 -0.9474999999999999 -0.97249999999999981 0.31850000000000006 -0.21049999999999996 -0.82099999999999984 0.012500000000000002 -0.29749999999999993 -0.59599999999999986 0.014000000000000002 0.23850000000000002 -0.87449999999999994 0.58550000000000002 0.24000000000000002 -0.070499999999999993
decision_type=2 2 2 2 2 2 2 2 2 2 2 2 2 2 2 2 2 2 2 2 2 2 2 2 2 2 2 2 2 2
left_child=1 2 -1 17 -5 6 8 9 11 19 13 12 -6 18 15 27 -14 -4 24 -8 -18 -22 -9 -19 -2 -26 -25 -7 -3 -23
right_child=10 28 3 4 5 14 7 22 -10 -11 -12 -13 16 -15 -16 -17 20 23 -20 -21 21 29 -24 26 25 -27 -28 -29 -30 -31
leaf_value=0.019315105862915516 0.009783415229652417 -0.017474918223397678 0.0036682449653744698 0.019276906818151474 -0.0063952620494468456 -0.01446750635969574 0.017258456442505121 -0.022826966101473029 -0.0098903061339148772 -0.010325453132390977 -0.010121097154915333 0.023099460133484434 -0.0017470174051564319 -0.0052706846523852581 0.0047742967307567597 0.0044713285574246022 -0.00080959845334291456 -0.00080258736014366153 0.020668836496770385 0.0013424827754497529 0.019474644851135581 0.016319392756982284 -0.0084437789162620912 -0.0035915974350202648 -0.0083894993755079441 0.0097418913617730151 -0.014094933693316611 -0.0048382783383131029 -0.0067849512804638266 0.0073050564044694379
leaf_weight=24 132 43 20 25 29 92 21 22 27 25 20 21 29 21 20 21 20 25 20 25 38 22 32 21 21 26 96 25 22 95
leaf_count=24 132 43 20 25 29 92 21 22 27 25 20 21 29 21 20 21 20 25 20 25 38 22 32 21 21 26 96 25 22 95
internal_value=0 -0.00174856 -0.000733033 -0.00137372 0.000583317 -0.000245299 0.00276905 -0.00507633 0.00625899 0.0019416 0.00611996 0.00797565 0.00661256 0.00759642 -0.00799104 -0.00984108 0.00846171 -0.00848912 0.00895426 0.00860847 0.0101534 0.011568 -0.0143036 -0.0102014 0.00764537 0.00164063 -0.0122097 -0.01241 -0.0138568 0.00900006
internal_weight=0 840 775 751 589 564 406 125 281 71 240 254 233 220 158 138 204 162 199 46 175 155 54 142 179 47 117 117 65 117
internal_count=1080 840 775 751 589 564 406 125 281 71 240 254 233 220 158 138 204 162 199 46 175 155 54 142 179 47 117 117 65 117
shrinkage=0.1


Tree=20
num_leaves=31
num_cat=0
split_feature=233 477 259 699 59 360 297 62 318 730 375 80 401 338 28 614 356 478 385 485 556 231 585 728 3 27 613 247 550 686
split_gain=0.995049 1.11588 0.984929 0.802297 0.808228 0.792988 0.926731 0.645593 0.689978 0.87925 0.590614 0.570361 0.498485 0.442358 0.367641 0.405668 0.35447 0.333738 0.306842 0.290057 0.314041 0.541068 0.286751 0.260338 0.23797 0.232576 0.207036 0.203621 0.17099 0.145968
threshold=1.4205000000000003 1.3110000000000002 0.6130000000000001 0.6585000000000002 1.6330000000000002 1.6040000000000003 0.44900000000000007 1.2810000000000001 0.37250000000000005 0.24650000000000002 -0.61399999999999988 -1.0734999999999999 -0.32249999999999995 -0.62449999999999994 -0.74299999999999988 0.34650000000000009 -0.13849999999999998 -0.47649999999999992 -0.19849999999999998 0.63700000000000012 0.05000000000000001 -0.18349999999999997 -0.27249999999999996 -0.33949999999999997 0.18600000000000003 0.05050000000000001 -0.019 0.094500000000000015 0.10350000000000001 -0.88949999999999985
decision_type=2 2 2 2 2 2 2 2 2 2 2 2 2 2 2 2 2 2 2 2 2 2 2 2 2 2 2 2 2 2
left_child=1 2 3 4 5 6 7 8 10 27 17 -12 -8 -4 -13 19 -5 -1 -15 20 21 22 -16 -2 -23 -3 29 -10 -24 -22
right_child=23 25 13 16 -6 -7 12 -9 9 -11 11 14 -14 18 15 -17 -18 -19 -20 -21 26 24 28 -25 -26 -27 -28 -29 -30 -31
leaf_value=0.0095899880677461635 -0.00016640556733245435 -0.019082240375379724 0.0057745405584168829 -0.018586807733490356 -0.014550112706163658 0.01917514115571976 0.0056570200063288216 -0.0088988735107705004 -0.018672341123844187 0.008159972810580467 -0.010041478666521254 0.01636834953741699 -0.013253534496154474 -0.0012453402268389861 0.013989038200992527 -0.0046717607613765829 -0.0024720597098796416 0.027858479470014574 -0.013414071508641566 0.015998095995746555 0.0055436848437018472 -0.014001057718111122 -0.0051784881856292491 -0.012290794167716008 0.00091371825663372869 -0.0053608647059826629 4.8814534589096356e-05 -0.0050102550536394123 0.007120293668972758 0.01130341858969945
leaf_weight=20 23 30 23 21 23 35 20 32 24 39 21 37 46 30 33 33 39 20 67 32 66 23 20 77 20 21 27 20 26 132
leaf_count=20 23 30 23 21 23 35 20 32 24 39 21 37 46 30 33 33 39 20 67 32 66 23 20 77 20 21 27 20 26 132
internal_value=0 0.000969611 0.00176024 0.00301428 0.00390559 0.00449027 0.00374647 0.00493653 0.00568313 -0.00277232 0.00705921 0.00606644 -0.00752306 -0.00669407 0.00681982 0.0059623 -0.00811222 0.0187242 -0.00965055 0.00688823 0.00604812 0.00196267 0.0068759 -0.00950218 -0.00706395 -0.0134323 0.00826334 -0.0124623 0.001773 0.00938351
internal_weight=0 980 929 809 749 726 691 625 593 83 510 470 66 120 449 412 60 40 97 379 347 122 79 100 43 51 225 44 46 198
internal_count=1080 980 929 809 749 726 691 625 593 83 510 470 66 120 449 412 60 40 97 379 347 122 79 100 43 51 225 44 46 198
shrinkage=0.1


Tree=21
num_leaves=31
num_cat=0
split_feature=615 80 578 335 5 397 226 192 332 58 485 309 497 496 228 423 28 730 28 48 482 554 314 62 129 258 24 439 659 112
split_gain=0.83987 0.826026 0.678338 0.939478 0.633745 0.883828 0.871414 0.653059 0.502644 0.468456 0.6063 0.442514 0.422921 0.387482 0.384885 0.382535 0.377943 0.511886 0.334508 0.327571 0.313132 0.468281 0.388851 0.295449 0.244755 0.241837 0.327055 0.232337 0.447041 0.219498
threshold=-0.26699999999999996 -0.64749999999999985 -0.70049999999999979 -0.38049999999999995 -0.092499999999999985 -0.68999999999999984 0.17200000000000001 0.44050000000000006 -1.1764999999999997 1.0000000180025095e-35 0.077500000000000013 0.31150000000000005 -0.019999999999999997 0.18150000000000002 -0.18349999999999997 0.55100000000000016 -0.097499999999999989 0.8580000000000001 -0.7659999999999999 0.79350000000000021 -0.64699999999999991 -0.25249999999999995 0.33950000000000008 -0.019499999999999997 0.27850000000000008 1.0000000180025095e-35 -0.0084999999999999989 -1.0229999999999999 -0.80449999999999988 -0.25999999999999995
decision_type=2 2 2 2 2 2 2 2 2 2 2 2 2 2 2 2 2 2 2 2 2 2 2 2 2 2 2 2 2 2
left_child=2 9 3 -1 15 -6 7 11 12 -2 -11 14 -4 16 -7 19 23 -18 -10 20 24 -22 25 -8 -3 26 -23 -20 -29 -16
right_child=1 4 8 -5 5 6 13 -9 18 10 -12 -13 -14 -15 29 -17 17 -19 27 -21 21 22 -24 -25 -26 -27 -28 28 -30 -31
leaf_value=-0.0081809170943285738 -0.01275593277618841 0.016835581849921833 -0.0080306048970669505 0.016723257664478186 0.020074075441807511 -0.0083668993716990506 0.0065566224521717235 -0.017835296886041761 0.003601937643474057 0.0074589888827923017 -0.013616494005102488 -0.013123370573545496 0.011155281698814145 -0.0075844707983461299 0.012060653540337909 -0.0057974911630153661 -0.011202966757118703 0.0085618928663040474 -0.017622674256563189 -0.0053531302325427535 0.012948390680911213 -0.009686910398304464 -0.010299780410492704 0.023013477511703968 0.0074015067314559761 0.011152595188468695 0.0051759704130521994 0.0047515413602409158 -0.010254994629689589 -0.0015569219877943398
leaf_weight=28 54 55 20 33 20 27 24 40 21 39 21 30 27 22 29 25 20 38 31 20 58 20 21 20 55 37 57 23 145 20
leaf_count=28 54 55 20 33 20 27 24 40 21 39 21 30 27 22 29 25 20 38 31 20 58 20 21 20 55 37 57 23 145 20
internal_value=0 0.00184171 -0.00422247 0.00529183 0.00324269 -0.000209843 -0.00171236 -0.00694794 -0.00639614 -0.00599883 8.25699e-05 -0.0028395 0.00299107 0.00445212 0.00121992 0.0061198 0.00704825 0.00174642 -0.0084016 0.00704219 0.00786036 0.00543342 0.00220476 0.014037 0.0121185 0.00450823 0.00131548 -0.0096683 -0.00820053 0.00650246
internal_weight=0 752 328 61 638 290 270 146 267 114 60 106 47 124 76 348 102 58 220 323 303 193 135 44 110 114 77 199 168 49
internal_count=1080 752 328 61 638 290 270 146 267 114 60 106 47 124 76 348 102 58 220 323 303 193 135 44 110 114 77 199 168 49
shrinkage=0.1


Tree=22
num_leaves=31
num_cat=0
split_feature=233 477 259 360 297 43 654 638 424 640 336 296 494 612 150 534 526 466 389 621 272 552 168 526 736 27 11 199 230 697
split_gain=0.685084 0.80587 0.663242 0.593563 0.611137 0.516288 0.501069 0.574047 0.501161 0.395091 0.38942 0.51443 0.452008 0.50405 0.411075 0.379111 0.36121 0.339896 0.337591 0.322984 0.31016 0.277383 0.272413 0.261862 0.218515 0.179404 0.174026 0.178172 0.173734 0.144905
threshold=1.4205000000000003 1.3110000000000002 0.6130000000000001 1.6040000000000003 0.54900000000000015 0.36550000000000005 0.16450000000000004 0.37450000000000006 1.6630000000000003 -0.037499999999999992 -0.12149999999999998 -0.90949999999999986 -0.51149999999999995 -0.51049999999999984 -0.37449999999999994 0.16750000000000004 -0.90649999999999997 -0.41549999999999992 -0.11799999999999998 -1.0000000180025095e-35 -0.25649999999999995 0.24350000000000002 -0.56999999999999984 1.0690000000000002 -0.18199999999999997 0.05050000000000001 -0.40149999999999997 -0.66399999999999992 0.11100000000000002 -0.023999999999999997
decision_type=2 2 2 2 2 2 2 2 2 2 2 2 2 2 2 2 2 2 2 2 2 2 2 2 2 2 2 2 2 2
left_child=1 2 3 4 5 10 7 8 9 -7 14 20 -13 -14 -1 -6 -4 -15 -19 26 -12 -8 -20 -18 -2 -3 -16 -28 -24 -29
right_child=24 25 16 -5 15 6 21 -9 -10 -11 11 12 13 17 19 -17 23 18 22 -21 -22 -23 28 -25 -26 -27 27 29 -30 -31
leaf_value=0.017443524524569511 -0.00057020814886621742 -0.016396621378759545 0.0068068071641027936 0.014878270186081129 -0.012832640553824604 -0.01169010653179519 -0.017967205256223678 0.013139946701666039 0.010189160307788332 0.0049885064177215103 0.00023773386143147946 -0.0068595637425055943 -0.010017711371183395 0.01544642935300039 0.014008533482750258 0.0030732173958550328 -0.010473436550382758 -0.0045112969935871662 0.017669562390074136 -0.0060482343924897061 -0.017373616844415667 -0.0027502869417809924 0.0070249595907851048 0.0023196656629443169 -0.010872003731062034 -0.0043453972964059744 -0.0028762326265374823 0.0053762708570287438 -0.0020054005621070112 0.014241009440435016
leaf_weight=35 29 30 20 37 43 49 25 31 23 20 20 36 20 36 30 23 80 32 20 21 20 23 101 20 71 21 21 93 27 23
leaf_count=35 29 30 20 37 43 49 25 31 23 20 20 36 20 36 30 23 80 32 20 21 20 23 101 20 71 21 21 93 27 23
internal_value=0 0.000804539 0.00147643 0.0025055 0.0019125 0.00277276 -0.00201048 0.00137109 -0.0025945 -0.00685573 0.00430161 0.00202071 0.00357786 0.00517001 0.00749283 -0.00728969 -0.00546121 0.00657628 0.00480225 0.00564031 -0.00856794 -0.0106758 0.00681599 -0.00791482 -0.00788448 -0.0114344 0.00711013 0.00559953 0.00512012 0.00713393
internal_weight=0 980 929 809 772 706 171 123 92 69 535 312 272 236 223 66 120 216 180 188 40 48 148 100 100 51 167 137 128 116
internal_count=1080 980 929 809 772 706 171 123 92 69 535 312 272 236 223 66 120 216 180 188 40 48 148 100 100 51 167 137 128 116
shrinkage=0.1


Tree=23
num_leaves=31
num_cat=0
split_feature=59 618 198 32 714 233 592 579 672 354 68 297 660 654 172 318 23 104 739 185 729 310 40 494 79 77 226 220 367 24
