tree
version=v3
num_class=1
num_tree_per_iteration=1
label_index=0
max_feature_idx=399
objective=regression
feature_names=Column_0 Column_1 Column_2 Column_3 Column_4 Column_5 Column_6 Column_7 Column_8 Column_9 Column_10 Column_11 Column_12 Column_13 Column_14 Column_15 Column_16 Column_17 Column_18 Column_19 Column_20 Column_21 Column_22 Column_23 Column_24 Column_25 Column_26 Column_27 Column_28 Column_29 Column_30 Column_31 Column_32 Column_33 Column_34 Column_35 Column_36 Column_37 Column_38 Column_39 Column_40 Column_41 Column_42 Column_43 Column_44 Column_45 Column_46 Column_47 Column_48 Column_49 Column_50 Column_51 Column_52 Column_53 Column_54 Column_55 Column_56 Column_57 Column_58 Column_59 Column_60 Column_61 Column_62 Column_63 Column_64 Column_65 Column_66 Column_67 Column_68 Column_69 Column_70 Column_71 Column_72 Column_73 Column_74 Column_75 Column_76 Column_77 Column_78 Column_79 Column_80 Column_81 Column_82 Column_83 Column_84 Column_85 Column_86 Column_87 Column_88 Column_89 Column_90 Column_91 Column_92 Column_93 Column_94 Column_95 Column_96 Column_97 Column_98 Column_99 Column_100 Column_101 Column_102 Column_103 Column_104 Column_105 Column_106 Column_107 Column_108 Column_109 Column_110 Column_111 Column_112 Column_113 Column_114 Column_115 Column_116 Column_117 Column_118 Column_119 Column_120 Column_121 Column_122 Column_123 Column_124 Column_125 Column_126 Column_127 Column_128 Column_129 Column_130 Column_131 Column_132 Column_133 Column_134 Column_135 Column_136 Column_137 Column_138 Column_139 Column_140 Column_141 Column_142 Column_143 Column_144 Column_145 Column_146 Column_147 Column_148 Column_149 Column_150 Column_151 Column_152 Column_153 Column_154 Column_155 Column_156 Column_157 Column_158 Column_159 Column_160 Column_161 Column_162 Column_163 Column_164 Column_165 Column_166 Column_167 Column_168 Column_169 Column_170 Column_171 Column_172 Column_173 Column_174 Column_175 Column_176 Column_177 Column_178 Column_179 Column_180 Column_181 Column_182 Column_183 Column_184 Column_185 Column_186 Column_187 Column_188 Column_189 Column_190 Column_191 Column_192 Column_193 Column_194 Column_195 Column_196 Column_197 Column_198 Column_199 Column_200 Column_201 Column_202 Column_203 Column_204 Column_205 Column_206 Column_207 Column_208 Column_209 Column_210 Column_211 Column_212 Column_213 Column_214 Column_215 Column_216 Column_217 Column_218 Column_219 Column_220 Column_221 Column_222 Column_223 Column_224 Column_225 Column_226 Column_227 Column_228 Column_229 Column_230 Column_231 Column_232 Column_233 Column_234 Column_235 Column_236 Column_237 Column_238 Column_239 Column_240 Column_241 Column_242 Column_243 Column_244 Column_245 Column_246 Column_247 Column_248 Column_249 Column_250 Column_251 Column_252 Column_253 Column_254 Column_255 Column_256 Column_257 Column_258 Column_259 Column_260 Column_261 Column_262 Column_263 Column_264 Column_265 Column_266 Column_267 Column_268 Column_269 Column_270 Column_271 Column_272 Column_273 Column_274 Column_275 Column_276 Column_277 Column_278 Column_279 Column_280 Column_281 Column_282 Column_283 Column_284 Column_285 Column_286 Column_287 Column_288 Column_289 Column_290 Column_291 Column_292 Column_293 Column_294 Column_295 Column_296 Column_297 Column_298 Column_299 Column_300 Column_301 Column_302 Column_303 Column_304 Column_305 Column_306 Column_307 Column_308 Column_309 Column_310 Column_311 Column_312 Column_313 Column_314 Column_315 Column_316 Column_317 Column_318 Column_319 Column_320 Column_321 Column_322 Column_323 Column_324 Column_325 Column_326 Column_327 Column_328 Column_329 Column_330 Column_331 Column_332 Column_333 Column_334 Column_335 Column_336 Column_337 Column_338 Column_339 Column_340 Column_341 Column_342 Column_343 Column_344 Column_345 Column_346 Column_347 Column_348 Column_349 Column_350 Column_351 Column_352 Column_353 Column_354 Column_355 Column_356 Column_357 Column_358 Column_359 Column_360 Column_361 Column_362 Column_363 Column_364 Column_365 Column_366 Column_367 Column_368 Column_369 Column_370 Column_371 Column_372 Column_373 Column_374 Column_375 Column_376 Column_377 Column_378 Column_379 Column_380 Column_381 Column_382 Column_383 Column_384 Column_385 Column_386 Column_387 Column_388 Column_389 Column_390 Column_391 Column_392 Column_393 Column_394 Column_395 Column_396 Column_397 Column_398 Column_399
feature_infos=[0:0.66666667000000002] [0:0.20000000000000001] [0:0.125] [0:0.125] [0:0.20000000000000001] [0:0.11111111] [0:0.066666669999999997] [0:0.10000000000000001] [0:0.20000000000000001] [0:0.26086957] [0:0.16666666999999999] [0:0.090909089999999998] [0:0.14285713999999999] [0:0.083333329999999997] [0:0.090909089999999998] [0:0.16666666999999999] [0:0.10526315999999999] [0:0.11764706] [0:0.20000000000000001] [0:0.090909089999999998] none [0:0.14285713999999999] [0:0.083333329999999997] [0:0.16666666999999999] [0:0.083333329999999997] [0:0.16666666999999999] none [0:0.11764706] [0:0.20000000000000001] [0:0.11111111] none none [0:0.11111111] none [0:0.17647059000000001] [0:0.083333329999999997] [0:0.11764706] [0:0.11764706] none [0:0.11111111] [0:0.083333329999999997] none [0:0.083333329999999997] [0:0.16666666999999999] [0:0.083333329999999997] [0:0.125] none [0:0.083333329999999997] [0:0.083333329999999997] [0:0.20000000000000001] none [0:0.10000000000000001] [0:0.10000000000000001] [0:0.125] [0:0.125] [0:0.083333329999999997] [0:0.11111111] [0:0.10526315999999999] [0:0.11764706] none [0:0.083333329999999997] [0:0.071428569999999997] [0:0.20000000000000001] [0:0.1875] [0:0.10526315999999999] [0:0.10526315999999999] [0:0.083333329999999997] [0:0.090909089999999998] [0:0.083333329999999997] [0:0.16666666999999999] none [0:0.11111111] [0:0.16129031999999999] [0:0.10000000000000001] [0:0.11111111] [0:0.16666666999999999] [0:0.10000000000000001] [0:0.14285713999999999] [0:0.10000000000000001] [0:0.125] [0:0.083333329999999997] [0:0.11764706] [0:0.11111111] none [0:0.11111111] [0:0.083333329999999997] none [0:0.058823529999999999] [0:0.17647059000000001] [0:0.20000000000000001] none [0:0.071428569999999997] [0:0.15384614999999999] [0:0.083333329999999997] [0:0.083333329999999997] [0:0.10000000000000001] [0:0.071428569999999997] [0:0.074074070000000006] [0:0.20000000000000001] [0:0.20000000000000001] [0:0.125] [0:0.11764706] [0:0.125] [0:0.14285713999999999] [0:0.11764706] [0:0.22727273000000001] [0:0.125] [0:0.11764706] [0:0.13636364000000001] [0:0.125] none [0:0.090909089999999998] [0:0.11764706] [0:0.16666666999999999] [0:0.16666666999999999] [0:0.125] [0:0.11764706] [0:0.16666666999999999] [0:0.14285713999999999] [0:0.25] [0:0.20000000000000001] none none [0:0.14285713999999999] none [0:0.33333332999999998] none none none [0:0.090909089999999998] none none [0:0.090909089999999998] [0:0.10526315999999999] [0:0.125] [0:0.076923080000000005] none [0:0.090909089999999998] none none [0:0.13333333] [0:0.23529412] [0:0.083333329999999997] [0:0.086956519999999995] [0:0.16666666999999999] [0:0.10526315999999999] [0:0.076923080000000005] [0:0.083333329999999997] [0:0.125] [0:0.125] [0:0.066666669999999997] [0:0.058823529999999999] [0:0.10526315999999999] [0:0.090909089999999998] [0:0.16666666999999999] [0:0.10714286000000001] [0:0.10000000000000001] [0:0.20000000000000001] [0:0.20000000000000001] [0:0.125] [0:0.21739130000000001] [0:0.11111111] [0:0.125] [0:0.10000000000000001] [0:0.20000000000000001] [0:0.16666666999999999] none [0:0.090909089999999998] [0:0.30769231000000002] [0:0.30769231000000002] none [0:0.11111111] [0:0.18181818] [0:0.11111111] [0:0.33333332999999998] [0:0.10000000000000001] [0:0.076923080000000005] [0:0.11764706] [0:0.10000000000000001] [0:0.10000000000000001] [0:0.27272727000000002] [0:0.090909089999999998] [0:0.11111111] [0:0.11764706] [0:0.11111111] [0:0.15789474000000001] [0:0.083333329999999997] [0:0.20000000000000001] [0:0.23076922999999999] [0:0.33333332999999998] [0:0.083333329999999997] [0:0.10526315999999999] [0:0.18181818] [0:0.11111111] [0:0.25] [0:0.26086957] [0:0.16666666999999999] [0:0.20000000000000001] [0:0.125] [0:0.10000000000000001] [0:0.090909089999999998] none [0:0.083333329999999997] [0:0.090909089999999998] none none none [0:0.125] [0:0.071428569999999997] [0:0.055555559999999997] none none none none none [0:0.083333329999999997] [0:0.071428569999999997] [0:0.083333329999999997] none none [0:0.20000000000000001] none [0:0.10000000000000001] [0:0.10526315999999999] [0:0.090909089999999998] [0:0.090909089999999998] none [0:0.16666666999999999] [0:0.083333329999999997] [0:0.15384614999999999] [0:0.0625] [0:0.13043478] [0:0.10000000000000001] [0:0.10000000000000001] [0:0.083333329999999997] [0:0.13043478] [0:0.090909089999999998] [0:0.066666669999999997] [0:0.090909089999999998] [0:0.083333329999999997] [0:0.13333333] [0:0.11111111] [0:0.090909089999999998] [0:0.12903226000000001] [0:0.090909089999999998] [0:0.16666666999999999] [0:0.083333329999999997] [0:0.090909089999999998] [0:0.14285713999999999] [0:0.11111111] [0:0.083333329999999997] [0:0.10000000000000001] [0:0.33333332999999998] [0:0.13333333] [0:0.090909089999999998] [0:0.10000000000000001] [0:0.14285713999999999] [0:0.090909089999999998] [0:0.25] [0:0.076923080000000005] [0:0.083333329999999997] none [0:0.083333329999999997] [0:0.096774189999999996] [0:0.071428569999999997] [0:0.16666666999999999] [0:0.10526315999999999] [0:0.090909089999999998] [0:0.125] [0:0.125] none [0:0.16666666999999999] [0:0.086956519999999995] [0:0.125] [0:0.083333329999999997] [0:0.15384614999999999] [0:0.16666666999999999] [0:0.10000000000000001] none [0:0.125] [0:0.10526315999999999] [0:0.12121212000000001] [0:0.125] [0:0.13043478] [0:0.125] [0:0.15384614999999999] [0:0.071428569999999997] [0:0.16666666999999999] [0:0.375] [0:0.22222222] [0:0.125] [0:0.16666666999999999] [0:0.11764706] [0:0.125] [0:0.21739130000000001] [0:0.16666666999999999] [0:0.16666666999999999] [0:0.090909089999999998] [0:0.59999999999999998] [0:0.10000000000000001] [0:0.10344828] [0:0.090909089999999998] [0:0.10526315999999999] [0:0.125] [0:0.20000000000000001] [0:0.16666666999999999] [0:0.125] [0:0.083333329999999997] [0:0.26086957] [0:0.16666666999999999] [0:0.090909089999999998] [0:0.090909089999999998] [0:0.15384614999999999] [0:0.16666666999999999] [0:0.16666666999999999] [0:0.25] [0:0.10000000000000001] [0:0.20000000000000001] [0:0.11764706] [0:0.11111111] [0:0.14285713999999999] [0:0.11111111] [0:0.083333329999999997] [0:0.125] [0:0.076923080000000005] [0:0.090909089999999998] none [0:0.125] [0:0.090909089999999998] [0:0.125] none [0:0.083333329999999997] [0:0.083333329999999997] [0:0.10000000000000001] [0:0.16666666999999999] [0:0.16666666999999999] [0:0.090909089999999998] [0:0.14285713999999999] [0:0.10000000000000001] [0:0.11111111] [0:0.22222222] [0:0.11764706] [0:0.058823529999999999] [0:0.090909089999999998] [0:0.11111111] [0:0.10526315999999999] [0:0.083333329999999997] [0:0.083333329999999997] [0:0.11111111] [0:0.20000000000000001] [0:0.083333329999999997] [0:0.083333329999999997] [0:0.20000000000000001] [0:0.088235289999999994] [0:0.083333329999999997] [0:0.10526315999999999] [0:0.10000000000000001] [0:0.16666666999999999] [0:0.083333329999999997] [0:0.083333329999999997] [0:0.18181818] none [0:0.083333329999999997] [0:0.11111111] [0:0.21428570999999999] [0:0.20000000000000001] none [0:0.20000000000000001] [0:0.20000000000000001] [0:0.11764706] none [0:0.083333329999999997] none [0:0.11111111] [0:0.40000000000000002] none none [0:0.20000000000000001] none none [0:0.090909089999999998] none [0:0.125] [0:0.125] none [0:0.16666666999999999] none [0:0.083333329999999997] [0:0.10000000000000001] [0:0.10000000000000001] none [0:0.20000000000000001] none [0:0.16666666999999999] [0:0.11111111] [0:0.10000000000000001] [0:0.071428569999999997] [0:0.11111111] none [0:0.11111111]
tree_sizes=2733 2831 2844 2846 2838 2839 2866 2857 2854 2884 2866 2868 2860 2886 2878 2874 2889 2886 2899 2909 2912 2904 2917 2901 2900 2922 2910 2908 2939 2940 2915 2944 2935 2948 2950 2937 2939 2949 2964 2950 2948 2954 2963 2959 2972 2941 2964 2962 2976 2970 2981 2977 3003 2973 2974 2984 2962 2993 2972 2984 2980 2981 2990 2977 2968 3006 2993 2973 2997 2979 2979 2984 2990 2983 2971 2982 2988 2976 2963 2992 2988 2982 2968 2986 2984 2987 2973 2971 2976 2976 2970 2985 2978 2974 2973 2971 2975 2939 2971 2980

Tree=0
num_leaves=31
num_cat=0
split_feature=245 300 233 158 288 7 180 45 315 12 60 314 337 89 63 189 81 355 233 75 197 189 9 15 300 9 252 245 189 195
split_gain=17.362 16.1605 11.3908 10.602 11.834 11.5686 7.70417 5.42363 5.79829 5.25021 4.8468 4.74323 3.62722 3.16991 3.34394 2.76257 2.75201 2.75727 2.66911 2.07419 1.97225 1.42917 0.857469 0.625862 0.519532 0.462687 0.311828 0.266667 0.252632 0.102167
threshold=0.025978410000000004 0.025320515000000005 1.0000000180025095e-35 0.04583333500000001 0.050125315000000011 1.0000000180025095e-35 0.025320515000000005 0.026671410000000003 1.0000000180025095e-35 1.0000000180025095e-35 0.028991595000000002 0.027402405000000001 0.035098525000000012 0.028174605000000002 0.032795695000000007 0.028991595000000002 1.0000000180025095e-35 0.035098525000000012 0.029857395000000005 0.027402405000000001 1.0000000180025095e-35 0.051315790000000007 0.029857395000000005 0.025978410000000004 0.032795695000000007 0.051315790000000007 0.025978410000000004 0.044466405000000007 0.025978410000000004 0.028174605000000002
decision_type=2 2 2 2 2 2 2 2 2 2 2 2 2 2 2 2 2 2 2 2 2 2 2 2 2 2 2 2 2 2
left_child=1 2 3 4 5 6 7 8 9 11 15 12 13 14 16 -7 17 19 -4 20 21 29 28 24 -3 -6 27 -2 -8 -1
right_child=26 23 18 -5 25 10 22 -9 -10 -11 -12 -13 -14 -15 -16 -17 -18 -19 -20 -21 -22 -23 -24 -25 -26 -27 -28 -29 -30 -31
leaf_value=0.49875344229120339 0.45666666668598299 0.45685897437255946 0.54916666392926816 0.5472058796739786 0.5324999977593069 0.48465053681974057 0.46249999984546941 0.45273809537449211 0.46312015486574704 0.45988095230447551 0.54571838816996587 0.46166666653697136 0.46999999962195199 0.53666666430179721 0.46821428538945614 0.53098484628931042 0.54440475930927923 0.53762820273467959 0.51003623031283729 0.53177536009974335 0.47729166607131007 0.52269607648285898 0.47643939336943703 0.44916666690950036 0.47563725435590948 0.54916666392926816 0.44916666690950036 0.46999999962195199 0.44916666690950036 0.50630952234936766
leaf_weight=121 40 26 72 51 36 31 30 28 43 28 58 24 24 40 21 22 21 26 23 23 32 34 33 27 34 31 29 24 27 21
leaf_count=121 40 26 72 51 36 31 30 28 43 28 58 24 24 40 21 22 21 26 23 23 32 34 33 27 34 31 29 24 27 21
internal_value=0.499074 0.502966 0.506944 0.50308 0.500095 0.496183 0.490486 0.495463 0.498075 0.501697 0.525743 0.504722 0.507569 0.510229 0.506692 0.503884 0.509598 0.506754 0.539693 0.503279 0.500128 0.50428 0.463611 0.46181 0.4675 0.540211 0.457769 0.461667 0.456184 0.499871
internal_weight=0 987 900 805 754 687 576 486 458 415 111 387 363 339 299 53 278 257 95 231 208 176 90 87 60 67 93 64 57 142
internal_count=1080 987 900 805 754 687 576 486 458 415 111 387 363 339 299 53 278 257 95 231 208 176 90 87 60 67 93 64 57 142
shrinkage=1


Tree=1
num_leaves=31
num_cat=0
split_feature=245 300 78 158 288 7 178 167 34 362 28 148 81 60 8 189 5 309 243 309 349 303 0 189 349 195 15 174 9 9
split_gain=14.0632 13.09 10.0287 8.27111 8.87687 8.94246 7.33103 6.91556 5.77961 5.06545 4.60204 4.7363 4.02436 3.83417 2.70119 2.06139 1.58865 1.67185 1.83868 1.54842 1.48039 1.62723 1.65267 1.54986 0.5673 0.544541 0.794371 0.412822 0.850694 0.296525
threshold=0.025978410000000004 0.025320515000000005 1.0000000180025095e-35 0.04583333500000001 0.050125315000000011 1.0000000180025095e-35 0.028174605000000002 0.025978410000000004 0.059714795000000008 0.028991595000000002 0.032291665000000004 0.039230770000000005 1.0000000180025095e-35 0.028991595000000002 0.027402405000000001 0.028991595000000002 0.033908045000000005 0.042572465000000011 1.0000000180025095e-35 0.028174605000000002 1.0000000180025095e-35 1.0000000180025095e-35 0.031754030000000009 0.028991595000000002 0.051315790000000007 1.0000000180025095e-35 0.026671410000000003 0.054093570000000001 0.095454545000000016 0.029857395000000005
decision_type=2 2 2 2 2 2 2 2 2 2 2 2 2 2 2 2 2 2 2 2 2 2 2 2 2 2 2 2 2 2
left_child=1 2 3 4 5 6 7 8 9 10 11 12 14 15 16 -7 17 18 20 -9 21 22 23 29 -22 26 -3 28 -6 -1
right_child=-2 25 -4 -5 27 13 -8 19 -10 -11 -12 -13 -14 -15 -16 -17 -18 -19 -20 -21 24 -23 -24 -25 -26 -27 -28 -29 -30 -31
leaf_value=-0.016674516256898642 -0.037174731364814188 -0.02070259629260926 0.046937435360278112 0.043318629147959697 0.015916668474674225 -0.011044383607804777 0.036322775169422748 0.0087942751317188674 0.03877405183655875 0.034519009292125702 0.030101140141487123 0.022542728483676912 0.022397620528936388 0.042032484937522374 0.0058849814636953955 0.028719697486270557 -0.044896705868916642 -0.047014160454273229 -0.048119312773148223 0.042402121424674991 -0.043495011627674107 -0.04253602709089007 -0.036534056177845713 0.0068602622974486584 -0.022620334832564648 -0.045996303915977477 -0.044916665554046636 0.046685897616239702 0.045083335041999822 -0.0035814546048641206
leaf_weight=128 93 42 59 51 20 32 38 29 21 20 20 26 20 59 29 22 39 28 24 26 30 21 27 42 23 25 20 26 20 20
leaf_count=128 93 42 59 51 20 32 38 29 21 20 20 26 20 59 29 22 39 28 24 26 30 21 27 42 23 25 20 26 20 20
internal_value=0 0.00350279 0.00708333 0.00428739 0.00176765 -0.00143286 -0.00621231 -0.00903314 -0.0126129 -0.0147842 -0.0168514 -0.0189062 -0.0214066 0.02441 -0.0235382 0.0051558 -0.0257719 -0.0235973 -0.0215159 0.0246816 -0.0193218 -0.0159559 -0.0133837 -0.0100939 -0.0344362 -0.0335374 -0.0285136 0.0368763 0.0305 -0.0149052
internal_weight=0 987 900 841 790 724 611 573 518 497 477 457 431 113 411 54 382 343 315 55 291 238 217 190 53 87 62 66 40 148
internal_count=1080 987 900 841 790 724 611 573 518 497 477 457 431 113 411 54 382 343 315 55 291 238 217 190 53 87 62 66 40 148
shrinkage=0.1


Tree=2
num_leaves=31
num_cat=0
split_feature=300 245 109 315 45 42 343 197 95 5 314 337 3 29 249 109 0 180 183 17 145 362 349 174 154 67 34 189 300 252
split_gain=11.4698 10.4762 8.33858 8.33982 7.66283 6.47179 6.71404 5.77697 5.24895 4.70157 3.94908 4.21014 3.41792 3.53122 2.96247 1.55481 1.41379 1.06155 1.02302 1.23274 1.7618 0.757591 1.18764 0.639184 0.687151 0.895015 0.990612 0.603813 0.325636 0.323076
threshold=0.025320515000000005 0.025978410000000004 1.0000000180025095e-35 0.031754030000000009 0.026671410000000003 1.0000000180025095e-35 0.029857395000000005 0.029857395000000005 1.0000000180025095e-35 0.036375665000000008 1.0000000180025095e-35 0.032795695000000007 0.029857395000000005 1.0000000180025095e-35 0.028174605000000002 0.037749290000000012 1.0000000180025095e-35 0.030776515000000004 0.026671410000000003 0.028174605000000002 1.0000000180025095e-35 1.0000000180025095e-35 0.028594770000000002 0.039230770000000005 0.028991595000000002 0.028174605000000002 0.032291665000000004 0.037749290000000012 0.044466405000000007 0.025978410000000004
decision_type=2 2 2 2 2 2 2 2 2 2 2 2 2 2 2 2 2 2 2 2 2 2 2 2 2 2 2 2 2 2
left_child=1 2 3 4 5 6 7 8 9 10 11 12 13 14 18 -4 28 -17 19 20 21 22 23 24 25 26 -1 -9 -2 -3
right_child=16 29 15 -5 -6 -7 -8 27 -10 -11 -12 -13 -14 -15 -16 17 -18 -19 -20 -21 -22 -23 -24 -25 -26 -27 -28 -29 -30 -31
leaf_value=0.016920500312532696 -0.042511422874835822 -0.027408313638759108 -0.039951744955033064 -0.030361872485705783 -0.039135360824210305 -0.034825245004433854 -0.041134258955717089 -0.0055151495763233731 -0.028795999146643138 -0.017970437343631473 -0.017575428160754119 -0.018308074275652567 -0.0087732270956039429 -0.010102934187108821 -0.0050157617438923233 -0.0025360559946612307 -0.0080718067288398747 -0.03013817207379775 0.040678096434165693 0.042782800754562755 -0.001492997407913208 0.04196885220706463 0.0037730482220649716 0.042532954196776114 0.044474337995052342 0.039230978401268234 0.040257640182971954 -0.027296434640884399 -0.029428316156069442 -0.041199192404747009
leaf_weight=105 52 53 32 49 28 26 20 35 21 28 22 21 25 22 22 38 20 22 116 61 20 40 20 31 20 34 22 20 30 25
leaf_count=105 52 53 32 49 28 26 20 35 21 28 22 21 25 22 22 38 20 22 116 61 20 40 20 31 20 34 22 20 30 25
internal_value=0 0.0033281 0.006375 0.00962298 0.0122043 0.0141708 0.0159778 0.0176453 0.0203587 0.0220537 0.0239826 0.0256181 0.0273327 0.0290923 0.0308485 -0.0221507 -0.0319106 -0.0126568 0.0325308 0.0298535 0.0271525 0.0292588 0.0270674 0.029265 0.0269926 0.024821 0.0209632 -0.0134356 -0.0377249 -0.0318285
internal_weight=0 978 900 808 759 731 705 685 630 609 581 559 538 513 491 92 102 60 469 353 292 272 232 212 181 161 127 55 82 78
internal_count=1080 978 900 808 759 731 705 685 630 609 581 559 538 513 491 92 102 60 469 353 292 272 232 212 181 161 127 55 82 78
shrinkage=0.1


Tree=3
num_leaves=31
num_cat=0
split_feature=245 300 78 158 314 76 288 180 12 45 303 296 109 3 315 249 317 75 189 196 349 172 164 154 44 285 109 15 300 180
split_gain=9.33809 8.48768 6.8894 5.9677 5.94885 6.04833 5.20735 6.00319 5.05536 4.55009 4.33652 3.99255 3.7568 4.45782 4.01819 2.83201 1.79517 1.15273 1.06251 1.04928 0.756482 0.840332 0.736367 0.985925 0.776331 0.831554 0.73087 0.422895 0.369128 0.275504
threshold=0.025978410000000004 0.025320515000000005 1.0000000180025095e-35 0.04583333500000001 0.025978410000000004 1.0000000180025095e-35 0.050125315000000011 0.029857395000000005 1.0000000180025095e-35 0.026671410000000003 1.0000000180025095e-35 0.028174605000000002 1.0000000180025095e-35 0.027402405000000001 0.038518520000000007 1.0000000180025095e-35 0.031754030000000009 0.026671410000000003 0.029857395000000005 1.0000000180025095e-35 0.051315790000000007 1.0000000180025095e-35 0.028174605000000002 0.026671410000000003 0.028594770000000002 0.039230770000000005 0.042572465000000011 0.025978410000000004 0.032795695000000007 0.051315790000000007
decision_type=2 2 2 2 2 2 2 2 2 2 2 2 2 2 2 2 2 2 2 2 2 2 2 2 2 2 2 2 2 2
left_child=1 2 3 4 5 6 7 8 9 10 11 12 13 14 15 16 17 19 29 20 21 22 23 24 25 -1 -14 28 -3 -9
right_child=-2 27 -4 -5 -6 -7 -8 18 -10 -11 -12 -13 26 -15 -16 -17 -18 -19 -20 -21 -22 -23 -24 -25 -26 -27 -28 -29 -30 -31
leaf_value=0.009153926837334939 -0.030292436800977235 -0.03126436999210945 0.038769989043979325 0.036573956936013466 -0.032838253490626815 -0.042973913749059039 0.032459340477362278 -0.021631081295864926 -0.031887517914627538 -0.038375259637832643 -0.034284546403657822 -0.031670994907617565 -0.027005657960068097 -0.0251817774027586 -0.023459727423531668 -0.011837905272841454 -0.0034293178630911791 0.038842003654550622 -0.039502453472879201 0.0045291270528520855 0.042216999634452496 0.040976278980573017 0.039521385580301285 0.032545749910853128 0.033885782957077025 0.030467495186762381 -0.00092411012876601447 -0.037365109832198533 -0.015435936696389142 -0.0068602098071056869
leaf_weight=109 93 26 59 51 48 27 64 28 33 20 21 20 22 24 21 24 23 54 27 28 23 24 20 44 20 22 21 27 34 23
leaf_count=109 93 26 59 51 48 27 64 28 33 20 21 20 22 24 21 24 23 54 27 28 23 24 20 44 20 22 21 27 34 23
internal_value=0 0.0028543 0.0057375 0.00342012 0.00127981 0.00348691 0.00524137 0.00256557 0.00610856 0.00843054 0.0102308 0.0121042 0.0139319 0.0167131 0.0191536 0.0214423 0.0236187 0.0254271 -0.0234618 0.0229292 0.0248956 0.0232287 0.0212475 0.0193733 0.015535 0.0127333 -0.0142682 -0.0269719 -0.0222949 -0.0149697
internal_weight=0 987 900 841 790 742 715 651 573 540 520 499 479 436 412 391 367 344 78 290 262 239 215 195 151 131 43 87 60 51
internal_count=1080 987 900 841 790 742 715 651 573 540 520 499 479 436 412 391 367 344 78 290 262 239 215 195 151 131 43 87 60 51
shrinkage=0.1


Tree=4
num_leaves=31
num_cat=0
split_feature=300 245 367 303 305 196 249 109 42 45 95 314 297 317 149 296 0 5 109 351 308 195 40 153 309 300 16 60 240 245
split_gain=7.59882 6.80047 5.73471 5.19792 5.58785 4.78974 5.32383 5.10237 4.95643 5.15016 4.26815 5.03776 3.73549 2.82705 1.80261 1.7305 1.1493 1.06992 0.852021 0.544991 0.773127 0.611751 0.50738 0.369359 0.272584 0.25208 0.243249 0.232498 0.183661 0.181299
threshold=0.025320515000000005 0.025978410000000004 0.028991595000000002 1.0000000180025095e-35 0.025978410000000004 0.031754030000000009 0.030776515000000004 1.0000000180025095e-35 1.0000000180025095e-35 0.026671410000000003 1.0000000180025095e-35 0.028174605000000002 1.0000000180025095e-35 0.031754030000000009 0.029857395000000005 1.0000000180025095e-35 1.0000000180025095e-35 0.030776515000000004 0.040833335000000005 0.029857395000000005 0.027046785 0.026671410000000003 0.025978410000000004 0.027402405000000001 0.025978410000000004 0.044466405000000007 0.030776515000000004 0.057189545000000001 1.0000000180025095e-35 0.044466405000000007
decision_type=2 2 2 2 2 2 2 2 2 2 2 2 2 2 2 2 2 2 2 2 2 2 2 2 2 2 2 2 2 2
left_child=1 2 3 4 5 6 7 8 9 10 11 12 13 14 15 17 25 19 -9 20 21 22 23 26 29 -2 27 28 -1 -3
right_child=16 24 -4 -5 -6 -7 -8 18 -10 -11 -12 -13 -14 -15 -16 -17 -18 -19 -20 -21 -22 -23 -24 -25 -26 -27 -28 -29 -30 -31
leaf_value=0.035747563611766148 -0.035427184402942659 -0.02666676675572115 0.037398979755548331 -0.033467361733720107 -0.02823498354603847 -0.025479662279750029 -0.029163913045610702 -0.03145672443012397 -0.032038408776988152 -0.031142716044964998 -0.021709691153632273 -0.030257137268781667 -0.021527995467185975 -0.0089646918906105891 -0.0051110741496086121 -0.0018224032087759538 -0.0044799621403217322 0.0048842464174543116 -0.007264069528193088 0.012689689750021155 0.0096948780119419098 0.01616506516933441 0.016346147656440737 0.020832233848395172 -0.035355743056251887 -0.023916160066922508 0.023599250316619875 0.0240415712649172 0.027413513859113059 -0.015171160646106886
leaf_weight=223 52 34 52 37 48 43 35 24 23 23 27 20 20 27 20 22 20 21 37 22 20 30 22 27 21 30 25 22 30 23
leaf_count=223 52 34 52 37 48 43 35 24 23 23 27 20 20 27 20 22 20 21 37 22 20 30 22 27 21 30 25 22 30 23
internal_value=0 0.00270889 0.00516375 0.00318706 0.00485933 0.00694128 0.00887754 0.0108213 0.0135197 0.0152632 0.0171098 0.019012 0.0208677 0.0225271 0.0242838 0.0255508 -0.0259735 0.0269133 -0.0167825 0.0280122 0.028857 0.0298682 0.0310461 0.0320351 -0.0256164 -0.0312158 0.0330434 0.0339019 0.0347593 -0.0220282
internal_weight=0 978 900 848 811 763 720 685 624 601 578 551 531 511 484 464 102 442 61 421 399 379 349 327 78 82 300 275 253 57
internal_count=1080 978 900 848 811 763 720 685 624 601 578 551 531 511 484 464 102 442 61 421 399 379 349 327 78 82 300 275 253 57
shrinkage=0.1


Tree=5
num_leaves=31
num_cat=0
split_feature=245 15 367 303 312 249 196 305 354 45 335 3 109 300 171 5 160 69 167 288 97 67 34 349 109 189 9 240 195 63
split_gain=6.21527 5.68519 4.8611 4.39736 4.87931 4.30782 4.42872 4.01298 3.90483 4.10913 3.55918 2.82523 3.22415 1.81279 1.40861 1.07592 0.870636 1.31683 1.02442 1.1174 0.90003 1.11815 0.899587 0.448493 0.421842 0.412895 0.411071 0.221247 0.303045 0.129251
threshold=0.025978410000000004 0.029857395000000005 0.028991595000000002 1.0000000180025095e-35 0.025978410000000004 0.030776515000000004 0.031754030000000009 0.025978410000000004 1.0000000180025095e-35 0.028594770000000002 0.031754030000000009 0.028991595000000002 1.0000000180025095e-35 0.025320515000000005 0.035098525000000012 0.030776515000000004 1.0000000180025095e-35 0.026671410000000003 0.025978410000000004 0.035759900000000004 0.039351855000000012 0.027402405000000001 0.047727275000000006 0.057189545000000001 0.042572465000000011 0.040833335000000005 0.027402405000000001 0.026671410000000003 0.026671410000000003 0.028991595000000002
decision_type=2 2 2 2 2 2 2 2 2 2 2 2 2 2 2 2 2 2 2 2 2 2 2 2 2 2 2 2 2 2
left_child=1 2 3 4 5 6 7 8 9 10 11 12 13 14 15 16 17 18 19 20 21 22 23 25 -14 -1 -3 28 -2 -4
right_child=27 26 29 -5 -6 -7 -8 -9 -10 -11 -12 -13 24 -15 -16 -17 -18 -19 -20 -21 -22 -23 -24 -25 -26 -27 -28 -29 -30 -31
leaf_value=-0.00083976096295295885 -0.017916353134547962 -0.029987424910068512 0.037359415087848902 -0.032132087094443186 -0.02688810682545106 -0.026875621394107221 -0.026075727794621441 -0.023589739799499514 -0.024113944868246716 -0.028699232702669893 -0.020482679243598666 -0.012417492451089801 -0.018102678940409705 -0.0068366174896558121 -0.0046674285829067233 0.00031805350666954405 0.032516994933749356 0.031260320605690943 0.039362154603004462 0.031306347021689787 0.032953764647245413 0.029804487067919511 0.026658891070456731 0.017839364068848746 0.0011226731538772582 0.01498340979218483 -0.013024247437715531 -0.033744931788671585 -0.032189665096146722 0.027531547779622287
leaf_weight=94 51 50 32 35 48 38 37 35 30 23 28 33 21 24 20 21 86 97 20 39 20 26 21 21 25 20 20 21 21 23
leaf_count=94 51 50 32 35 48 38 37 35 30 23 28 33 21 24 20 21 86 97 20 39 20 26 21 21 25 20 20 21 21 23
internal_value=0 0.00232863 0.00442554 0.00258642 0.00405576 0.00596244 0.00764645 0.00941878 0.0111457 0.0128011 0.0143506 0.0160093 0.0176996 0.0199908 0.0213184 0.0224361 0.0234822 0.0213118 0.0176145 0.0158097 0.0128178 0.010605 0.00740509 0.00441005 -0.00765412 0.00193623 -0.0251408 -0.0247136 -0.0220794 0.0332496
internal_weight=0 987 917 862 827 779 741 704 669 639 616 588 555 509 485 465 444 358 261 241 202 182 156 135 46 114 70 93 72 55
internal_count=1080 987 917 862 827 779 741 704 669 639 616 588 555 509 485 465 444 358 261 241 202 182 156 135 46 114 70 93 72 55
shrinkage=0.1


Tree=6
num_leaves=31
num_cat=0
split_feature=238 245 367 288 12 7 167 362 34 164 148 191 160 187 60 107 189 182 195 5 100 15 196 309 174 9 294 189 252 189
split_gain=5.37787 5.12235 4.6187 3.92955 4.18924 3.65212 4.06897 3.81248 3.41809 3.76996 3.45433 2.77807 1.68222 1.73904 1.29149 1.16542 0.812711 0.769538 0.884252 0.811606 0.568315 0.557681 0.690198 0.427763 0.283905 0.390428 0.237884 0.124798 0.158647 0.12175
threshold=1.0000000180025095e-35 0.025978410000000004 0.028991595000000002 0.050125315000000011 1.0000000180025095e-35 1.0000000180025095e-35 0.025978410000000004 1.0000000180025095e-35 1.0000000180025095e-35 0.027402405000000001 0.040833335000000005 0.028174605000000002 1.0000000180025095e-35 0.056349210000000004 0.028991595000000002 0.030776515000000004 0.026671410000000003 0.025978410000000004 1.0000000180025095e-35 0.024184150000000005 0.027402405000000001 0.036375665000000008 0.026671410000000003 0.025978410000000004 0.054093570000000001 0.095454545000000016 0.029857395000000005 0.032795695000000007 0.025978410000000004 0.028991595000000002
decision_type=2 2 2 2 2 2 2 2 2 2 2 2 2 2 2 2 2 2 2 2 2 2 2 2 2 2 2 2 2 2
left_child=1 2 3 4 5 6 7 8 9 10 11 12 13 15 16 17 -7 18 19 20 21 22 29 -8 25 -5 -10 28 -3 -1
right_child=-2 27 -4 24 -6 14 23 -9 26 -11 -12 -13 -14 -15 -16 -17 -18 -19 -20 -21 -22 -23 -24 -25 -26 -27 -28 -29 -30 -31
leaf_value=-0.012354238828023275 0.032719947459797068 -0.018805436187602106 0.030243649780750278 0.0070710857212543492 -0.028796478386583002 -0.0049218734673091352 0.013347086403518916 0.023836305431830577 0.011502333357930184 0.017845981745492845 0.025233573263341733 0.014552538764887844 0.0031866028077072572 0.0092561000585556028 0.025720495995828666 0.00072663050630818247 0.018970228110750519 -0.038112122950882753 -0.032545068318193614 -0.035263942067439741 -0.032259394015584676 -0.029292863607406617 -0.030567788779735566 0.030438216196166146 0.030221971427952805 0.02683034300804138 0.026269206553697591 -0.030735481191765182 -0.029094592549584131 -0.0057422880497243678
leaf_weight=123 48 47 50 20 58 35 32 39 24 42 22 29 36 20 59 23 24 29 55 26 21 24 20 27 27 20 20 22 22 36
leaf_count=123 48 47 50 20 58 35 32 39 24 42 22 29 36 20 59 23 24 29 55 26 21 24 20 27 27 20 20 22 22 36
internal_value=0 -0.00152186 0.000669033 -0.000990598 -0.00288428 -0.000922257 -0.00386879 -0.00637677 -0.00851915 -0.0108438 -0.0134407 -0.0153657 -0.0174665 -0.0194387 0.0152587 -0.0210462 0.00479695 -0.0225456 -0.0210655 -0.01854 -0.0165988 -0.0149787 -0.0130595 0.0211685 0.0222988 0.0169507 0.0182145 -0.0241771 -0.022086 -0.0108572
internal_weight=0 1032 941 891 824 766 648 589 550 506 464 442 413 377 118 357 59 334 305 250 224 203 179 59 67 40 44 91 69 159
internal_count=1080 1032 941 891 824 766 648 589 550 506 464 442 413 377 118 357 59 334 305 250 224 203 179 59 67 40 44 91 69 159
shrinkage=0.1


Tree=7
num_leaves=31
num_cat=0
split_feature=300 238 245 76 272 292 305 303 232 304 343 14 314 3 109 197 104 0 74 337 12 162 54 316 349 300 156 52 309 285
split_gain=4.42068 3.78461 3.6872 3.52948 3.23386 2.98029 2.97215 2.9847 2.97963 2.82052 3.01972 2.9231 2.79116 2.17826 2.07029 1.5054 1.39806 0.847738 0.559147 0.52512 0.452159 0.318599 0.364269 0.358424 0.414321 0.188222 0.157076 0.152555 0.19973 0.193001
threshold=0.025320515000000005 1.0000000180025095e-35 0.025978410000000004 1.0000000180025095e-35 1.0000000180025095e-35 1.0000000180025095e-35 0.025978410000000004 1.0000000180025095e-35 1.0000000180025095e-35 0.026671410000000003 0.027402405000000001 0.030776515000000004 0.031754030000000009 0.032795695000000007 1.0000000180025095e-35 0.031754030000000009 1.0000000180025095e-35 1.0000000180025095e-35 0.029857395000000005 0.026671410000000003 1.0000000180025095e-35 1.0000000180025095e-35 0.028174605000000002 0.029857395000000005 0.025978410000000004 0.044466405000000007 0.028174605000000002 0.028991595000000002 0.028991595000000002 0.039230770000000005
decision_type=2 2 2 2 2 2 2 2 2 2 2 2 2 2 2 2 2 2 2 2 2 2 2 2 2 2 2 2 2 2
left_child=1 2 3 4 5 6 7 8 9 10 11 12 13 14 15 16 18 25 19 20 21 22 23 24 26 -2 27 28 29 -1
right_child=17 -3 -4 -5 -6 -7 -8 -9 -10 -11 -12 -13 -14 -15 -16 -17 -18 -19 -20 -21 -22 -23 -24 -25 -26 -27 -28 -29 -30 -31
leaf_value=0.030796135064237607 -0.027952194672364455 0.02944795284420252 -0.020454231081040285 -0.031757667146880053 -0.030300560152089158 -0.027768534973815637 -0.019205802171067758 -0.025710921562634981 -0.029250207096338271 -0.019072074536234142 -0.018612566124647855 -0.016536410432308912 -0.017525406296436601 -0.012270944737471067 -0.0061376496297972545 -0.0019576407037675382 -0.0047496343652407326 -0.0013511922955513002 0.0061108835718848495 0.0070468510900224962 0.011457993040482204 0.013759103417396546 0.012588282945481213 0.01356528875502673 0.018269793037325146 -0.018005488564570748 0.03628297772096551 0.019270287156105043 0.02054776144879205 0.020603345476445697
leaf_weight=161 52 48 76 29 27 27 44 26 20 32 32 32 26 26 35 32 21 20 22 21 30 27 22 22 48 30 23 20 28 21
leaf_count=161 52 48 76 29 27 27 44 26 20 32 32 32 26 26 35 32 21 20 22 21 30 27 22 22 48 30 23 20 28 21
internal_value=0 0.00206616 0.000652904 0.00253129 0.0037366 0.00488823 0.00603186 0.00755931 0.00879329 0.00991058 0.0113396 0.0128931 0.0145029 0.0159926 0.0173713 0.0190235 0.0204643 -0.0198108 0.0216541 0.0224625 0.0232678 0.0242202 0.0250389 0.025887 0.0267875 -0.0243132 0.0284036 0.0276156 0.0284104 0.02962
internal_weight=0 978 930 854 825 798 771 727 701 681 649 617 585 559 533 498 466 102 445 423 402 372 345 323 301 82 253 230 210 182
internal_count=1080 978 930 854 825 798 771 727 701 681 649 617 585 559 533 498 466 102 445 423 402 372 345 323 301 82 253 230 210 182
shrinkage=0.1


Tree=8
num_leaves=31
num_cat=0
split_feature=168 12 367 300 36 76 292 180 0 9 245 45 305 304 197 9 43 340 347 273 8 114 7 17 174 195 189 189 160 189
split_gain=3.58378 4.73345 3.30592 2.73544 2.84452 2.57437 2.68341 2.68963 2.61633 2.93558 2.46132 2.05726 2.13283 1.96195 1.59468 0.876155 0.869739 0.637497 0.669654 0.519061 0.640473 0.676948 0.537537 0.913207 0.749048 0.415927 0.341512 0.297515 0.29315 0.2581
threshold=0.04653680000000001 1.0000000180025095e-35 0.028991595000000002 0.025320515000000005 1.0000000180025095e-35 1.0000000180025095e-35 1.0000000180025095e-35 0.029857395000000005 0.027402405000000001 0.026671410000000003 0.025978410000000004 0.026671410000000003 0.025978410000000004 0.026671410000000003 1.0000000180025095e-35 0.029857395000000005 0.028174605000000002 1.0000000180025095e-35 1.0000000180025095e-35 1.0000000180025095e-35 0.053342815000000009 0.028174605000000002 0.048809525000000013 0.028174605000000002 0.039230770000000005 0.056349210000000004 0.032795695000000007 0.051315790000000007 0.040833335000000005 0.026671410000000003
decision_type=2 2 2 2 2 2 2 2 2 2 2 2 2 2 2 2 2 2 2 2 2 2 2 2 2 2 2 2 2 2
left_child=1 2 3 4 5 6 7 8 10 -10 11 12 13 14 16 26 17 18 19 20 21 22 23 24 25 27 -9 -1 -2 -5
right_child=28 -3 -4 29 -6 -7 -8 15 9 -11 -12 -13 -14 -15 -16 -17 -18 -19 -20 -21 -22 -23 -24 -25 -26 -27 -28 -29 -30 -31
leaf_value=-0.0013809619813549277 0.014205701566404766 -0.024930341914296151 0.023753803419439418 -0.01487831491334685 0.037937328368425373 -0.028492638564878898 -0.028883381907282204 -0.016350111663341521 -0.034158606997558051 0.010201321656887349 -0.018367490897307527 -0.023131909742951394 -0.017769301489547449 -0.017369567246540731 -0.0040884980384041283 -0.0021044442599469967 -0.0051297373714901152 0.03271084080139796 -0.0025420232897713072 0.023671644728849917 0.028823159749691303 0.027571890159295155 0.023444669001868795 0.027296013223088306 0.022405692810813588 0.01633054812749227 -0.03322000660002232 0.010840515017509461 0.026572206907156039 -0.027208843206365903
leaf_weight=98 36 80 57 58 20 31 29 30 35 26 37 20 27 23 51 33 21 21 21 68 26 26 28 23 24 21 20 25 41 24
leaf_count=98 36 80 57 58 20 31 29 30 35 26 37 20 27 23 51 33 21 21 21 68 26 26 28 23 24 21 20 25 41 24
internal_value=0 -0.00159608 0.000426394 -0.00110901 0.000708609 -0.000265965 0.000927796 0.00215581 0.00441553 -0.0152511 0.00655779 0.00832114 0.00957176 0.0111226 0.0125692 -0.0147512 0.0146825 0.0157746 0.0147866 0.0158601 0.0139 0.0123163 0.0105051 0.00860819 0.00604974 0.00332375 -0.0230981 0.00110308 0.0207905 -0.0184873
internal_weight=0 1003 923 866 784 764 733 704 621 61 560 523 503 476 453 83 402 381 360 339 271 245 219 191 168 144 50 123 77 82
internal_count=1080 1003 923 866 784 764 733 704 621 61 560 523 503 476 453 83 402 381 360 339 271 245 219 191 168 144 50 123 77 82
shrinkage=0.1


Tree=9
num_leaves=31
num_cat=0
split_feature=238 78 39 58 294 331 148 317 315 4 288 108 273 290 140 28 180 34 349 52 309 168 182 195 352 300 109 340 307 182
split_gain=3.04588 2.8572 2.98499 2.98199 3.27162 3.25925 3.46127 2.31815 2.15399 2.18024 1.96241 1.68063 1.93459 2.24341 1.5765 1.51339 0.923064 1.0519 1.09149 0.688569 0.651502 0.61531 0.568155 0.539318 0.502039 0.476441 0.561772 0.477472 0.133517 0.108054
threshold=1.0000000180025095e-35 1.0000000180025095e-35 1.0000000180025095e-35 1.0000000180025095e-35 0.04653680000000001 0.028991595000000002 0.057189545000000001 1.0000000180025095e-35 1.0000000180025095e-35 0.028174605000000002 0.064583335000000006 0.037386445000000011 1.0000000180025095e-35 1.0000000180025095e-35 1.0000000180025095e-35 1.0000000180025095e-35 0.042572465000000011 0.032291665000000004 0.042572465000000011 1.0000000180025095e-35 0.028991595000000002 0.037749290000000012 0.025978410000000004 1.0000000180025095e-35 0.030776515000000004 0.027402405000000001 1.0000000180025095e-35 0.025978410000000004 0.028174605000000002 0.028174605000000002
decision_type=2 2 2 2 2 2 2 2 2 2 2 2 2 2 2 2 2 2 2 2 2 2 2 2 2 2 2 2 2 2
left_child=1 2 3 4 5 6 7 8 9 10 11 12 13 14 15 16 17 18 19 22 -7 -6 23 24 25 26 27 -1 -11 -2
right_child=29 -3 -4 -5 21 20 -8 -9 -10 28 -12 -13 -14 -15 -16 -17 -18 -19 -20 -21 -22 -23 -24 -25 -26 -27 -28 -29 -30 -31
leaf_value=-0.0042882163176494363 0.028988711249369845 0.021469015276656962 0.029810799445424765 0.025763845356071697 0.0073785231226966494 0.0059897512649044853 0.030252906291381172 -0.026192961736685699 -0.023561069797979645 0.011128267969774164 0.019804689288139346 0.011675766301460756 0.011515112526905843 0.021084458604454997 0.0057800174877047543 0.010467487641356209 -0.03012911822985519 0.0069437854346774885 0.0023199747348653858 -0.032934155261942315 0.026351292133331303 0.025474825457615015 -0.032193960462297715 -0.026311317665709391 -0.027661639168148951 -0.025884246006608009 -0.022393259618963518 -0.02105097606778145 0.022300059571862221 0.019466378268870443
leaf_weight=113 26 53 28 34 42 33 23 72 73 23 26 39 39 20 40 22 44 21 29 28 30 34 21 36 21 20 28 20 20 22
leaf_count=113 26 53 28 34 42 33 23 72 73 23 26 39 39 20 40 22 44 21 29 28 30 34 21 36 21 20 28 20 20 22
internal_value=0 -0.00114532 -0.00236959 -0.00331706 -0.00439531 -0.00619089 -0.00796239 -0.00912657 -0.00732747 -0.00538476 -0.00703114 -0.00832085 -0.00987437 -0.0116761 -0.0131551 -0.0150345 -0.0165071 -0.0147285 -0.0161688 -0.018037 0.0156857 0.0154742 -0.0164265 -0.0150352 -0.0130256 -0.0113275 -0.00951925 -0.00680893 0.0163245 0.0246243
internal_weight=0 1032 979 951 917 841 778 755 683 610 567 541 502 463 443 403 381 337 316 287 63 76 259 238 202 181 161 133 43 48
internal_count=1080 1032 979 951 917 841 778 755 683 610 567 541 502 463 443 403 381 337 316 287 63 76 259 238 202 181 161 133 43 48
shrinkage=0.1


Tree=10
num_leaves=31
num_cat=0
split_feature=315 168 12 292 272 180 335 337 95 255 100 3 256 115 327 29 189 294 109 320 192 160 168 4 52 177 189 353 9 195
split_gain=2.46923 2.41999 3.21391 2.47101 2.33526 2.24156 2.34363 2.03194 1.97364 1.79508 1.73344 1.52525 1.53543 1.06091 1.25495 0.917524 0.803505 0.717436 0.617058 0.494583 0.494398 0.578293 0.615865 0.318757 0.339719 0.35685 0.223287 0.320351 0.185878 0.147286
threshold=0.030776515000000004 0.028039835000000003 1.0000000180025095e-35 1.0000000180025095e-35 0.027402405000000001 0.029857395000000005 0.035098525000000012 0.031754030000000009 1.0000000180025095e-35 0.029857395000000005 1.0000000180025095e-35 0.027402405000000001 0.026671410000000003 1.0000000180025095e-35 1.0000000180025095e-35 1.0000000180025095e-35 0.031754030000000009 0.040833335000000005 0.025978410000000004 0.028991595000000002 0.028174605000000002 0.044466405000000007 0.064583335000000006 0.028991595000000002 0.028174605000000002 0.029857395000000005 1.0000000180025095e-35 0.048809525000000013 0.029857395000000005 0.026671410000000003
decision_type=2 2 2 2 2 2 2 2 2 2 2 2 2 2 2 2 2 2 2 2 2 2 2 2 2 2 2 2 2 2
left_child=1 2 3 4 5 6 7 8 9 10 11 12 13 14 15 17 28 18 19 23 21 22 -3 24 25 26 27 -1 -7 -2
right_child=29 20 -4 -5 -6 16 -8 -9 -10 -11 -12 -13 -14 -15 -16 -17 -18 -19 -20 -21 -22 -23 -24 -25 -26 -27 -28 -29 -30 -31
leaf_value=0.013530263756260728 -0.014666669175290227 -0.0013160733133554458 -0.021356992138659256 -0.024725566761834281 -0.028277682575086754 -0.009519295096397401 -0.026115439767422883 -0.016735973374711145 -0.021043189971343332 -0.017984146935244402 -0.0089089485671785141 -0.013092886966963611 -0.012531146990216298 -0.0070403888173725298 -0.0095271033048629772 -0.0029214192802707356 -0.024139455355265561 0.033970880197981994 -0.00011114254593849183 0.0018375496566295623 0.029105161353945731 0.02263372219873197 0.01869173204898834 0.028240045905113222 0.0051216555589979349 0.029433927476406097 0.021098112975331873 0.02693141460418701 0.0034147828072309499 -0.024640778154134752
leaf_weight=165 57 40 68 35 24 25 23 36 23 24 45 24 23 23 20 24 34 24 22 20 20 33 25 28 22 25 88 20 20 20
leaf_count=165 57 40 68 35 24 25 23 36 23 24 45 24 23 23 20 24 34 24 22 20 20 33 25 28 22 25 88 20 20 20
internal_value=0 0.00132484 -0.000468758 0.0012698 0.00243327 0.00340565 0.00526055 0.00636062 0.00770171 0.00880914 0.00993137 0.0115371 0.0127099 0.0139169 0.0149693 0.0160879 -0.0125371 0.0171899 0.0161572 0.0171298 0.0147768 0.0118527 0.00637924 0.0180086 0.0171134 0.0179987 0.0169515 0.014979 -0.00377082 -0.0172573
internal_weight=0 1003 885 817 782 758 679 656 620 597 573 528 504 481 458 438 79 414 390 368 118 98 65 348 320 298 273 185 45 77
internal_count=1080 1003 885 817 782 758 679 656 620 597 573 528 504 481 458 438 79 414 390 368 118 98 65 348 320 298 273 185 45 77
shrinkage=0.1


Tree=11
num_leaves=31
num_cat=0
split_feature=78 36 158 148 39 288 186 7 364 290 60 32 164 349 268 223 188 171 89 9 294 2 174 12 285 177 325 309 182 63
split_gain=2.19087 2.26355 2.38707 2.29946 2.14723 2.25837 2.26083 2.38822 2.41693 1.62893 1.25992 1.23272 1.34824 1.16231 1.21869 0.701156 0.693315 0.551234 0.577254 0.45845 0.40438 0.441802 0.357736 0.450531 0.272233 0.304973 0.260327 0.220098 0.246596 0.217345
threshold=1.0000000180025095e-35 0.032795695000000007 0.04583333500000001 0.057189545000000001 1.0000000180025095e-35 0.044466405000000007 0.028174605000000002 1.0000000180025095e-35 0.028174605000000002 1.0000000180025095e-35 0.028991595000000002 0.027402405000000001 0.042572465000000011 0.051315790000000007 0.028174605000000002 0.027799230000000005 0.025978410000000004 0.027402405000000001 0.042572465000000011 0.054804805000000005 0.044466405000000007 0.027046785 0.04653680000000001 0.051315790000000007 0.039230770000000005 1.0000000180025095e-35 1.0000000180025095e-35 0.044466405000000007 0.025978410000000004 0.028991595000000002
decision_type=2 2 2 2 2 2 2 2 2 2 2 2 2 2 2 2 2 2 2 2 2 2 2 2 2 2 2 2 2 2
left_child=1 2 3 4 5 6 7 8 9 11 -9 12 13 14 15 17 -15 18 19 20 21 24 23 -7 25 26 27 28 29 -1
right_child=-2 -3 -4 -5 -6 22 -8 10 -10 -11 -12 -13 -14 16 -16 -17 -18 -19 -20 -21 -22 -23 -24 -25 -26 -27 -28 -29 -30 -31
leaf_value=-0.015917802784515888 0.018570384830236437 0.030636106702414428 0.01906803852090469 0.027619702555239201 0.024595798208163336 -0.003361187130212784 0.017149878442287447 -0.0048640150290269121 0.019860970642831592 0.015459183700706647 0.016572406194333374 0.0060640364885330205 0.012125403256643387 -0.0086433333254629565 0.0037945916876196864 -4.8797547817230225e-05 0.015237785577774049 -0.032334257143995036 -0.0025605315076453346 -0.0042852658629417423 -0.0047732995379538767 -0.0046027246862649918 0.021011325203139208 0.01711625825791132 -0.010259564110526333 -0.031319712340831758 -0.030528836519945236 -0.027901443183422088 -0.027899984982998477 -0.025999929755926132
leaf_weight=196 60 22 52 24 26 22 40 52 27 23 58 37 21 31 32 25 20 23 28 25 21 20 29 21 27 25 21 25 23 24
leaf_count=196 60 22 52 24 26 22 40 52 27 23 58 37 21 31 32 25 20 23 28 25 21 20 29 21 27 25 21 25 23 24
internal_value=0 -0.00109238 -0.0017918 -0.00293843 -0.00373387 -0.00455594 -0.00603998 -0.00722313 -0.00945283 -0.0106761 0.00643883 -0.0116394 -0.0127553 -0.0136785 -0.0151045 -0.0163566 0.000721811 -0.0172468 -0.0164491 -0.0174046 -0.0182632 -0.0190479 0.0124281 0.00663943 -0.0198951 -0.0207236 -0.019807 -0.0189669 -0.0180477 -0.0170177
internal_weight=0 1020 998 946 922 896 824 784 674 647 110 624 587 566 515 483 51 458 435 407 382 361 72 43 341 314 289 268 243 220
internal_count=1080 1020 998 946 922 896 824 784 674 647 110 624 587 566 515 483 51 458 435 407 382 361 72 43 341 314 289 268 243 220
shrinkage=0.1


Tree=12
num_leaves=31
num_cat=0
split_feature=95 314 249 323 303 312 343 242 335 36 245 305 196 109 3 249 164 105 351 7 4 189 107 14 294 44 160 75 288 189
split_gain=1.8338 1.91516 1.96181 1.75021 1.64881 1.72609 1.7097 1.56077 1.41698 1.58034 1.78683 1.50236 1.28712 1.66158 1.49541 1.09287 0.692617 0.627211 0.518202 0.483373 0.514493 0.454851 0.366523 0.482775 0.379955 0.405008 0.454523 0.53087 0.495504 0.503119
threshold=1.0000000180025095e-35 0.025978410000000004 0.029857395000000005 0.029040405000000002 1.0000000180025095e-35 0.025978410000000004 0.029857395000000005 1.0000000180025095e-35 0.031754030000000009 1.0000000180025095e-35 0.025978410000000004 1.0000000180025095e-35 0.031754030000000009 1.0000000180025095e-35 0.035098525000000012 0.061553030000000009 0.042572465000000011 0.027402405000000001 0.029857395000000005 1.0000000180025095e-35 0.028174605000000002 1.0000000180025095e-35 0.028174605000000002 0.029857395000000005 0.029857395000000005 1.0000000180025095e-35 0.028991595000000002 0.026671410000000003 0.064583335000000006 0.051315790000000007
decision_type=2 2 2 2 2 2 2 2 2 2 2 2 2 2 2 2 2 2 2 2 2 2 2 2 2 2 2 2 2 2
left_child=1 2 3 4 5 6 7 8 9 10 11 12 13 14 16 -4 17 18 19 20 22 -15 23 24 25 26 27 28 29 -1
right_child=-2 -3 15 -5 -6 -7 -8 -9 -10 -11 -12 -13 -14 21 -16 -17 -18 -19 -20 -21 -22 -23 -24 -25 -26 -27 -28 -29 -30 -31
leaf_value=-0.0026995140759424234 -0.017788741805336693 -0.015657387616542669 -0.023653127557852052 -0.02004833822288821 -0.016231802243151166 -0.015744596582494285 -0.021409222415902401 -0.019384657862511548 -0.012943822657689452 0.034352605433567711 -0.012539406484220087 -0.011799436943097548 -0.011246657923415856 -0.01637538093328476 -0.0142228914052248 0.0040739530608767558 0.031005343659357594 -0.0044752155244350434 -0.00072473939508199692 0.02110523144866145 0.027616617286747153 0.0038574112951755522 0.023271761376124162 -0.0037310018071106503 0.019818428684683406 0.019860934368089625 0.020289840035397431 0.016401349346746096 0.01688807594279448 0.012509656723203331
leaf_weight=87 55 65 44 31 38 38 22 22 32 23 41 33 27 25 20 21 22 20 24 86 22 20 26 21 51 38 29 44 24 29
leaf_count=87 55 65 44 31 38 38 22 22 32 23 41 33 27 25 20 21 22 20 24 86 22 20 26 21 51 38 29 44 24 29
internal_value=0 0.000954518 0.00207928 0.00329754 0.00413518 0.00507216 0.00607601 0.0068654 0.00764162 0.0085668 0.00770603 0.00898699 0.0101024 0.0110827 0.012613 -0.0146951 0.0136392 0.0128766 0.0135981 0.0143503 0.0127845 -0.00738303 0.0118495 0.01093 0.0119495 0.0103507 0.00865399 0.00682008 0.00380883 0.00110278
internal_weight=0 1025 960 895 864 826 788 766 744 712 689 648 615 588 543 65 523 501 481 457 371 45 349 323 302 251 213 184 140 116
internal_count=1080 1025 960 895 864 826 788 766 744 712 689 648 615 588 543 65 523 501 481 457 371 45 349 323 302 251 213 184 140 116
shrinkage=0.1


Tree=13
num_leaves=31
num_cat=0
split_feature=238 367 148 36 168 7 0 362 288 167 394 4 171 329 195 317 15 245 60 255 164 289 309 197 294 108 351 189 9 294
split_gain=1.68176 1.6692 1.61347 1.48186 1.49202 1.76471 1.51724 1.41369 1.15017 1.27097 1.00714 1.00715 0.916076 0.711723 0.702881 0.756658 0.663103 0.69251 0.556473 0.55535 0.768459 0.758528 0.773478 0.589548 0.512344 0.904216 0.379947 0.306738 0.19713 0.169622
threshold=1.0000000180025095e-35 0.028991595000000002 0.057189545000000001 0.032795695000000007 0.028039835000000003 1.0000000180025095e-35 0.031754030000000009 0.028174605000000002 0.10555555500000001 0.025978410000000004 0.029857395000000005 0.042572465000000011 0.028174605000000002 0.054093570000000001 0.025978410000000004 0.028174605000000002 0.026671410000000003 0.025978410000000004 0.028991595000000002 0.026671410000000003 1.0000000180025095e-35 0.026671410000000003 1.0000000180025095e-35 1.0000000180025095e-35 0.03337041000000001 0.028174605000000002 0.028594770000000002 0.026671410000000003 0.035098525000000012 0.028174605000000002
decision_type=2 2 2 2 2 2 2 2 2 2 2 2 2 2 2 2 2 2 2 2 2 2 2 2 2 2 2 2 2 2
left_child=1 2 3 4 5 6 7 8 9 10 11 12 13 14 15 16 17 19 27 20 21 22 23 29 25 -6 -11 -7 -8 -1
right_child=-2 -3 -4 -5 24 18 28 -9 -10 26 -12 -13 -14 -15 -16 -17 -18 -19 -20 -21 -22 -23 -24 -25 -26 -27 -28 -29 -30 -31
leaf_value=-0.0025590284030978421 0.018297421714911857 0.016608223877847196 0.023831397729615372 0.024513457417488102 -0.0048659650100903078 -0.0052473044475993599 -0.023071221332505068 0.015176856430137858 0.015236894637346269 0.001132187619805336 0.013407524426778158 0.012521328741595859 0.0055292366279496089 -0.028180174076038862 -0.018675936352980288 -0.023195117712020874 -0.01813082191679213 -0.018922728369943798 0.014144363620302134 -0.019294415675103666 0.016810406148433685 0.012664301812648774 -0.023495249247009103 -0.018022270190219083 0.01852075429085423 0.019963673434474253 0.018926084467342924 0.0098843721406800412 -0.011419638320803643 0.0069989373738115479
leaf_weight=119 48 52 24 20 44 37 53 34 25 28 21 21 36 23 79 31 45 32 57 20 20 25 22 24 34 22 21 21 20 22
leaf_count=119 48 52 24 20 44 37 53 34 25 28 21 21 36 23 79 31 45 32 57 20 20 25 22 24 34 22 21 21 20 22
internal_value=0 -0.000851043 -0.00177745 -0.00242035 -0.00299586 -0.00437671 -0.00621162 -0.00467193 -0.00577105 -0.00666273 -0.00806203 -0.00893074 -0.00983535 -0.0110326 -0.0101342 -0.00825976 -0.00685248 -0.00506541 0.00712739 -0.00330576 -0.00192742 -0.00369514 -0.00588223 -0.00353383 0.00854804 0.00341058 0.00875814 0.000231406 -0.019879 -0.00106771
internal_weight=0 1032 980 956 936 836 721 648 614 589 540 519 498 462 439 360 329 284 115 252 232 212 187 165 100 66 49 58 73 141
internal_count=1080 1032 980 956 936 836 721 648 614 589 540 519 498 462 439 360 329 284 115 252 232 212 187 165 100 66 49 58 73 141
shrinkage=0.1


Tree=14
num_leaves=31
num_cat=0
split_feature=39 315 305 168 12 292 335 304 255 337 180 0 45 256 107 109 296 227 3 89 189 182 63 289 189 329 168 9 160 349
split_gain=1.46014 1.60134 1.39961 1.47918 1.53171 1.42653 1.51976 1.29334 1.32664 1.19685 1.30347 1.17147 1.04137 0.988087 0.824021 0.914402 0.595959 0.537941 0.772267 0.335184 0.312528 0.295005 0.36844 0.296397 0.372114 0.247206 0.24313 0.23053 0.15501 0.172912
threshold=1.0000000180025095e-35 0.030776515000000004 0.029857395000000005 0.028039835000000003 1.0000000180025095e-35 1.0000000180025095e-35 0.031754030000000009 1.0000000180025095e-35 0.029857395000000005 0.031754030000000009 0.031754030000000009 0.031754030000000009 1.0000000180025095e-35 1.0000000180025095e-35 0.030776515000000004 1.0000000180025095e-35 1.0000000180025095e-35 0.028991595000000002 0.025978410000000004 0.044466405000000007 0.031754030000000009 0.032866380000000008 0.028991595000000002 0.026671410000000003 0.042572465000000011 0.048809525000000013 0.057189545000000001 0.042572465000000011 1.0000000180025095e-35 0.025978410000000004
decision_type=2 2 2 2 2 2 2 2 2 2 2 2 2 2 2 2 2 2 2 2 2 2 2 2 2 2 2 2 2 2
left_child=1 2 3 4 5 6 7 8 9 10 11 12 13 14 15 16 17 18 19 21 -12 22 23 24 28 26 27 -5 29 -1
right_child=-2 -3 -4 25 -6 -7 -8 -9 -10 -11 20 -13 -14 -15 -16 -17 -18 -19 -20 -21 -22 -23 -24 -25 -26 -27 -28 -29 -30 -31
leaf_value=0.012956218556924302 0.022537939330296859 -0.014887623243952451 -0.017175204705360325 0.00029097357217003318 -0.015060322423232721 -0.019613495795056224 -0.020076920886834465 -0.017055104841147702 -0.01975643239591433 -0.013028248502976365 -0.0025662196959768025 -0.011017266231955904 -0.013952863328158855 -0.010917547766281212 0.030171656906604769 -0.0054165396447244446 -0.0052234046161174774 0.025311261029155169 -0.0074790308421308349 0.023789161138913849 -0.017572060227394104 -0.00073070656508207328 -0.00064786791124127135 0.020879329186983597 0.00018318321269292099 0.020968282502144577 0.015911612494124306 0.013821236565709114 0.019044975235181699 0.0041395966823284443
leaf_weight=154 28 73 43 34 64 32 30 31 23 36 35 33 20 23 20 38 22 27 22 22 23 20 22 39 26 24 36 20 34 26
leaf_count=154 28 73 43 34 64 32 30 31 23 36 35 33 20 23 20 38 22 27 22 22 23 20 22 39 26 24 36 20 34 26
internal_value=0 -0.000599869 0.00046551 0.00127593 -0.000204509 0.00104981 0.00196059 0.00291048 0.00384121 0.0046866 0.00573897 0.0072478 0.00841818 0.00932206 0.0103083 0.0094294 0.0107921 0.0116909 0.0106834 0.0118483 -0.00851681 0.0110299 0.0118114 0.0127938 0.0114799 0.0119507 0.00954595 0.00530218 0.0128524 0.0116827
internal_weight=0 1052 979 936 822 758 726 696 665 642 606 548 515 495 472 452 414 392 365 343 58 321 301 279 240 114 90 54 214 180
internal_count=1080 1052 979 936 822 758 726 696 665 642 606 548 515 495 472 452 414 392 365 343 58 321 301 279 240 114 90 54 214 180
shrinkage=0.1


Tree=15
num_leaves=31
num_cat=0
split_feature=40 354 95 153 51 314 249 303 25 245 107 149 75 5 355 308 305 195 58 249 257 4 185 112 194 249 8 227 164 9
split_gain=1.2927 1.31432 1.35786 1.35805 1.20848 1.30903 1.2148 1.25072 1.06408 1.32226 0.980913 1.1501 0.853319 0.856199 0.568373 0.785587 0.610949 0.616451 0.817988 0.491794 0.490488 0.324577 0.350971 0.367176 0.286673 0.273933 0.246387 0.273243 0.290514 0.249175
threshold=0.030330880000000001 0.042572465000000011 1.0000000180025095e-35 0.029857395000000005 1.0000000180025095e-35 1.0000000180025095e-35 1.0000000180025095e-35 1.0000000180025095e-35 0.031818180000000008 0.025978410000000004 0.030776515000000004 0.042572465000000011 0.030776515000000004 0.024184150000000005 0.051315790000000007 0.029857395000000005 1.0000000180025095e-35 0.025978410000000004 1.0000000180025095e-35 0.061553030000000009 0.025978410000000004 0.036375665000000008 0.040833335000000005 0.028174605000000002 1.0000000180025095e-35 0.030776515000000004 0.032291665000000004 0.028991595000000002 0.028174605000000002 0.051315790000000007
decision_type=2 2 2 2 2 2 2 2 2 2 2 2 2 2 2 2 2 2 2 2 2 2 2 2 2 2 2 2 2 2
left_child=1 2 3 4 5 6 7 8 9 10 11 12 13 14 15 16 17 20 -19 25 21 22 24 -24 26 -8 27 28 29 -1
right_child=-2 -3 -4 -5 -6 -7 19 -9 -10 -11 -12 -13 -14 -15 -16 -17 -18 18 -20 -21 -22 -23 23 -25 -26 -27 -28 -29 -30 -31
leaf_value=0.0061105714979195836 -0.020125401500732668 -0.022537548746913674 -0.01445054923588375 -0.023167586539472856 -0.021779672466218473 -0.011096791672657749 -0.004348130964420059 -0.014477030259947624 0.023577414859424939 -0.010309901322219886 0.02347619205247611 -0.017479045618148076 -0.013504428593885332 -0.0053984179070182877 0.023193777663012349 -0.011040163311091337 -0.0088689491152763363 -0.010630051572533217 0.014116606556556442 0.0049974546546027775 -0.0050503714755177499 0.023411690220236779 -0.0076311650730314711 0.010855157876556571 0.018757481225158856 -0.018753848495808516 0.020734763677631107 0.020773350931704043 0.018470829449318073 0.015050882745433498
leaf_weight=198 31 24 53 21 20 61 22 31 33 51 32 21 21 51 24 22 20 34 22 21 20 20 21 22 46 33 21 20 27 37
leaf_count=198 31 24 53 21 20 61 22 31 33 51 32 21 21 51 24 22 20 34 22 21 20 20 21 22 46 33 21 20 27 37
internal_value=0 0.000594745 0.00113638 0.00198628 0.00254173 0.00306421 0.00405711 0.00521319 0.00601319 0.00521919 0.00638559 0.0055403 0.00631251 0.00700038 0.00814178 0.00746018 0.00826138 0.00896344 -0.00090815 -0.00802091 0.0102431 0.0109855 0.0103515 0.00182695 0.0114018 -0.0129916 0.0102851 0.00950693 0.0086469 0.00751819
internal_weight=0 1049 1025 972 951 931 870 794 763 730 679 647 626 605 554 530 508 488 56 76 432 412 392 43 349 55 303 282 262 235
internal_count=1080 1049 1025 972 951 931 870 794 763 730 679 647 626 605 554 530 508 488 56 76 432 412 392 43 349 55 303 282 262 235
shrinkage=0.1


Tree=16
num_leaves=31
num_cat=0
split_feature=52 36 292 39 101 315 76 29 343 42 109 45 182 5 305 148 245 296 149 309 171 74 140 317 192 175 252 188 189 294
split_gain=1.2084 1.23231 1.20154 1.34234 1.29142 1.16001 1.09761 1.08651 1.11749 1.08225 1.03433 1.01223 0.797742 0.830041 0.777334 0.605192 0.75616 0.652556 0.400818 0.260548 0.503964 0.244147 0.300236 0.264631 0.297614 0.232389 0.246007 0.240664 0.166436 0.134726
threshold=0.030776515000000004 1.0000000180025095e-35 1.0000000180025095e-35 1.0000000180025095e-35 1.0000000180025095e-35 0.030776515000000004 1.0000000180025095e-35 1.0000000180025095e-35 0.029857395000000005 1.0000000180025095e-35 0.057189545000000001 1.0000000180025095e-35 0.032866380000000008 0.024184150000000005 0.025978410000000004 0.027402405000000001 0.025978410000000004 1.0000000180025095e-35 0.027402405000000001 0.031754030000000009 0.028174605000000002 0.028991595000000002 0.030776515000000004 1.0000000180025095e-35 0.026671410000000003 0.027402405000000001 0.037749290000000012 0.025978410000000004 0.035098525000000012 0.04653680000000001
decision_type=2 2 2 2 2 2 2 2 2 2 2 2 2 2 2 2 2 2 2 2 2 2 2 2 2 2 2 2 2 2
left_child=1 2 3 4 5 6 7 8 9 10 11 12 13 14 15 16 17 18 19 21 -21 22 23 24 25 26 27 29 -9 -1
right_child=-2 -3 -4 -5 -6 -7 -8 28 -10 -11 -12 -13 -14 -15 -16 -17 -18 -19 -20 20 -22 -23 -24 -25 -26 -27 -28 -29 -30 -31
leaf_value=0.013059692912856522 -0.019458101617713129 0.021662051479021709 -0.015427564022441706 0.024650475674349331 -0.018376412677268188 -0.012508169151842594 -0.016913225340346498 -0.0070175277193387361 -0.016132421472242902 -0.015827870139708888 -0.017484717220067978 -0.014603557561834655 -0.0099323493653330312 -0.0040820307663229647 -0.0083987425874780721 0.019833956278385002 -0.0093518378833929699 -0.0057203968794181433 -0.0014296662062406541 -0.0085632947459816939 0.01123499706801441 0.0019318208992481233 0.022955198322112361 0.0024167955666780476 0.0010859752581878141 0.0030696067781675433 0.0041598622079776684 0.025211490531052861 -0.018794471472501757 0.021025744359940292
leaf_weight=184 31 27 48 23 36 60 30 30 28 26 20 24 29 61 27 47 24 29 30 20 36 25 24 30 22 21 23 21 20 24
leaf_count=184 31 27 48 23 36 60 30 30 28 26 20 24 29 61 27 47 24 29 30 20 36 25 24 30 22 21 23 21 20 24
internal_value=0 0.000575025 1.79313e-05 0.000779106 0.000201775 0.00093272 0.00187594 0.00255918 0.00348096 0.00421613 0.00493894 0.0055787 0.00629417 0.00702036 0.0081741 0.00897314 0.0079781 0.00882865 0.00974587 0.0105256 0.00416418 0.0114781 0.0121619 0.0113649 0.0122748 0.0131765 0.0140187 0.0150089 -0.0117283 0.0139789
internal_weight=0 1049 1022 974 951 915 855 825 775 747 721 701 677 648 587 560 513 489 460 430 56 374 349 325 295 273 252 229 50 208
internal_count=1080 1049 1022 974 951 915 855 825 775 747 721 701 677 648 587 560 513 489 460 430 56 374 349 325 295 273 252 229 50 208
shrinkage=0.1


Tree=17
num_leaves=31
num_cat=0
split_feature=367 161 354 51 314 291 245 72 197 242 95 74 343 292 140 5 13 305 3 14 103 109 177 154 335 315 309 349 9 289
split_gain=1.03833 1.0188 1.37177 1.00633 0.924306 0.89822 0.926832 0.954259 0.878599 0.999609 0.983792 0.820853 0.902781 0.874036 0.734826 0.673624 0.645709 0.545359 0.506788 0.480203 0.48586 0.514372 0.243684 0.172277 0.18092 0.237557 0.219697 0.162858 0.139746 0.132465
threshold=0.028991595000000002 0.028039835000000003 1.0000000180025095e-35 1.0000000180025095e-35 0.030776515000000004 0.033908045000000005 1.0000000180025095e-35 1.0000000180025095e-35 0.030776515000000004 1.0000000180025095e-35 0.031754030000000009 0.032795695000000007 0.027402405000000001 0.025978410000000004 0.04006410500000001 0.033908045000000005 0.027402405000000001 1.0000000180025095e-35 0.028991595000000002 0.030776515000000004 0.027402405000000001 1.0000000180025095e-35 1.0000000180025095e-35 0.028991595000000002 0.027402405000000001 0.027402405000000001 0.057983195000000008 0.028594770000000002 0.044466405000000007 0.028174605000000002
decision_type=2 2 2 2 2 2 2 2 2 2 2 2 2 2 2 2 2 2 2 2 2 2 2 2 2 2 2 2 2 2
left_child=1 2 3 4 5 6 7 8 9 10 11 12 13 14 15 16 17 18 19 20 21 22 23 24 25 27 -26 29 -29 -1
right_child=-2 -3 -4 -5 -6 -7 -8 -9 -10 -11 -12 -13 -14 -15 -16 -17 -18 -19 -20 -21 -22 -23 -24 -25 26 -27 -28 28 -30 -31
leaf_value=0.01400974491954516 0.013135791040564837 0.019628376389543217 -0.016722632723825952 -0.02252793225925416 -0.012941418281372855 0.0218565421551466 -0.010439356804514925 -0.018214502899597088 -0.0091723400866612799 -0.018412194170412562 -0.017054978148503739 -0.014541032571684232 -0.012441852475915637 -0.014626423045992851 0.024561959513547747 -0.0091873882471450747 -0.0083392870370988508 -0.0055413209646940232 -0.0064595370976762339 -0.0021676471190793171 0.023839991353452206 -0.0041361253846574717 -0.00029219050137769609 0.017561412997105542 -0.002940782735293562 0.00054624486714601513 0.011358851478213356 0.0010334917384645214 0.011734328734186981 0.00542878782376647
leaf_weight=179 57 24 54 20 51 20 72 24 64 21 22 22 28 20 22 28 27 30 22 35 24 27 21 34 22 20 21 23 26 20
leaf_count=179 57 24 54 20 51 20 72 24 64 21 22 22 28 20 22 28 27 30 22 35 24 27 21 34 22 20 21 23 26 20
internal_value=0 -0.000731906 -0.00122104 -0.000335237 0.000144605 0.000908206 0.000417613 0.00141723 0.00203882 0.0030727 0.0037431 0.00444596 0.00511005 0.00592778 0.00663532 0.0059298 0.00672694 0.00753406 0.00836161 0.009083 0.0100273 0.00918377 0.0101664 0.010803 0.0100641 0.0110303 0.00404276 0.0118757 0.00671149 0.0131473
internal_weight=0 1023 999 945 925 874 854 782 758 694 673 651 629 601 581 559 531 504 474 452 417 393 366 345 311 268 43 248 49 199
internal_count=1080 1023 999 945 925 874 854 782 758 694 673 651 629 601 581 559 531 504 474 452 417 393 366 345 311 268 43 248 49 199
shrinkage=0.1


Tree=18
num_leaves=31
num_cat=0
split_feature=52 36 238 39 167 308 163 153 164 343 5 40 325 197 337 300 315 355 305 256 314 309 195 195 47 263 269 194 340 9
split_gain=0.907702 0.92235 0.876242 0.921827 0.880237 1.00562 0.956519 0.857292 0.915873 0.895162 0.878116 0.81742 0.791474 0.678467 0.725402 0.782848 0.620624 0.667028 1.16083 1.09716 0.699823 0.454455 0.513114 0.745877 0.456337 0.42368 0.292591 0.309295 0.306757 0.282473
threshold=0.030776515000000004 1.0000000180025095e-35 1.0000000180025095e-35 1.0000000180025095e-35 0.042572465000000011 0.037749290000000012 0.028174605000000002 0.029857395000000005 0.042572465000000011 0.027402405000000001 0.031754030000000009 0.030330880000000001 1.0000000180025095e-35 0.059714795000000008 0.031754030000000009 0.025320515000000005 0.029857395000000005 0.028174605000000002 0.025978410000000004 0.026671410000000003 0.025978410000000004 0.030776515000000004 1.0000000180025095e-35 0.056349210000000004 1.0000000180025095e-35 0.042572465000000011 0.027402405000000001 0.025657895000000003 0.025978410000000004 0.054804805000000005
decision_type=2 2 2 2 2 2 2 2 2 2 2 2 2 2 2 2 2 2 2 2 2 2 2 2 2 2 2 2 2 2
left_child=1 2 3 4 5 6 7 8 9 10 11 12 13 14 15 16 17 18 19 20 21 22 24 -24 25 26 27 28 29 -1
right_child=-2 -3 -4 -5 -6 -7 -8 -9 -10 -11 -12 -13 -14 -15 -16 -17 -18 -19 -20 -21 -22 -23 23 -25 -26 -27 -28 -29 -30 -31
leaf_value=0.012058099521348229 -0.016864234377299586 0.01874168004702639 0.013206424082939825 0.018721754631648459 0.01667482574228887 -0.020304762279348715 0.008903410388477917 -0.022072633249419077 0.017233765736222269 -0.016779631623066962 -0.013677071490221555 -0.019836402932802838 -0.013599168490140867 -0.016144107959487224 -0.014584906341937874 -0.0094393478296697156 -0.010281223344306152 0.01725823807677156 -0.020088905673474072 -0.017714182518067816 -0.010467095859348775 -0.0034083451024996929 -0.014011954019467036 0.011479553368619898 -0.0030971345133506338 -0.003208973705768585 0.023519236333668231 -0.00065796811665807457 0.0021588409250533139 0.023939050264332608
leaf_weight=154 31 27 48 24 27 28 87 21 25 40 54 21 39 22 26 50 30 38 20 21 25 39 24 22 26 20 20 21 27 23
leaf_count=154 31 27 48 24 27 28 87 21 25 40 54 21 39 22 26 50 30 38 20 21 25 39 24 22 26 20 20 21 27 23
internal_value=0 0.000498371 1.6405e-05 -0.000633616 -0.00112259 -0.00164321 -0.00105939 -0.00213211 -0.00160003 -0.00221794 -0.00141119 -0.000419641 0.000210579 0.0010964 0.00174366 0.00250177 0.00367247 0.00454457 0.00345154 0.0045672 0.00573406 0.00681126 0.00799395 -0.00182036 0.00954535 0.0107857 0.0119282 0.0108979 0.0120874 0.013602
internal_weight=0 1049 1022 974 950 923 895 808 787 762 722 668 647 608 586 560 510 480 442 422 401 376 337 46 291 265 245 225 204 177
internal_count=1080 1049 1022 974 950 923 895 808 787 762 722 668 647 608 586 560 510 480 442 422 401 376 337 46 291 265 245 225 204 177
shrinkage=0.1


Tree=19
num_leaves=31
num_cat=0
split_feature=13 68 161 354 362 160 291 65 0 256 274 74 197 292 300 337 305 180 189 195 195 189 349 112 187 12 168 9 160 302
split_gain=0.788992 0.786664 0.874735 0.936655 0.729388 0.882366 0.825076 0.712252 0.744763 0.793662 0.705662 0.609887 0.676765 0.672458 0.655006 0.453403 0.457471 0.419282 0.3821 0.28424 0.260223 0.277312 0.253522 0.252218 0.261902 0.15477 0.187243 0.184948 0.179319 0.154121
threshold=0.037749290000000012 0.029857395000000005 0.028039835000000003 1.0000000180025095e-35 1.0000000180025095e-35 1.0000000180025095e-35 0.027402405000000001 1.0000000180025095e-35 0.053342815000000009 1.0000000180025095e-35 1.0000000180025095e-35 0.031754030000000009 1.0000000180025095e-35 0.027402405000000001 0.025320515000000005 0.032795695000000007 0.025978410000000004 0.030776515000000004 0.040833335000000005 0.026671410000000003 0.026671410000000003 0.029857395000000005 0.025978410000000004 0.025978410000000004 0.028991595000000002 0.026671410000000003 1.0000000180025095e-35 1.0000000180025095e-35 0.030776515000000004 0.028991595000000002
decision_type=2 2 2 2 2 2 2 2 2 2 2 2 2 2 2 2 2 2 2 2 2 2 2 2 2 2 2 2 2 2
left_child=1 2 3 4 5 6 7 8 9 10 11 12 13 14 15 16 17 18 22 25 21 -14 23 24 29 26 27 28 -7 -1
right_child=-2 -3 -4 -5 -6 19 -8 -9 -10 -11 -12 -13 20 -15 -16 -17 -18 -19 -20 -21 -22 -23 -24 -25 -26 -27 -28 -29 -30 -31
leaf_value=0.01150642188179786 -0.019193873873778754 -0.014361592222537314 0.019750625019272171 -0.012908622611314058 0.011034874021467092 0.010281204556425413 0.01393787673541478 -0.015494347110183705 -0.017320515215396882 -0.013167850217885441 -0.014888642275972025 -0.01389440828561783 0.0022635054774582386 -0.014398537361994385 -0.0087790023162960997 -0.0088325010878699175 -0.0060541310746754923 -0.0020441604388314626 0.017748068406795846 -0.0029804561287164692 -0.016369823198765517 -0.011987179026684979 -0.0031244984404607255 -0.0016894429456442595 0.00083869676472562733 0.0013109228760004043 0.017274948464182673 0.015936966630674544 -0.0017345886191596157 0.0029550460477670033
leaf_weight=173 21 35 24 50 69 27 35 36 27 45 28 25 36 20 35 21 28 43 39 22 20 22 22 24 33 20 32 21 23 24
leaf_count=173 21 35 24 50 69 27 35 36 27 45 28 25 36 20 35 21 28 43 39 22 20 22 22 24 33 20 32 21 23 24
internal_value=0 0.000380615 0.000884499 0.000431712 0.00113383 0.000358385 -0.00104631 -0.00179445 -0.0010528 -0.000364355 0.000607243 0.00137518 0.00208211 0.00353672 0.00434827 0.00547715 0.00625566 0.00721843 0.00848285 0.00748841 -0.00653369 -0.00314193 0.00717364 0.0080656 0.00908352 0.0093609 0.010924 0.0080616 0.00475394 0.0104646
internal_weight=0 1059 1024 1000 950 881 736 701 665 638 593 565 540 462 442 407 386 358 315 145 78 58 276 254 230 123 103 71 50 197
internal_count=1080 1059 1024 1000 950 881 736 701 665 638 593 565 540 462 442 407 386 358 315 145 78 58 276 254 230 123 103 71 50 197
shrinkage=0.1


Tree=20
num_leaves=31
num_cat=0
split_feature=364 367 182 107 354 305 25 29 95 101 42 45 314 303 388 245 195 349 243 227 167 5 336 4 294 67 189 174 7 349
split_gain=0.679756 0.713444 0.782094 0.725082 0.727364 0.612683 0.938514 0.684623 0.855241 0.626064 0.636599 0.5724 0.652277 0.558968 0.498139 0.653236 0.580943 0.56637 0.467624 0.423452 0.46897 0.412073 0.330215 0.214791 0.223451 0.216175 0.340988 0.244683 0.257632 0.206017
threshold=1.0000000180025095e-35 0.028991595000000002 0.032866380000000008 0.044466405000000007 0.042572465000000011 0.025978410000000004 1.0000000180025095e-35 1.0000000180025095e-35 1.0000000180025095e-35 1.0000000180025095e-35 1.0000000180025095e-35 1.0000000180025095e-35 0.027402405000000001 0.026671410000000003 1.0000000180025095e-35 0.025978410000000004 1.0000000180025095e-35 0.057189545000000001 0.03337041000000001 1.0000000180025095e-35 0.025978410000000004 0.024184150000000005 1.0000000180025095e-35 0.028174605000000002 0.059714795000000008 0.028174605000000002 1.0000000180025095e-35 0.032795695000000007 1.0000000180025095e-35 0.028594770000000002
decision_type=2 2 2 2 2 2 2 2 2 2 2 2 2 2 2 2 2 2 2 2 2 2 2 2 2 2 2 2 2 2
left_child=1 2 3 4 5 6 7 8 9 10 11 12 13 14 15 16 18 -18 19 20 21 22 23 24 25 26 27 28 -1 -28
right_child=-2 -3 -4 -5 -6 -7 -8 -9 -10 -11 -12 -13 -14 -15 -16 -17 17 -19 -20 -21 -22 -23 -24 -25 -26 -27 29 -29 -30 -31
leaf_value=-0.0049908399879932406 0.014357213769108057 0.010440855749408928 -0.015968356314389146 0.013387841154407297 -0.019476276192636716 -0.010241848729070156 0.016089718118309976 -0.012349154530687537 -0.014737274044671575 -0.016592397866770626 -0.013153861086526565 -0.011520763548711937 -0.011783300166328749 -0.011972391794678634 0.019430244192481044 -0.0086280980901349159 -0.010109477200811463 0.0086408136955772839 -0.0076237449422478683 -0.0059197209632167458 0.018862241320312025 -0.0044208515887007574 0.018854373142771101 0.01596712685370056 0.015178577974438667 0.010988051863387228 0.012284184558281923 0.0086996364234774217 0.0065607888552431885 0.0027083833630268395
leaf_weight=75 32 57 34 36 21 62 35 47 37 20 29 30 30 23 20 42 49 24 25 26 32 33 23 22 23 48 53 27 26 39
leaf_count=75 32 57 34 36 21 62 35 47 37 20 29 30 30 23 20 42 49 24 25 26 32 33 23 22 23 48 53 27 26 39
internal_value=0 -0.000438388 -0.00106414 -0.000534624 -0.00107882 -0.000649551 6.01416e-05 -0.000638532 8.95089e-05 0.000852501 0.00135164 0.00197949 0.00261231 0.00332029 0.0039195 0.00337238 0.00433242 -0.003945 0.00566926 0.00644754 0.0072494 0.00624233 0.00728961 0.0064398 0.00571952 0.00490773 0.00358112 0.000243419 -0.00201715 0.00822488
internal_weight=0 1048 991 957 921 900 838 803 756 719 699 670 640 610 587 567 525 73 452 427 401 369 336 313 291 268 220 128 101 92
internal_count=1080 1048 991 957 921 900 838 803 756 719 699 670 640 610 587 567 525 73 452 427 401 369 336 313 291 268 220 128 101 92
shrinkage=0.1


Tree=21
num_leaves=31
num_cat=0
split_feature=137 357 95 109 13 51 335 337 4 180 12 168 107 175 195 327 25 177 58 148 29 14 3 189 180 196 309 294 164 8
split_gain=0.661821 0.829642 0.788031 0.670193 0.66027 0.575887 0.58897 0.622129 0.649543 0.632524 0.840391 0.705977 0.567934 0.630974 0.674202 0.546347 0.741795 0.519437 0.589824 0.508371 0.398942 0.292193 0.429434 0.323307 0.225991 0.184805 0.164319 0.12662 0.165637 0.177937
threshold=1.0000000180025095e-35 0.042572465000000011 1.0000000180025095e-35 0.057189545000000001 0.037749290000000012 1.0000000180025095e-35 0.035098525000000012 0.035098525000000012 0.036375665000000008 0.042572465000000011 1.0000000180025095e-35 0.04653680000000001 0.033908045000000005 0.030776515000000004 1.0000000180025095e-35 0.026671410000000003 1.0000000180025095e-35 0.028991595000000002 1.0000000180025095e-35 1.0000000180025095e-35 1.0000000180025095e-35 0.051315790000000007 0.027402405000000001 1.0000000180025095e-35 0.056349210000000004 1.0000000180025095e-35 0.029857395000000005 0.029857395000000005 0.027402405000000001 0.028174605000000002
decision_type=2 2 2 2 2 2 2 2 2 2 2 2 2 2 2 2 2 2 2 2 2 2 2 2 2 2 2 2 2 2
left_child=1 2 3 4 5 6 7 8 9 10 12 24 13 14 15 16 19 18 26 20 21 22 23 25 -11 27 -16 28 29 -1
right_child=-2 -3 -4 -5 -6 -7 -8 -9 -10 11 -12 -13 -14 -15 17 -17 -18 -19 -20 -21 -22 -23 -24 -25 -26 -27 -28 -29 -30 -31
leaf_value=0.00015281768625273424 0.01802172236144543 -0.015708363231490642 -0.012075161360204222 -0.015043294487091212 -0.016747300624847413 -0.015168802989646794 -0.010549614881165327 -0.01056077927350998 0.01860580129477267 -0.019677577540278435 -0.0091661521195605094 0.0064371482562273737 0.017398112569844672 -0.011826285272836686 -0.014208805213407193 -0.010274879429489375 0.023024043003813582 0.01049308004633834 0.0086099124602263873 0.017256726705070054 -0.0078039799739296244 0.015720461326866195 -0.0081844391340079418 0.0097833090892432625 -0.0064830161355159902 -0.005744760846719146 -0.0040563335651531817 0.010330830924989036 0.0097360409006024863 0.0086588108671769009
leaf_weight=119 20 34 50 26 20 20 36 35 26 25 49 30 32 25 44 20 26 24 21 35 24 26 24 123 27 20 25 30 33 31
leaf_count=119 20 34 50 26 20 20 36 35 26 25 49 30 32 25 44 20 26 24 21 35 24 26 24 123 27 20 25 30 33 31
internal_value=0 -0.000340032 0.000169249 0.000796525 0.00123004 0.00161664 0.00198556 0.00250188 0.0030468 0.00254922 0.00348343 -0.00577886 0.00439227 0.00375198 0.00437511 0.00592641 0.00658634 -0.00257854 -0.00606431 0.00566725 0.00472392 0.00546448 0.00476276 0.0056356 -0.0128266 0.00344604 -0.0105304 0.00430903 0.00332185 0.00191072
internal_weight=0 1060 1026 976 950 930 910 874 839 813 731 82 682 650 625 511 491 114 90 465 430 406 380 356 52 233 69 213 183 150
internal_count=1080 1060 1026 976 950 930 910 874 839 813 731 82 682 650 625 511 491 114 90 465 430 406 380 356 52 233 69 213 183 150
shrinkage=0.1


Tree=22
num_leaves=31
num_cat=0
split_feature=52 36 123 197 40 8 148 72 39 158 32 112 329 305 116 3 15 45 315 337 314 195 349 349 189 187 294 194 263 252
split_gain=0.578854 0.615273 0.548087 0.548015 0.533948 0.541944 0.599816 0.702194 0.633528 0.53751 0.520088 0.453141 0.701276 0.598026 0.538256 0.501665 0.492498 0.403246 0.450506 0.44074 0.295748 0.391985 0.308361 0.269719 0.358679 0.268107 0.261377 0.358202 0.260803 0.220683
threshold=0.030776515000000004 1.0000000180025095e-35 1.0000000180025095e-35 0.063508065000000016 0.030330880000000001 0.028174605000000002 0.027402405000000001 1.0000000180025095e-35 1.0000000180025095e-35 0.04583333500000001 0.033908045000000005 1.0000000180025095e-35 0.035098525000000012 0.029857395000000005 0.033908045000000005 0.032795695000000007 0.029857395000000005 0.026671410000000003 0.030776515000000004 1.0000000180025095e-35 0.025978410000000004 0.025978410000000004 0.030776515000000004 0.025978410000000004 0.13809523500000001 0.026671410000000003 0.03337041000000001 0.029857395000000005 0.026671410000000003 0.030776515000000004
decision_type=2 2 2 2 2 2 2 2 2 2 2 2 2 2 2 2 2 2 2 2 2 2 2 2 2 2 2 2 2 2
left_child=1 2 3 4 5 6 7 8 9 10 11 12 13 14 15 16 17 18 19 20 21 23 -23 25 -25 26 27 29 -27 -1
right_child=-2 -3 -4 -5 -6 -7 -8 -9 -10 -11 -12 -13 -14 -15 -16 -17 -18 -19 -20 -21 -22 22 -24 24 -26 28 -28 -29 -30 -31
leaf_value=0.011169923135816162 -0.013467264730828786 0.015298103361769958 -0.012876426032744349 -0.015964431511238216 -0.012606176990887214 0.0078006655832222847 0.011153154862889399 -0.017203748187360667 0.016512762487147246 0.0098909081347907588 0.012820295265947397 -0.010204857182439551 -0.013600720558315516 -0.012759393586448448 0.017013805611059068 -0.01523393419571221 -0.011720850717794183 -0.010641477253288031 -0.0098577839081242166 -0.0078314290664186978 -0.0076150994375348089 -0.011601361895009177 0.0052112550986930725 -0.0080862274825839065 0.0094477120996452873 -0.0076717531774193048 0.019757468827689688 -0.0039842098443345587 0.0059624457593135385 0.00036347180774266071
leaf_weight=134 31 27 32 20 29 109 48 24 23 48 26 56 40 34 20 20 29 25 28 33 20 24 20 28 20 20 21 22 47 22
leaf_count=134 31 27 32 20 29 109 48 24 23 48 26 56 40 34 20 20 29 25 28 33 20 24 20 28 20 20 21 22 47 22
internal_value=0 0.000397984 4.34094e-06 0.000420689 0.000758526 0.0011704 0.000301776 -0.000362595 0.000169231 -0.000340811 -0.00105362 -0.00159769 -0.000803619 9.91743e-05 0.000919421 0.000291959 0.000921813 0.00171198 0.00241548 0.00325161 0.00421918 0.00488031 -0.00395926 0.00611898 -0.000780419 0.00736399 0.00920613 0.00796131 0.00189254 0.00964594
internal_weight=0 1049 1022 990 970 941 832 784 760 737 689 663 607 567 533 513 493 464 439 411 378 358 44 314 48 266 199 178 67 156
internal_count=1080 1049 1022 990 970 941 832 784 760 737 689 663 607 567 533 513 493 464 439 411 378 358 44 314 48 266 199 178 67 156
shrinkage=0.1


Tree=23
num_leaves=31
num_cat=0
split_feature=137 357 95 351 43 40 167 109 292 4 175 394 199 148 197 92 5 196 3 195 349 29 243 15 252 75 288 189 187 160
split_gain=0.54648 0.615786 0.559681 0.514406 0.560276 0.613474 0.574233 0.492425 0.484353 0.55598 0.535098 0.816273 0.563677 0.534827 0.514135 0.450755 0.470226 0.361094 0.338088 0.330604 0.406454 0.312053 0.435417 0.232342 0.245175 0.23887 0.30034 0.208616 0.24492 0.225491
threshold=1.0000000180025095e-35 0.044466405000000007 1.0000000180025095e-35 0.032291665000000004 1.0000000180025095e-35 0.030330880000000001 0.037087915000000006 0.057189545000000001 0.029437230000000005 0.044466405000000007 0.030776515000000004 0.027402405000000001 0.025978410000000004 0.027402405000000001 0.057189545000000001 1.0000000180025095e-35 0.036375665000000008 0.031754030000000009 0.027402405000000001 0.025978410000000004 0.051315790000000007 1.0000000180025095e-35 0.028594770000000002 0.026671410000000003 0.025978410000000004 1.0000000180025095e-35 1.0000000180025095e-35 1.0000000180025095e-35 0.026671410000000003 0.040833335000000005
decision_type=2 2 2 2 2 2 2 2 2 2 2 2 2 2 2 2 2 2 2 2 2 2 2 2 2 2 2 2 2 2
left_child=1 2 3 4 5 6 7 8 9 10 11 12 13 14 15 16 17 18 19 21 -21 22 23 24 25 26 27 28 29 -1
right_child=-2 -3 -4 -5 -6 -7 -8 -9 -10 -11 -12 -13 -14 -15 -16 -17 -18 -19 -20 20 -22 -23 -24 -25 -26 -27 -28 -29 -30 -31
leaf_value=0.013657253594714655 0.016376204639673233 -0.014431757777929306 -0.010217640599235894 -0.01324913349862282 -0.010577191878110171 -0.013935105420649053 0.015788773058688848 -0.013286497709288431 -0.01000453644347462 0.017680280858083913 -0.012795235558102528 0.021351701139726426 -0.013269659527577461 0.013545470926910639 -0.01339172853040509 -0.012627807948738337 -0.0084762905931307208 -0.0070388230087701231 -0.0064464911958202727 -0.0060870907890132695 0.0075587214359880556 -0.0052376281097531322 -0.0077622918145997186 0.00025514609076910549 -0.0014498068413768825 0.0031228943240074886 0.0042815073215238314 0.01865200551324769 5.5908847134560356e-05 0.0021376772515941411
leaf_weight=113 20 30 50 26 40 25 29 22 33 23 24 22 24 40 22 20 36 32 30 58 35 25 21 45 26 63 68 38 20 20
leaf_count=113 20 30 50 26 40 25 29 22 33 23 24 22 24 40 22 20 36 32 30 58 35 25 21 45 26 63 68 38 20 20
internal_value=0 -0.000308985 0.000102358 0.000628888 0.00100712 0.00151409 0.00194854 0.00148184 0.00186955 0.00235631 0.00190561 0.00237107 0.00180371 0.00231181 0.00164313 0.00215201 0.00262121 0.00329378 0.00388212 0.00446456 -0.00095157 0.00561194 0.0062671 0.00701677 0.00789111 0.00864535 0.00998865 0.0120205 0.0103735 0.011925
internal_weight=0 1060 1030 980 954 914 889 860 838 805 782 758 736 712 672 650 630 594 562 532 93 439 414 393 348 322 259 191 153 133
internal_count=1080 1060 1030 980 954 914 889 860 838 805 782 758 736 712 672 650 630 594 562 532 93 439 414 393 348 322 259 191 153 133
shrinkage=0.1


Tree=24
num_leaves=31
num_cat=0
split_feature=137 357 95 13 109 36 337 222 115 351 292 4 68 197 290 253 9 316 0 394 195 318 180 103 63 148 311 263 329 151
split_gain=0.442649 0.508235 0.456209 0.430448 0.425492 0.441402 0.466545 0.442948 0.429736 0.437632 0.412576 0.44621 0.490621 0.462962 0.402527 0.36981 0.368875 0.734132 0.54221 0.37772 0.307567 0.290955 0.23762 0.212601 0.229387 0.174305 0.147234 0.168531 0.138046 0.0792453
threshold=1.0000000180025095e-35 0.042572465000000011 1.0000000180025095e-35 0.037749290000000012 0.057189545000000001 0.032795695000000007 0.035098525000000012 0.027402405000000001 1.0000000180025095e-35 0.032291665000000004 0.029437230000000005 0.03337041000000001 0.029857395000000005 0.037749290000000012 1.0000000180025095e-35 1.0000000180025095e-35 0.028174605000000002 0.027402405000000001 0.036375665000000008 0.027402405000000001 1.0000000180025095e-35 0.051315790000000007 0.087121210000000018 1.0000000180025095e-35 0.029857395000000005 1.0000000180025095e-35 0.028991595000000002 0.026671410000000003 0.057983195000000008 0.027799230000000005
decision_type=2 2 2 2 2 2 2 2 2 2 2 2 2 2 2 2 2 2 2 2 2 2 2 2 2 2 2 2 2 2
left_child=1 2 3 4 5 6 7 8 9 10 11 12 13 14 15 16 17 18 19 20 23 -22 26 24 25 28 27 -18 29 -1
right_child=-2 -3 -4 -5 -6 -7 -8 -9 -10 -11 -12 -13 -14 -15 -16 -17 22 -19 -20 -21 21 -23 -24 -25 -26 -27 -28 -29 -30 -31
leaf_value=0.0054607611988709932 0.014738584123551847 -0.012306649332373021 -0.0091958766281604772 -0.013564294379293211 -0.011964844919741154 0.015588643481688841 -0.010568735874531901 -0.012323192798573038 -0.0068930700197126025 -0.01228125311434269 -0.008798689489776735 0.015322710307122307 -0.012772254198789596 -0.0060608982221952721 0.017800702024251224 -0.0099898621067404745 0.017124753684291377 -0.015681991504416581 -0.011893754469400103 0.017618898432701827 -0.0069965995496455982 0.006937451756675728 0.0010896392306312919 -0.0039652256330905055 -0.0049529907666146754 0.013477807903084263 0.0044629654948316186 0.0063131733220957581 -0.00246413329039656 0.012012443188577891
leaf_weight=240 20 34 50 21 25 21 34 23 54 20 30 29 20 51 20 20 46 21 22 20 47 22 30 26 20 29 23 21 21 20
leaf_count=240 20 34 50 21 25 21 34 23 54 20 30 29 20 51 20 20 46 21 22 20 47 22 30 26 20 29 23 21 21 20
internal_value=0 -0.000278086 0.000120521 0.000597795 0.000909213 0.00125529 0.000924156 0.00137074 0.00174041 0.00232463 0.0027001 0.00316128 0.00267077 0.00311263 0.00383462 0.00338984 0.00382996 0.00260853 0.00343102 0.00418865 0.00355663 -0.00255386 0.00879711 0.00474097 0.00542691 0.00609658 0.0113663 0.013736 0.00533482 0.00596474
internal_weight=0 1060 1026 976 955 930 909 875 852 798 778 748 719 699 648 628 608 488 467 445 425 69 120 356 330 310 90 67 281 260
internal_count=1080 1060 1026 976 955 930 909 875 852 798 778 748 719 699 648 628 608 488 467 445 425 69 120 356 330 310 90 67 281 260
shrinkage=0.1


Tree=25
num_leaves=31
num_cat=0
split_feature=364 51 107 354 358 103 61 40 149 167 25 95 101 123 45 314 290 323 74 29 355 257 40 357 191 309 171 305 184 245
split_gain=0.408843 0.410198 0.448241 0.425033 0.365682 0.415404 0.420276 0.398776 0.397796 0.403939 0.406509 0.405783 0.425545 0.427044 0.366775 0.346714 0.317101 0.259494 0.321884 0.318045 0.236081 0.361487 0.299176 0.349672 0.247053 0.180857 0.355722 0.169499 0.180012 0.189417
threshold=1.0000000180025095e-35 1.0000000180025095e-35 0.044466405000000007 0.042572465000000011 0.035098525000000012 0.04006410500000001 1.0000000180025095e-35 0.030330880000000001 0.042572465000000011 0.037087915000000006 0.027402405000000001 0.031754030000000009 1.0000000180025095e-35 1.0000000180025095e-35 1.0000000180025095e-35 0.031754030000000009 1.0000000180025095e-35 0.029040405000000002 0.028174605000000002 1.0000000180025095e-35 0.035098525000000012 0.025978410000000004 1.0000000180025095e-35 0.028594770000000002 0.029857395000000005 0.030776515000000004 0.026671410000000003 0.025978410000000004 0.047727275000000006 0.025978410000000004
decision_type=2 2 2 2 2 2 2 2 2 2 2 2 2 2 2 2 2 2 2 2 2 2 2 2 2 2 2 2 2 2
left_child=1 2 3 4 5 6 7 8 9 10 11 12 13 14 15 16 17 18 19 20 21 22 23 24 25 27 -27 28 29 -1
right_child=-2 -3 -4 -5 -6 -7 -8 -9 -10 -11 -12 -13 -14 -15 -16 -17 -18 -19 -20 -21 -22 -23 -24 -25 -26 26 -28 -29 -30 -31
leaf_value=0.0027059569451335997 0.011134530507843011 -0.014175382992696196 0.011065164052083024 -0.013884992087664812 0.012921626085326786 -0.012885241493439446 0.013587431905960496 -0.012371303410165841 -0.011980686402293267 0.013137523899786174 0.010367187418483406 -0.011185523746398224 -0.013409209443742168 -0.013647446089557239 -0.0096384694319567657 -0.008230919359872739 0.014248430673033 -0.0089676899288821492 0.011023101593471236 -0.0089294898837547886 0.0096437657070863585 -0.011913253627717495 0.013781276987865569 -0.0107297944257089 0.012503649604817233 -0.011661012204630035 0.005800515934824944 -0.0061638445148001555 0.010540839531286449 -0.0069161798804998403
leaf_weight=292 32 21 35 23 21 26 22 27 27 24 36 34 23 21 32 36 20 23 36 29 36 20 20 23 21 28 20 23 27 22
leaf_count=292 32 21 35 23 21 26 22 27 27 24 36 34 23 21 32 36 20 23 36 29 36 20 20 23 21 28 20 23 27 22
internal_value=0 -0.000339986 -5.70808e-05 -0.000449499 -0.000130596 -0.000419728 -6.82058e-05 -0.00040201 -3.18259e-05 0.000349521 -2.38517e-05 -0.000499777 -1.6645e-05 0.000405891 0.000822728 0.00131793 0.00185506 0.00145527 0.00185682 0.00126861 0.00182452 0.001257 0.00181037 0.00128533 0.00192355 0.00138427 -0.00438538 0.0021451 0.00270553 0.00203179
internal_weight=0 1048 1027 992 969 948 922 900 873 846 822 786 752 729 708 676 640 620 597 561 532 496 476 456 433 412 48 364 341 314
internal_count=1080 1048 1027 992 969 948 922 900 873 846 822 786 752 729 708 676 640 620 597 561 532 496 476 456 433 412 48 364 341 314
shrinkage=0.1


Tree=26
num_leaves=31
num_cat=0
split_feature=52 36 137 188 109 148 357 28 289 197 337 40 123 95 314 343 195 292 329 335 308 317 302 165 309 340 9 196 187 183
split_gain=0.373814 0.358628 0.369378 0.394613 0.425199 0.449443 0.384787 0.405511 0.345556 0.431174 0.36533 0.371657 0.360664 0.309849 0.290545 0.307171 0.257522 0.296182 0.259681 0.280154 0.235577 0.200629 0.186495 0.16927 0.196838 0.208206 0.267496 0.210148 0.201054 0.203595
threshold=0.030776515000000004 1.0000000180025095e-35 1.0000000180025095e-35 0.05195681500000001 0.057189545000000001 0.057189545000000001 0.044466405000000007 0.032291665000000004 0.057983195000000008 0.037749290000000012 0.032795695000000007 0.035098525000000012 1.0000000180025095e-35 1.0000000180025095e-35 0.037749290000000012 0.027402405000000001 0.025978410000000004 0.027402405000000001 0.056349210000000004 0.029857395000000005 0.030776515000000004 0.027046785 0.027046785 1.0000000180025095e-35 0.029857395000000005 0.031754030000000009 0.030776515000000004 1.0000000180025095e-35 0.027402405000000001 0.028991595000000002
decision_type=2 2 2 2 2 2 2 2 2 2 2 2 2 2 2 2 2 2 2 2 2 2 2 2 2 2 2 2 2 2
left_child=1 2 3 4 5 6 7 8 9 10 11 12 13 14 15 16 17 18 19 20 21 23 -18 24 25 26 27 28 29 -1
right_child=-2 -3 -4 -5 -6 -7 -8 -9 -10 -11 -12 -13 -14 -15 -16 -17 22 -19 -20 -21 -22 -23 -24 -25 -26 -27 -28 -29 -30 -31
leaf_value=0.01015836563635549 -0.010822376858202681 0.011695515901643645 0.013475686609745026 0.010181817893005375 -0.014060833410400412 0.013209974473526623 -0.012644147384875957 0.011126347991327445 0.012291427315212787 -0.009252398592120006 -0.010853038910863689 -0.01306008546837672 -0.010909736335829453 -0.0084461196373655078 -0.010532859836239368 -0.0087388424685707813 -0.004721199178808852 -0.0080529566712515526 -0.0059866418639473902 -0.0074871787149459121 -0.0060051805991679433 -0.002794969454407692 0.0058813574402371335 -0.002649996490420207 0.00087395488487761782 -0.0024701375226002364 0.015443474678322673 -0.003188492311164737 -0.0021223321743309496 0.0032595980512520207
leaf_weight=163 31 27 20 35 23 24 26 30 20 59 32 21 27 34 20 27 79 23 27 20 20 30 21 23 59 21 40 20 20 58
leaf_count=163 31 27 20 35 23 24 26 30 20 59 32 21 27 34 20 27 79 23 27 20 20 30 21 23 59 21 40 20 20 58
internal_value=0 0.000319822 1.92904e-05 -0.0002493 -0.000626849 -0.000299538 -0.00065196 -0.000303193 -0.000700053 -0.00100791 -0.000388258 5.64606e-05 0.000432755 0.000867148 0.00133906 0.00170379 0.00215563 0.00304309 0.00355249 0.00409586 0.00460612 0.00509512 -0.00249466 0.00568102 0.00618395 0.00715689 0.00782855 0.00666151 0.00747894 0.00834783
internal_weight=0 1049 1022 1002 967 944 920 894 864 844 785 753 732 705 671 651 624 524 501 474 454 434 100 404 381 322 301 261 241 221
internal_count=1080 1049 1022 1002 967 944 920 894 864 844 785 753 732 705 671 651 624 524 501 474 454 434 100 404 381 322 301 261 241 221
shrinkage=0.1


Tree=27
num_leaves=31
num_cat=0
split_feature=351 167 175 308 394 296 117 108 92 274 5 100 345 95 197 89 116 388 289 149 63 100 309 63 28 74 362 256 68 140
split_gain=0.322505 0.365403 0.418793 0.332971 0.327091 0.289372 0.33117 0.423924 0.347748 0.293068 0.289623 0.366998 0.272694 0.356556 0.335901 0.322277 0.285884 0.26758 0.276223 0.290423 0.193807 0.160472 0.158107 0.325809 0.146403 0.138781 0.123391 0.161104 0.153101 0.121366
threshold=0.032291665000000004 0.042572465000000011 0.039230770000000005 0.037749290000000012 0.027402405000000001 1.0000000180025095e-35 0.04653680000000001 0.037386445000000011 1.0000000180025095e-35 0.042572465000000011 0.024184150000000005 0.042572465000000011 0.035098525000000012 0.031754030000000009 0.048809525000000013 0.026671410000000003 0.033908045000000005 0.027402405000000001 0.026671410000000003 0.028991595000000002 0.030776515000000004 0.029857395000000005 0.032795695000000007 0.026671410000000003 1.0000000180025095e-35 0.027402405000000001 1.0000000180025095e-35 1.0000000180025095e-35 1.0000000180025095e-35 0.030776515000000004
decision_type=2 2 2 2 2 2 2 2 2 2 2 2 2 2 2 2 2 2 2 2 2 2 2 2 2 2 2 2 2 2
left_child=1 2 3 4 5 6 7 8 9 10 11 12 13 14 15 16 17 18 19 20 22 -12 24 -24 26 -20 27 28 29 -1
right_child=-2 -3 -4 -5 -6 -7 -8 -9 -10 -11 21 -13 -14 -15 -16 -17 -18 -19 25 -21 -22 -23 23 -25 -26 -27 -28 -29 -30 -31
leaf_value=0.0026059379489821459 -0.011002467927308038 0.011979216253026746 -0.013079331263240117 -0.012172222900248711 0.010834717911978563 -0.0068111793400550437 0.013385014157975092 0.011669429533503717 -0.010281554892208078 -0.011609561742516235 -0.0075152876058353054 -0.011405444711404429 0.012420332984512915 -0.010621709496869396 -0.0095693013332784193 -0.0048386410328334776 0.014439673333739243 0.01389452859759331 0.0039881075200225626 -0.0091677875551395126 -0.0064585421341829576 0.0022649370457815086 -0.012727576103061439 0.0032722051932276893 0.011116543378342282 0.014134156406642154 0.0077625178122183395 -0.0060673498710536447 -0.0055459693495538975 0.0099536596722900883
leaf_weight=223 26 26 24 21 30 55 20 32 32 20 62 22 23 24 25 58 21 20 28 25 26 23 20 35 22 26 42 23 21 25
leaf_count=223 26 26 24 21 30 55 20 32 32 20 62 22 23 24 25 58 21 20 28 25 26 23 20 35 22 26 42 23 21 25
internal_value=0 0.000271408 -2.47037e-05 0.000287359 0.000553535 0.000229888 0.000661134 0.000371296 -5.60562e-05 0.000345929 0.000647075 0.00130837 0.0017155 0.0013447 0.00179345 0.00225535 0.00299404 0.00254561 0.00210573 0.00131472 0.0019144 -0.00486887 0.00244408 -0.0025459 0.003215 0.00887324 0.00269454 0.00196559 0.00265242 0.00334664
internal_weight=0 1054 1028 1004 983 953 898 878 846 814 794 709 687 664 640 615 557 536 516 462 437 85 411 55 356 54 334 292 269 248
internal_count=1080 1054 1028 1004 983 953 898 878 846 814 794 709 687 664 640 615 557 536 516 462 437 85 411 55 356 54 334 292 269 248
shrinkage=0.1


Tree=28
num_leaves=31
num_cat=0
split_feature=364 238 232 22 74 14 65 143 167 25 164 207 144 367 355 314 288 163 240 273 307 309 117 116 88 189 195 249 143 374
split_gain=0.297905 0.310129 0.341818 0.307012 0.325118 0.355224 0.39465 0.358516 0.350251 0.354181 0.351131 0.349893 0.330181 0.300155 0.289458 0.354655 0.314837 0.289154 0.265564 0.230773 0.25175 0.213219 0.161258 0.199186 0.19266 0.163096 0.189045 0.14337 0.132738 0.0939722
threshold=1.0000000180025095e-35 0.029857395000000005 0.025978410000000004 1.0000000180025095e-35 0.036375665000000008 0.039230770000000005 1.0000000180025095e-35 0.037749290000000012 0.037087915000000006 0.033908045000000005 0.042572465000000011 0.028594770000000002 1.0000000180025095e-35 0.032392895000000012 0.051315790000000007 0.031754030000000009 0.027046785 0.028174605000000002 0.04653680000000001 1.0000000180025095e-35 0.04006410500000001 0.031754030000000009 1.0000000180025095e-35 0.030776515000000004 0.047727275000000006 0.087595905000000016 0.025978410000000004 0.026671410000000003 0.026671410000000003 1.0000000180025095e-35
decision_type=2 2 2 2 2 2 2 2 2 2 2 2 2 2 2 2 2 2 2 2 2 2 2 2 2 2 2 2 2 2
left_child=1 2 3 4 5 6 7 8 9 10 11 12 13 14 15 16 17 18 19 20 21 22 23 24 25 26 27 -1 -21 -18
right_child=-2 -3 -4 -5 -6 -7 -8 -9 -10 -11 -12 -13 -14 -15 -16 -17 29 -19 -20 28 -22 -23 -24 -25 -26 -27 -28 -29 -30 -31
leaf_value=-0.0092582677852322652 0.0095045732676823039 0.010946379311887237 -0.013180224790370891 0.011976406237808988 -0.012288151156035779 -0.0093643858245142358 -0.0094406386718108529 -0.012312006427063829 0.012342293943779973 0.010707688428969547 0.012593884465538644 0.012837738050147891 -0.012634064748205923 0.0099532475362398808 0.0097514736000448472 -0.012019957111026868 0.0058538617397626419 0.0040942318686667265 0.0068184090151997478 -0.0040324478049851243 0.0052847679738921155 -0.012517200084403157 0.0039289346624476222 0.0050288536935113376 0.0041304811043664817 0.0017685893294280203 -0.00084809014418472852 -0.00029014655388891696 0.005666916074534489 -0.0017479468800593167
leaf_weight=164 32 24 21 20 23 41 41 21 26 33 22 20 22 28 26 28 87 79 29 21 27 32 24 20 20 24 42 20 43 20
leaf_count=164 32 24 21 20 23 41 41 21 26 33 22 20 22 28 26 28 87 79 29 21 27 32 24 20 20 24 42 20 43 20
internal_value=0 -0.000290216 -0.000553574 -0.000289207 -0.000538762 -0.000257266 0.000149036 0.000596846 0.000913165 0.000555575 0.000135751 -0.000217443 -0.000562819 -0.00020101 -0.000603728 -0.000999663 -0.000526399 -0.00150007 -0.00244846 -0.00306343 -0.00401532 -0.00474105 -0.00394857 -0.0046005 -0.00531379 -0.00606933 -0.00690168 -0.00828347 0.00248431 0.00443296
internal_weight=0 1048 1024 1003 983 960 919 878 857 831 798 776 756 734 706 680 652 545 466 437 373 346 314 290 270 250 226 184 64 107
internal_count=1080 1048 1024 1003 983 960 919 878 857 831 798 776 756 734 706 680 652 545 466 437 373 346 314 290 270 250 226 184 64 107
shrinkage=0.1


Tree=29
num_leaves=31
num_cat=0
split_feature=137 153 291 188 109 144 40 320 36 289 74 160 3 148 343 188 340 385 315 100 337 309 12 195 146 169 369 294 0 60
split_gain=0.299652 0.300862 0.284806 0.290461 0.34899 0.387527 0.309062 0.309524 0.314683 0.287459 0.302987 0.259735 0.397054 0.352192 0.256018 0.260543 0.251499 0.264373 0.313927 0.258225 0.377586 0.2351 0.226118 0.185485 0.177537 0.149876 0.144037 0.139838 0.118782 0.123153
threshold=1.0000000180025095e-35 0.029857395000000005 0.033908045000000005 0.05195681500000001 0.057189545000000001 1.0000000180025095e-35 0.030330880000000001 0.042572465000000011 1.0000000180025095e-35 0.057983195000000008 0.036375665000000008 1.0000000180025095e-35 0.031754030000000009 1.0000000180025095e-35 0.027402405000000001 1.0000000180025095e-35 0.029857395000000005 1.0000000180025095e-35 0.056349210000000004 1.0000000180025095e-35 0.029857395000000005 0.030776515000000004 1.0000000180025095e-35 1.0000000180025095e-35 0.026671410000000003 0.029857395000000005 1.0000000180025095e-35 0.04653680000000001 0.039230770000000005 0.029857395000000005
decision_type=2 2 2 2 2 2 2 2 2 2 2 2 2 2 2 2 2 2 2 2 2 2 2 2 2 2 2 2 2 2
left_child=1 2 3 4 5 6 7 8 9 10 11 12 13 14 15 16 17 18 19 20 21 23 -13 25 -23 27 -25 28 29 -1
right_child=-2 -3 -4 -5 -6 -7 -8 -9 -10 -11 -12 22 -14 -15 -16 -17 -18 -19 -20 -21 -22 24 -24 26 -26 -27 -28 -29 -30 -31
leaf_value=0.0068522708763807576 0.012126479018479587 -0.011297718562612621 0.010361628800344009 0.008712186801380346 -0.012469078705180436 -0.013692749832712471 -0.01049830441414896 -0.0113566026260907 0.01246154560622844 0.011905411002226175 -0.011800252224895218 0.0063499064360406591 -0.014316744701936841 0.010054300886677636 -0.0097208348199211321 -0.0098902604645655437 -0.0079959078917882457 -0.0093864311890987061 -0.010931041357107461 -0.0053733576265060246 -0.010858336533419789 -0.0068516716287892968 -0.0038629993990374114 -0.006153274586124878 0.0031583098085213677 -0.0011861131848435794 0.0044040634646080436 0.013998453170061112 -0.0018894815196593602 -1.4159670099616051e-05
leaf_weight=202 20 24 26 35 24 21 27 22 22 21 21 110 20 33 29 26 34 24 20 45 20 37 27 28 34 33 24 20 21 30
leaf_count=202 20 24 26 35 24 21 27 22 22 21 21 110 20 33 29 26 34 24 20 45 20 37 27 28 34 33 24 20 21 30
internal_value=0 -0.000228801 2.76213e-05 -0.000238403 -0.000559706 -0.000259154 4.41854e-05 0.000359409 0.000651977 0.00034952 5.99335e-05 0.000364785 -0.000435528 -1.48852e-05 -0.000544842 -9.98528e-05 0.000345166 0.000872297 0.0013513 0.00184856 0.00257237 0.00319851 0.00433714 0.00424103 -0.00205816 0.00517935 -0.00128066 0.00594881 0.00531247 0.00596437
internal_weight=0 1060 1036 1010 975 951 930 903 881 859 838 817 680 660 627 598 572 538 514 494 449 429 137 358 71 306 52 273 253 232
internal_count=1080 1060 1036 1010 975 951 930 903 881 859 838 817 680 660 627 598 572 538 514 494 449 429 137 358 71 306 52 273 253 232
shrinkage=0.1


Tree=30
num_leaves=31
num_cat=0
split_feature=52 61 123 323 207 72 107 109 196 227 364 169 288 25 291 16 274 5 104 197 292 157 300 348 100 309 192 74 117 223
split_gain=0.265211 0.247943 0.331554 0.273918 0.285655 0.330433 0.349282 0.239403 0.243009 0.235274 0.248792 0.22944 0.239212 0.22904 0.22857 0.206353 0.243766 0.203875 0.199311 0.244637 0.170974 0.177827 0.187434 0.219809 0.164715 0.154287 0.128236 0.126833 0.11547 0.086956
threshold=0.037749290000000012 0.029138515000000004 0.028991595000000002 0.035759900000000004 0.028594770000000002 1.0000000180025095e-35 0.030776515000000004 0.057189545000000001 0.031754030000000009 0.029857395000000005 1.0000000180025095e-35 0.030776515000000004 0.029857395000000005 0.027402405000000001 1.0000000180025095e-35 0.031754030000000009 1.0000000180025095e-35 0.040833335000000005 0.027046785 0.048809525000000013 0.027402405000000001 1.0000000180025095e-35 0.025320515000000005 0.025978410000000004 1.0000000180025095e-35 0.059714795000000008 0.033908045000000005 0.028174605000000002 1.0000000180025095e-35 0.028991595000000002
decision_type=2 2 2 2 2 2 2 2 2 2 2 2 2 2 2 2 2 2 2 2 2 2 2 2 2 2 2 2 2 2
