tree
version=v3
num_class=1
num_tree_per_iteration=1
label_index=0
max_feature_idx=11
objective=regression
feature_names=Column_0 Column_1 Column_2 Column_3 Column_4 Column_5 Column_6 Column_7 Column_8 Column_9 Column_10 Column_11
feature_infos=[-1.3474107399999999:2.6516160000000002] [-1.323175:1.154944] [-1.3199570300000001:2.6516160000000002] [-1.303776:0.95320625000000003] [-1.05761806:0.91808000000000001] [-1.4095200000000001:1.08461389] [-2.8725839999999998:1.5341494099999999] [-1.2710900000000001:1.1797184599999999] [-2.8725839999999998:1.5341494099999999] [-0.89862761999999996:1.3577760000000001] [-0.91761789999999999:1.0995393499999999] [-1.0271239999999999:1.09320879]
tree_sizes=2653 2763 2763 2783 2771 2762 2781 2802 2794 2784 2787 2796 2808 2803 2815 2816 2815 2825 2824 2827 2835 2836 2838 2827 2841 2846 2832 2831 2838 2842 2852 2837 2846 2834 2846 2844 2840 2858 2847 2858 2857 2853 2866 2840 2862 2844 2835 2849 2856 2865 2854 2859 2849 2883 2853 2889 2838 2858 2852 2875 2876 2858 2882 2890 2877 2846 2870 2880 2876 2876 2891 2881 2904 2889 2890 2889 2883 2895 2904 2887 2888 2898 2898 2899 2882 2891 2887 2907 2923 2875 2885 2871 2893 2899 2908 2898 2896 2893 2910 2880

Tree=0
num_leaves=31
num_cat=0
split_feature=8 10 0 6 2 8 0 9 1 4 1 10 8 1 4 9 9 2 2 7 8 1 1 1 10 11 6 11 11 1
split_gain=22.789 12.1583 6.10115 5.99197 5.70827 4.12922 4.5187 3.68937 2.72987 3.63 3.26505 2.6893 2.55992 4.00395 2.01487 2.69357 3.83706 2.00173 3.90693 1.97724 1.59783 1.55432 1.54205 1.55116 1.23178 1.16346 1.0084 0.909521 1.24444 0.711101
threshold=0.30415821000000004 -0.095263009999999981 0.25947682000000005 0.45938788500000005 -0.55235158499999992 0.014259200000000001 0.26474946500000002 -0.010070189999999998 0.071022125000000005 0.22998696500000002 -0.12655744499999996 0.16190869000000002 0.19355588000000004 0.016996930000000004 1.0000000180025095e-35 -0.043280119999999991 -0.014469194999999999 -0.12057177999999999 0.13635564000000003 -0.20030583999999999 0.23418302000000002 -0.036530024999999994 -0.11050251499999998 0.14164714000000003 0.034112310000000007 0.088536125000000007 0.012749820000000002 0.092391845000000014 0.17945166500000001 0.058900420000000002
decision_type=2 2 2 2 2 2 2 2 2 2 2 2 2 2 2 2 2 2 2 2 2 2 2 2 2 2 2 2 2 2
left_child=1 4 12 11 -1 6 27 -4 10 -10 -7 21 14 -14 15 26 -17 -12 -19 -16 -15 -2 -18 24 -24 -23 -3 -6 -29 -5
right_child=3 2 7 29 5 8 -8 -9 9 -11 17 -13 13 20 19 16 22 18 -20 -21 -22 25 23 -25 -26 -27 -28 28 -30 -31
leaf_value=0.54361110853928107 0.49916666541938426 0.47773809462943406 0.53202380729730792 0.5478333306356713 0.49462121100939482 0.482499999249423 0.52324073877599497 0.48465053681974057 0.46916666631345394 0.52416666467432615 0.5461363609892752 0.47773809462943406 0.46681372520710646 0.52916666452531458 0.49264492648331248 0.52416666467432615 0.46305555538446813 0.49202380848940086 0.53726190237929583 0.46105477844331894 0.49264492648331248 0.53666666430179721 0.5131666650021518 0.46416666646246557 0.48354166588504555 0.509166665121361 0.44916666690950036 0.45583333337748488 0.482499999249423 0.53214538784079701
leaf_weight=36 32 21 35 75 22 21 27 31 30 20 33 21 34 25 23 24 36 35 42 143 23 40 25 20 32 25 30 30 42 47
leaf_count=36 32 21 35 75 22 21 27 31 30 20 33 21 34 25 23 24 36 35 42 143 23 40 25 20 32 25 30 30 42 47
internal_value=0.499074 0.49131 0.481438 0.52625 0.505971 0.501485 0.487183 0.509773 0.511045 0.491167 0.518632 0.510184 0.477148 0.493069 0.47346 0.48055 0.487853 0.52553 0.516699 0.465432 0.511667 0.517208 0.48014 0.488128 0.496535 0.52609 0.460931 0.476826 0.471389 0.54179
internal_weight=0 840 502 240 338 302 121 66 181 50 131 118 436 82 354 188 137 110 77 166 48 97 113 77 57 65 51 94 72 122
internal_count=1080 840 502 240 338 302 121 66 181 50 131 118 436 82 354 188 137 110 77 166 48 97 113 77 57 65 51 94 72 122
shrinkage=1


Tree=1
num_leaves=31
num_cat=0
split_feature=6 1 10 0 8 2 4 4 1 8 1 4 11 5 1 2 7 11 2 4 5 1 6 11 10 5 0 7 10 9
split_gain=19.2999 9.07272 6.24156 4.28789 3.80489 3.60668 3.47767 4.59289 3.44006 3.07395 3.78464 3.04342 2.41791 2.08727 1.82966 1.76736 2.0032 1.82976 1.35657 1.17384 1.07005 1.40618 1.39069 2.10589 1.03077 0.957749 1.08545 0.930004 0.960264 1.69845
threshold=0.28963794000000004 -0.43532822999999993 -0.077337164999999986 0.25947682000000005 0.55567233000000005 0.19154627500000002 -0.060987094999999998 -0.099572509999999989 0.0024855700000000003 0.19355588000000004 0.027969980000000002 0.26802798500000008 0.086229485000000008 0.20970373 0.016996930000000004 0.21380257000000003 -0.11778669999999998 -0.069955494999999993 -0.08818591499999999 0.066246290000000013 -0.085815974999999975 -0.21173843999999997 -0.044265184999999992 0.044581415000000006 0.10979637500000002 0.14523019000000001 -0.23089404499999996 0.11799888000000001 0.09494527500000001 0.059677865000000004
decision_type=2 2 2 2 2 2 2 2 2 2 2 2 2 2 2 2 2 2 2 2 2 2 2 2 2 2 2 2 2 2
left_child=1 -1 5 9 13 6 7 25 -5 20 -11 18 -7 15 -14 16 -2 -18 -8 -20 -4 -22 -23 27 -12 -3 -27 28 -24 -30
right_child=4 2 3 8 -6 12 11 -9 -10 10 24 -13 14 -15 -16 -17 17 -19 19 -21 21 22 23 -25 -26 26 -28 -29 29 -31
leaf_value=0.035235307303567727 0.022513644668188962 -0.019728214600506954 -0.035559300242400747 0.026520062459481731 0.04027101764082909 0.040777570009231573 -0.0055937919765710834 0.033835563915116447 -0.024955893903970721 -0.028265844467209606 0.022222464254924232 0.016184097652633987 0.0234762222639152 0.034945646507872477 -0.013363469678622026 0.027334237201460478 -0.034924034367908134 0.0054152571636697519 -0.018595917141714761 -0.04271831190899799 -0.043125727134091518 -0.0043915722519159315 -0.034942938482507749 0.00609905481338501 -0.006236153990030289 -0.013638888841325587 0.0171126718322436 -0.046100837469100958 0.0029335099917191729 -0.032875771986113654
leaf_weight=48 22 34 82 37 100 31 32 42 20 41 35 24 28 36 26 29 22 23 43 38 28 48 47 20 20 22 24 25 26 27
leaf_count=48 22 34 82 37 100 31 32 42 20 41 35 24 28 36 26 29 22 23 43 38 28 48 47 20 20 22 24 25 26 27
internal_value=0 -0.00699217 -0.00952582 -0.0171976 0.0255576 0.000643803 -0.00522209 0.00705724 0.00845832 -0.0208628 -0.00526913 -0.016157 0.0185175 0.014411 0.00573859 0.00671058 -0.00221608 -0.0143062 -0.0230259 -0.0299126 -0.0258033 -0.0221835 -0.0191452 -0.0240292 0.0118739 -0.00700138 0.0024054 -0.0288497 -0.0245369 -0.015309
internal_weight=0 848 800 456 232 344 259 122 57 399 96 137 85 132 54 96 67 45 113 81 303 221 193 145 55 80 46 125 100 53
internal_count=1080 848 800 456 232 344 259 122 57 399 96 137 85 132 54 96 67 45 113 81 303 221 193 145 55 80 46 125 100 53
shrinkage=0.1


Tree=2
num_leaves=31
num_cat=0
split_feature=6 1 10 8 10 8 2 4 2 7 6 11 2 3 5 0 5 9 2 7 11 3 0 4 1 1 8 6 6 5
split_gain=15.6329 7.3489 5.05566 3.49702 3.44548 3.08196 2.92141 2.83204 2.8269 2.89337 2.10948 1.9585 1.85991 1.7722 1.712 1.94594 1.69068 1.61243 1.43156 1.62259 1.48211 1.33958 1.5026 1.32063 1.20449 1.2883 1.26423 1.22642 1.02419 1.02355
threshold=0.28963794000000004 -0.43532822999999993 -0.077337164999999986 0.13656332000000002 0.16190869000000002 0.55567233000000005 0.19154627500000002 -0.095181664999999985 -0.06582594999999998 0.038921565000000005 0.071570710000000023 0.086229485000000008 0.040496000000000011 0.079493855000000016 -0.097139939999999994 0.25947682000000005 0.20970373 0.14375795500000002 0.21380257000000003 -0.11778669999999998 -0.069955494999999993 -0.022558559999999995 -0.10649222499999998 -0.067570544999999982 -0.19195987999999997 0.12235247500000002 -0.077344999999999983 -0.044265184999999992 -0.018133329999999996 0.06608963000000001
decision_type=2 2 2 2 2 2 2 2 2 2 2 2 2 2 2 2 2 2 2 2 2 2 2 2 2 2 2 2 2 2
left_child=1 -1 6 14 7 16 8 -5 9 10 -3 -8 -9 21 28 24 18 -13 19 -2 -21 22 -10 -11 -16 26 -26 -28 -4 -29
right_child=5 2 3 4 -6 -7 11 12 13 23 -12 17 -14 -15 15 -17 -18 -19 -20 20 -22 -23 -24 -25 25 -27 27 29 -30 -31
leaf_value=0.03171177636831999 0.020262279564684089 -0.019429323805703058 -0.020900134303990535 -0.018873699307441712 -0.028899616897106174 0.036243916064500808 0.036699813508218333 -0.0035150788047096948 0.003584301590919495 0.03635037514296445 0.019602869451045991 -0.010879321344967547 0.026952929824006322 -0.03414558706914677 -0.039407741201334986 0.0090306367874145501 0.031451081401771969 0.023775837779045107 0.024600813203844534 -0.031431631337512624 0.0048737313436425251 0.0074525365958342683 -0.026992654999097188 0.0037849758565425872 -0.028138601599317609 -0.031412122560584031 0.016573099642992022 -0.00098604352937804339 -0.043585091891388102 -0.027024379716469694
leaf_weight=48 22 45 34 35 40 100 31 33 25 33 20 29 51 34 29 25 36 25 29 22 23 37 45 20 33 46 20 36 48 26
leaf_count=48 22 45 34 35 40 100 31 33 25 33 20 29 51 34 29 25 36 25 29 22 23 37 45 20 33 46 20 36 48 26
internal_value=0 -0.00629295 -0.00857324 -0.0154779 -0.0035092 0.0230018 0.000579423 0.0050254 -0.00469988 0.00672034 -0.00741942 0.0166658 0.0149834 -0.0142572 -0.0218853 -0.0171966 0.0129699 0.00516473 0.00603952 -0.00199448 -0.0128756 -0.00793755 -0.0160723 0.0240615 -0.0206475 -0.0172683 -0.0116108 -0.00495938 -0.0341791 -0.0119053
internal_weight=0 848 800 456 159 232 344 119 259 118 65 85 84 141 297 215 132 54 96 67 45 107 70 53 190 161 115 82 82 62
internal_count=1080 848 800 456 159 232 344 119 259 118 65 85 84 141 297 215 132 54 96 67 45 107 70 53 190 161 115 82 82 62
shrinkage=0.1


Tree=3
num_leaves=31
num_cat=0
split_feature=6 2 0 10 8 1 1 1 8 8 1 7 7 6 10 6 10 6 0 2 8 8 7 4 8 2 5 10 4 6
split_gain=12.6627 6.12621 4.42616 4.10955 3.87248 3.14705 2.56391 3.10836 2.49641 2.02304 2.91906 1.93591 2.02611 1.66579 1.19386 1.08307 1.05168 1.49084 1.02618 1.06096 1.43444 1.2937 0.895413 0.845537 1.01875 0.842452 0.767044 0.531569 0.537546 0.529285
threshold=0.28963794000000004 -0.57006742999999982 0.25947682000000005 -0.077337164999999986 0.0068586650000000008 0.058900420000000002 0.071022125000000005 -0.12655744499999996 0.34540690500000004 0.19355588000000004 1.0000000180025095e-35 0.013843550000000001 0.14681083500000003 0.34347501500000005 0.11354138500000001 0.032790045000000011 0.12596060500000003 0.61814821000000009 0.090770065000000011 0.13635564000000003 0.026615885000000002 -0.090160424999999975 0.045239555000000008 0.016060615000000004 0.14522359500000004 -0.11271087999999999 0.034334530000000009 0.087734350000000016 -0.012938879999999998 -0.024980144999999999
decision_type=2 2 2 2 2 2 2 2 2 2 2 2 2 2 2 2 2 2 2 2 2 2 2 2 2 2 2 2 2 2
left_child=1 -1 3 4 22 23 7 -6 13 18 -11 -9 -13 -2 -12 -8 -10 -18 19 20 21 29 26 -4 -25 -23 -3 28 -22 -5
right_child=8 2 5 9 6 -7 15 11 16 10 14 12 -14 -15 -16 -17 17 -19 -20 -21 27 25 -24 24 -26 -27 -28 -29 -30 -31
leaf_value=0.035300990002495904 0.021365837057431541 -0.0033536526418867564 0.034852586460836006 -0.016488606051394815 -0.016886385392259669 -0.015015477038198902 0.0060271692546931188 -0.0011496934294700622 0.032885726961222564 -0.026666507621606189 0.019703283294653283 0.036917252116131061 0.0012549166168485369 -0.010746480992862156 -0.0098707959765479691 -0.022288058400154118 0.0002579479381955903 0.032607964958463402 -0.030863350512165773 -0.00057109910994768143 -0.011066722727957227 0.014098177701234818 -0.036358234286308293 -0.0020353481883094424 0.029500302523374558 -0.011145418041791672 -0.022829464230781946 -0.038701627269769334 -0.032974522188305856 -0.036270576431637717
leaf_weight=35 30 42 33 38 27 31 22 30 110 36 39 66 21 35 21 35 29 28 76 32 21 20 20 21 20 39 39 39 24 21
leaf_count=35 30 42 33 38 27 31 22 30 110 36 39 66 21 35 21 35 29 28 76 32 21 20 20 21 20 39 39 39 24 21
internal_value=0 -0.00566366 -0.0074272 -0.0102687 -0.00143504 0.0117326 0.00659196 0.0136977 0.0207016 -0.0168395 -0.00415472 0.0207556 0.0283091 0.00407459 0.00935236 -0.0113594 0.0271733 0.0161492 -0.0207677 -0.0174888 -0.0201689 -0.013059 -0.0174096 0.0229378 0.0133479 -0.00258827 -0.0127309 -0.0301566 -0.0227509 -0.0235296
internal_weight=0 848 813 708 302 105 201 144 232 406 96 117 87 65 60 57 167 57 310 234 202 118 101 74 41 59 81 84 45 59
internal_count=1080 848 813 708 302 105 201 144 232 406 96 117 87 65 60 57 167 57 310 234 202 118 101 74 41 59 81 84 45 59
shrinkage=0.1


Tree=4
num_leaves=31
num_cat=0
split_feature=6 4 0 8 2 5 10 2 8 8 1 3 2 2 5 7 11 6 6 2 11 9 6 10 5 0 3 1 9 1
split_gain=10.2568 5.20023 3.49141 3.33009 4.96315 2.98175 2.90852 3.64054 2.13922 2.0697 1.62849 1.45771 1.40488 1.3926 1.06989 1.3124 1.05958 0.851602 1.60154 1.17103 0.815874 0.75855 0.75359 1.97894 1.05018 1.67176 1.78144 0.885024 0.748483 0.689908
threshold=0.28963794000000004 -0.57261692499999983 0.52323388500000012 0.014259200000000001 0.13635564000000003 0.10710285000000001 -0.10158805999999999 -0.037208744999999994 0.55567233000000005 0.28549994500000003 0.10523354500000003 0.077935545000000009 0.068356890000000017 0.21380257000000003 0.20970373 -0.11778669999999998 -0.069955494999999993 0.18520801500000003 0.10468980000000001 0.057743620000000002 0.19342753500000001 -0.083121754999999978 -0.16682477499999995 -0.18431935999999996 0.069061420000000012 0.049623050000000009 0.013581750000000002 0.013946380000000003 -0.097871984999999981 0.037077405000000008
decision_type=2 2 2 2 2 2 2 2 2 2 2 2 2 2 2 2 2 2 2 2 2 2 2 2 2 2 2 2 2 2
left_child=1 -1 3 12 6 10 7 11 13 17 28 -5 22 14 15 -2 -17 18 19 -8 -13 -9 23 -3 25 26 -24 -26 -6 -11
right_child=8 2 -4 4 5 -7 9 21 -10 29 -12 20 -14 -15 -16 16 -18 -19 -20 -21 -22 -23 24 -25 27 -27 -28 -29 -30 -31
leaf_value=0.030568785086656232 0.016854231872341849 -0.025160966813564303 0.033425331825301767 -0.0020151970563111483 0.015616633147001267 -0.011931858869159923 -0.031317802443020591 -0.0043933379650115973 0.029663895517587663 -0.0092067004740238184 0.0049580828632627217 0.016389453808466594 -0.024828089355376729 0.024799428338354287 0.022705637699081786 -0.028637897697362032 0.0020591930202815845 -0.03412135235573116 -0.0024793994302550956 -0.0038363355398178104 0.042464254498481756 -0.028162835178704101 -0.016389752030372622 0.012712074212125829 -0.040581408763925242 -0.032045101730719859 0.016255034599453211 -0.012098574787378311 0.038866820202933416 0.016744817296663921
leaf_weight=39 22 22 21 27 20 34 69 25 100 20 35 30 114 44 21 22 23 38 48 20 20 29 35 37 24 23 32 20 45 21
leaf_count=39 22 22 21 27 20 34 69 25 100 20 35 30 114 44 21 22 23 38 48 20 20 29 35 37 24 23 32 20 45 21
internal_value=0 -0.00509729 -0.00681667 -0.00788911 -0.00269559 0.0136507 -0.00900798 0.00274811 0.0186315 -0.0161378 0.0223487 0.0167086 -0.0160262 0.0102736 0.00301067 -0.00316238 -0.0129483 -0.0208759 -0.0172019 -0.0251422 0.0268194 -0.0171584 -0.0108271 -0.00141008 -0.0149735 -0.00878353 -0.000798212 -0.0276347 0.0317129 0.00408554
internal_weight=0 848 809 788 481 134 347 131 232 216 100 77 307 132 88 67 45 175 137 89 50 54 193 59 134 90 67 44 65 41
internal_count=1080 848 809 788 481 134 347 131 232 216 100 77 307 132 88 67 45 175 137 89 50 54 193 59 134 90 67 44 65 41
shrinkage=0.1


Tree=5
num_leaves=31
num_cat=0
split_feature=8 10 2 4 7 7 2 8 6 4 1 1 11 10 8 6 5 11 6 5 4 4 5 8 4 3 5 3 3 6
split_gain=8.46526 4.87258 2.63467 2.71029 3.26281 3.0745 2.53939 2.73687 2.40146 2.09001 1.93209 2.08812 1.75464 1.66665 1.41939 1.81975 1.0473 1.01594 1.00854 1.12463 1.14229 1.51066 0.758666 0.963515 0.733864 1.07045 0.894012 1.48434 1.11066 0.857905
threshold=0.30415821000000004 -0.095263009999999981 -0.55235158499999992 0.38501320000000006 -0.058161934999999991 0.14258137000000001 0.15159692500000002 0.024216615000000004 0.45938788500000005 -0.059108359999999992 -0.11309374999999998 0.083568480000000014 0.30410005500000009 0.12811893500000002 0.36215694000000004 0.26449578000000001 0.049798360000000007 0.10622987500000002 -0.24396350499999997 -0.16362170999999998 -0.17968958999999998 -0.12796545499999998 0.10710285000000001 0.11021322500000001 0.11884793 0.076798180000000008 0.028496775000000005 0.041615360000000011 -0.068758149999999976 0.096164470000000016
decision_type=2 2 2 2 2 2 2 2 2 2 2 2 2 2 2 2 2 2 2 2 2 2 2 2 2 2 2 2 2 2
left_child=1 2 -1 4 12 10 17 9 13 -8 -6 -12 16 14 -2 -16 -4 18 -3 -20 -21 -22 23 -9 26 -26 29 28 -28 -23
right_child=8 6 3 -5 5 -7 7 22 -10 -11 11 -13 -14 -15 15 -17 -18 -19 19 20 21 24 -24 -25 25 -27 27 -29 -30 -31
leaf_value=0.030121042744980921 0.028098971231116189 0.007898286134004593 -0.014350691437721254 0.031734783450762437 -0.01620497301220894 -0.019224986277128521 0.010826524240630013 0.0045634065568447109 0.026400819005536254 -0.02813176915049553 0.024053506809051592 -0.0068767447556768143 0.0054303317070007323 -0.016530094504356385 -0.018215949957569443 0.017973385525472237 -0.039886057068561687 -0.035603211625762611 -0.02972715069418368 -0.028276684298747926 0.010383626145701257 -0.014681015025686334 -0.00044814956684907279 0.033301362608160294 -0.01611365044116974 0.01451179555484227 -0.012473834467970808 -0.027903745820124944 0.018954564766450365 -0.034145007225183342
leaf_weight=36 36 20 36 27 20 38 21 20 122 40 99 28 25 25 24 33 29 23 46 41 31 54 24 28 25 21 23 24 22 39
leaf_count=36 36 20 36 27 20 38 21 20 122 40 99 28 25 25 24 33 29 23 46 41 31 54 24 28 25 21 23 24 22 39
internal_value=0 -0.00473232 0.00454951 0.00150125 -0.00146714 0.00613027 -0.0109818 0.000864939 0.0165631 -0.0147199 0.0126847 0.0172342 -0.017084 0.00639195 0.0125538 0.00273577 -0.0257434 -0.0152518 -0.013899 -0.0152362 -0.0128556 -0.0102101 0.0140688 0.0213272 -0.0132794 -0.00213247 -0.0164446 -0.00782011 0.00289116 -0.0228433
internal_weight=0 840 338 302 275 185 502 133 240 61 147 127 90 118 93 57 65 369 346 326 280 239 72 48 208 46 162 69 45 93
internal_count=1080 840 338 302 275 185 502 133 240 61 147 127 90 118 93 57 65 369 346 326 280 239 72 48 208 46 162 69 45 93
shrinkage=0.1


Tree=6
num_leaves=31
num_cat=0
split_feature=6 1 0 10 8 1 9 7 9 8 9 8 1 10 7 0 7 7 10 0 11 11 11 0 4 11 5 1 1 8
split_gain=6.94065 3.877 2.3788 2.29096 2.31054 2.11357 1.60417 1.86165 1.69034 1.41685 1.37312 1.36371 2.9549 1.35996 1.33664 1.86396 1.36533 1.29269 1.35424 1.28179 0.924927 1.43029 0.874881 0.801196 0.706587 0.604826 0.577958 0.869769 0.886446 1.05064
threshold=0.28963794000000004 -0.43532822999999993 0.25947682000000005 -0.077337164999999986 0.0068586650000000008 0.058900420000000002 -0.24399598999999997 -0.027511644999999998 0.14852480000000004 0.55567233000000005 -0.03877126999999999 0.13656332000000002 1.0000000180025095e-35 0.15351290000000004 0.10580096500000001 -0.074167154999999998 0.047159725000000007 0.038921565000000005 0.051060375000000012 0.030002110000000002 0.23774122500000003 0.092391845000000014 -0.04779812499999999 0.14551461000000002 0.016060615000000004 0.098575895000000011 -0.085815974999999975 -0.19195987999999997 0.12235247500000002 -0.077344999999999983
decision_type=2 2 2 2 2 2 2 2 2 2 2 2 2 2 2 2 2 2 2 2 2 2 2 2 2 2 2 2 2 2
left_child=1 -1 3 4 10 24 -6 8 -8 17 -3 23 -13 22 16 -16 25 18 -2 -19 21 -12 -14 26 -4 -9 -5 -28 29 -29
right_child=9 2 5 11 6 -7 7 14 -10 -11 20 12 13 -15 15 -17 -18 19 -20 -21 -22 -23 -24 -25 -26 -27 27 28 -30 -31
leaf_value=0.023411055778463682 0.03113786205649376 -0.035576242208480838 0.03208916118511787 -0.02391705574854365 -0.021936350911855699 -0.012426191472238111 -0.024805327930620739 0.021170313358306887 0.012235635112632405 0.024304993897676472 0.0055103967587153118 -0.021898475854561249 0.029830831646919249 -0.013979547222455344 0.021019479632377627 -0.019695017907930459 0.033791122991930357 -0.018633954061402214 0.0042414208253224693 0.011399357616901399 0.00731828191450664 -0.0276824530433206 0.0050302706884615351 -0.030496860256320552 0.010695050421514009 -0.0028574667193672874 -0.02961567056675752 -0.019850886541028179 -0.021784214600920677 0.001993114344383541
leaf_weight=48 36 22 26 53 20 31 28 20 22 100 21 58 25 21 22 23 44 27 39 30 28 34 33 38 38 22 24 31 40 76
leaf_count=48 36 22 26 53 20 31 28 20 22 100 21 58 25 21 22 23 44 27 39 30 28 34 33 38 38 22 24 31 40 76
internal_value=0 -0.00419309 -0.00584934 -0.00785105 -0.00134166 0.00900545 0.00493882 0.00790845 -0.0085073 0.0153265 -0.0133643 -0.0128432 -0.00475848 0.00782531 0.014174 0.000209848 0.0214808 0.00852456 0.0171517 -0.00282695 -0.00747679 -0.0150088 0.0157202 -0.0170707 0.0193864 0.00858433 -0.0147931 -0.0119652 -0.00908347 -0.00433552
internal_weight=0 848 800 705 306 95 201 181 50 232 105 399 137 79 131 45 86 132 75 57 83 55 58 262 64 42 224 171 147 107
internal_count=1080 848 800 705 306 95 201 181 50 232 105 399 137 79 131 45 86 132 75 57 83 55 58 262 64 42 224 171 147 107
shrinkage=0.1


Tree=7
num_leaves=31
num_cat=0
split_feature=8 10 5 4 7 7 2 8 1 6 11 11 4 1 1 8 6 10 6 3 7 11 8 5 4 4 9 10 7 3
split_gain=5.63283 3.46196 1.97902 2.24994 2.4222 2.26917 1.93793 2.04174 1.73761 1.59884 1.71023 1.64515 1.47644 1.43175 1.39946 1.25825 1.17844 1.09096 0.885704 0.834457 0.750993 1.48127 0.985672 0.749127 0.958081 1.13604 1.24865 1.01888 0.998417 0.732576
threshold=0.29081575500000006 -0.095263009999999981 0.44691868500000004 0.38501320000000006 -0.080258519999999986 0.14258137000000001 0.15159692500000002 0.024216615000000004 0.029401975000000004 0.45938788500000005 -0.12713751499999998 0.088536125000000007 -0.059108359999999992 -0.12655744499999996 -0.0086942749999999978 0.3540425900000001 0.27099458500000001 -0.16705601499999997 -0.24396350499999997 -0.10584341499999998 0.088491320000000012 -0.04779812499999999 -0.14567164499999999 -0.16362170999999998 -0.16959279499999999 -0.080597534999999984 0.032322885000000003 0.019460405000000004 -0.15100486999999999 -0.052000099999999994
decision_type=2 2 2 2 2 2 2 2 2 2 2 2 2 2 2 2 2 2 2 2 2 2 2 2 2 2 2 2 2 2
left_child=1 2 3 4 8 13 18 12 -1 10 -2 15 -8 -6 -15 -12 -13 29 -3 -20 22 -22 -21 -24 -25 -26 27 -27 -28 -16
right_child=9 6 -4 -5 5 -7 7 -9 -10 -11 11 16 -14 14 17 -17 -18 -19 19 20 21 -23 23 24 25 26 28 -29 -30 -31
leaf_value=-0.0041291381798538506 -0.019442155179770097 0.0067083470878146955 0.02597225118014548 0.028678480673719337 -0.013668764314868236 -0.018624101316227631 0.0089371439956483396 0.012330932997994953 -0.033578350598161874 0.021174516280492148 0.034162180170868382 -0.020989949052984066 -0.023807007297873498 0.024639059437645806 -0.019195837974548342 0.0069447376046861929 0.012549242675304412 0.022267793389883911 -0.024834519104352075 -0.029641592502593996 -0.0080921463466979357 -0.038277016425954886 -0.025069926381111149 -0.022212412781440295 0.012933452278375626 -0.010739319523175557 -0.0023550908565521242 0.019422186911106112 -0.029413773318131765 0.0062609438712780303
leaf_weight=51 23 21 36 27 22 34 21 72 33 123 33 22 40 63 20 35 20 22 63 21 37 29 20 26 40 21 25 24 30 26
leaf_count=51 23 21 36 27 22 34 21 72 33 123 33 22 40 63 20 35 20 22 63 21 37 29 20 26 40 21 25 24 30 26
internal_value=0 -0.00402539 0.00382556 0.00115012 -0.00159256 0.00474378 -0.00937685 0.000926518 -0.0156985 0.0129567 0.0053568 0.010542 -0.0125344 0.00993665 0.0139009 0.0201532 -0.00501891 0.00395234 -0.0132154 -0.0144606 -0.0120666 -0.0213552 -0.00910503 -0.00678638 -0.00458354 -0.00130961 -0.00700684 0.00534682 -0.0171144 -0.00480722
internal_weight=0 824 334 298 271 187 490 133 84 256 133 110 61 153 131 68 42 68 357 336 273 66 207 186 166 140 100 45 55 46
internal_count=1080 824 334 298 271 187 490 133 84 256 133 110 61 153 131 68 42 68 357 336 273 66 207 186 166 140 100 45 55 46
shrinkage=0.1


Tree=8
num_leaves=31
num_cat=0
split_feature=6 10 0 8 2 7 0 7 10 9 1 2 11 6 5 8 7 1 5 10 0 11 4 4 0 8 3 9 4 9
split_gain=4.66689 2.88619 1.94744 1.61949 1.54564 2.09005 2.05157 1.83787 1.61252 1.55123 1.53703 1.07173 0.999633 1.34996 1.47272 0.864061 0.885482 0.738883 0.734494 0.689862 0.68924 0.679368 0.678418 1.27714 1.37421 0.994308 0.669985 0.616356 0.857767 1.28067
threshold=0.28963794000000004 -0.44314999999999999 0.25947682000000005 -0.026904519999999998 0.13635564000000003 0.12896417500000004 0.012056210000000001 -0.0050718299999999994 -0.070411739999999987 0.036308655000000002 0.058900420000000002 -0.037208744999999994 0.18485525000000003 0.65162419000000005 0.22272665500000002 -0.30785637999999993 -0.29216226499999992 -0.088313219999999984 -0.081956159999999986 0.30416014500000005 -0.16026880999999996 0.032972240000000007 -0.10238506999999998 -0.012938879999999998 -0.056290864999999995 0.19355588000000004 -0.037443484999999992 0.049819515000000002 0.04810422000000001 -0.03877126999999999
decision_type=2 2 2 2 2 2 2 2 2 2 2 2 2 2 2 2 2 2 2 2 2 2 2 2 2 2 2 2 2 2
left_child=1 17 3 15 6 7 8 -6 9 11 -4 20 13 14 19 -3 -17 -1 -8 21 -5 -2 25 -24 -25 -10 -9 28 29 -18
right_child=12 2 10 4 5 -7 18 26 22 -11 -12 -13 -14 -15 -16 16 27 -19 -20 -21 -22 -23 23 24 -26 -27 -28 -29 -30 -31
leaf_value=0.028810915350914002 0.0084491267319648494 0.001371118575334549 0.016166277314935414 0.0060596965253353124 -0.0042393744405772957 -0.022476340457797051 -0.027364723626957382 0.033473213586737126 -0.032606345166762668 -0.01296707413026265 -0.011920081465332598 -0.0033051989078521729 0.027636987615276026 0.023327525044387246 0.022775725932682261 0.0022349716652007331 -0.021370005453455038 0.0043090361356735232 -0.011559966094391321 -0.017356289142654056 0.028703173704263642 -0.011078359365463258 0.015650504112243651 -0.02235336344689131 0.0079144100348154719 -0.0035099042498547097 0.01040707476437092 -0.02713894625194371 -0.027302002673968675 0.0088943883224769874
leaf_weight=32 62 30 70 20 36 20 43 34 24 28 27 25 37 53 34 21 29 20 93 21 41 25 25 40 24 23 20 64 32 27
leaf_count=32 62 30 70 20 36 20 43 34 24 28 27 25 37 53 34 21 29 20 93 21 41 25 25 40 24 23 20 64 32 27
internal_value=0 -0.00343833 -0.00492944 -0.00677201 -0.00369267 0.00676442 -0.00667267 0.0132624 -0.00129556 0.00747646 0.00834842 0.0141325 0.0125677 0.0097084 0.00462521 -0.0142959 -0.0170127 0.0193871 -0.0165571 -0.00108884 0.0212791 0.00283778 -0.00864857 -0.00351602 -0.0110029 -0.0183677 0.0249302 -0.019672 -0.0142414 -0.00677824
internal_weight=0 848 796 699 496 110 386 90 250 114 97 86 232 195 142 203 173 52 136 108 61 87 136 89 64 47 54 152 88 56
internal_count=1080 848 796 699 496 110 386 90 250 114 97 86 232 195 142 203 173 52 136 108 61 87 136 89 64 47 54 152 88 56
shrinkage=0.1


Tree=9
num_leaves=31
num_cat=0
split_feature=8 4 11 9 4 4 2 8 3 6 8 2 3 6 9 5 4 8 10 9 0 1 7 1 11 11 9 10 9 11
split_gain=3.84185 2.58594 2.61822 2.10319 1.76872 1.85253 1.39079 2.67907 1.54321 1.64862 1.70174 1.33884 1.67006 1.04949 1.15867 1.24886 1.46106 1.75683 1.00044 1.13812 0.898005 0.932821 1.12405 1.08278 0.851219 1.4224 0.744674 0.671318 1.09583 1.13245
threshold=0.30415821000000004 0.38501320000000006 0.41849148000000008 0.036308655000000002 -0.060987094999999998 -0.089426904999999987 0.16003301000000003 0.026615885000000002 -0.060433719999999989 0.16784551000000003 0.16471209500000003 0.26671689000000004 -0.029550999999999997 0.45938788500000005 -0.24950141999999997 0.17238770000000003 0.14897564500000002 0.3540425900000001 0.019460405000000004 -0.082588669999999989 0.12355829500000001 -0.065697414999999995 -0.13453581999999997 -0.11309374999999998 -0.042581319999999999 -0.11546832499999998 -0.097871984999999981 -0.20475479999999999 -0.03877126999999999 -0.19050512499999997
decision_type=2 2 2 2 2 2 2 2 2 2 2 2 2 2 2 2 2 2 2 2 2 2 2 2 2 2 2 2 2 2
left_child=1 2 3 4 5 27 8 -8 -6 10 18 20 -13 14 -2 16 17 -16 19 -10 21 22 -5 -24 25 -23 -9 -1 29 -29
right_child=13 -3 -4 11 6 -7 7 26 9 -11 -12 12 -14 -15 15 -17 -18 -19 -20 -21 -22 24 23 -25 -26 -27 -28 28 -30 -31
leaf_value=0.016599241870900859 -0.017500714510679246 0.02230168067310986 0.019909363736708961 -0.014004341298240727 -0.023694829963720763 0.025595262990548064 -0.024574267734651982 0.00054860427266075504 0.0014684079133945964 -0.028159035183489323 0.027112106829881667 -0.012643257708385073 0.024385763349987211 0.017661625366719041 0.011583501458168031 0.029892400042577223 0.022064721928193018 -0.025906019091606142 0.0084611287520777786 -0.029355071783065796 -0.028541570974559317 -0.021480571829220831 -0.008742451146245004 0.024163167625665668 -0.025962297505501549 0.012128239572048187 0.02401290724152013 0.0091034446721491614 0.010650918996611308 -0.017545198190670748
leaf_weight=23 20 38 42 59 65 39 23 21 23 24 20 29 21 122 25 22 26 25 31 25 41 34 20 20 66 20 38 23 43 52
leaf_count=23 20 38 42 59 65 39 23 21 23 24 20 29 21 122 25 22 26 25 31 25 41 34 20 20 66 20 38 23 43 52
internal_value=0 -0.00318804 -0.00439579 -0.00573897 -0.00137273 0.00630565 -0.00649164 0.00437565 -0.0112316 -0.00464539 0.00105489 -0.0120771 0.00290893 0.0111582 0.00443422 0.00891074 0.0028371 -0.00716126 -0.00554188 -0.0145855 -0.014959 -0.0124161 -0.00523073 0.00771036 -0.0183441 -0.00903286 0.0156612 0.00097022 -0.00207611 -0.00937295
internal_weight=0 840 802 760 450 180 270 82 188 123 99 310 50 240 118 98 76 50 79 48 260 219 99 40 120 54 59 141 118 75
internal_count=1080 840 802 760 450 180 270 82 188 123 99 310 50 240 118 98 76 50 79 48 260 219 99 40 120 54 59 141 118 75
shrinkage=0.1


Tree=10
num_leaves=31
num_cat=0
split_feature=6 1 5 5 0 8 0 10 7 7 0 2 2 2 8 5 2 5 8 2 10 2 6 6 10 10 6 6 4 0
split_gain=3.22803 2.16542 1.76511 1.20663 1.2893 1.54402 1.71423 1.14903 1.10997 1.44227 1.55212 1.37271 1.30342 1.07224 1.67718 0.8717 1.36889 1.3714 1.00401 0.787471 0.741139 0.735325 0.713873 0.675945 0.675777 0.650525 0.61946 0.898608 0.571691 0.532775
threshold=0.28963794000000004 -0.43532822999999993 -0.29993976499999997 -0.16362170999999998 0.42131384500000008 0.052447870000000001 -0.23089404499999996 0.16190869000000002 -0.063396124999999984 0.13054123000000004 -0.037786604999999994 0.08998400500000002 -0.025011044999999996 0.071913040000000025 0.19573165500000003 0.058490890000000011 -0.15818228999999998 -0.083079084999999983 -0.062565604999999982 0.20091649500000003 0.10269192500000002 0.08998400500000002 -0.10381739999999999 -0.21226430999999998 0.10269192500000002 -0.14846145499999996 0.61814821000000009 0.34347501500000005 0.016060615000000004 -0.027581849999999995
decision_type=2 2 2 2 2 2 2 2 2 2 2 2 2 2 2 2 2 2 2 2 2 2 2 2 2 2 2 2 2 2
left_child=1 -1 -3 24 5 15 -7 8 13 11 -11 12 -10 14 -8 16 18 -18 -5 28 -2 -9 23 -17 25 -4 27 -22 -19 -24
right_child=20 2 3 4 -6 6 7 21 9 10 -12 -13 -14 -15 -16 22 17 19 -20 -21 26 -23 29 -25 -26 -27 -28 -29 -30 -31
leaf_value=0.01777033591642976 0.015328654658077354 0.017862878143787383 -0.021563403443856675 -0.0060189784318208693 0.019023283074299496 -0.025248818218708037 -0.016159915470558665 -0.024901995683709779 0.015575110675259072 0.010863125494548253 -0.018918195068836213 0.02380490053225966 -0.010715688900514083 -0.024493254138075789 0.023435469269752502 -0.016289470344781877 -0.02594921378753124 -0.017242890519973558 0.024616519718066509 0.011956577313443024 0.016116863914898465 0.001060442253947258 -0.03119269854882184 0.0077808686345815659 -0.027691981918884046 0.0020141911506652834 0.016190811786158332 -0.0086075796764724117 0.00023252897792392309 -0.01483135543142756
leaf_weight=48 133 35 22 20 24 25 23 24 44 35 35 68 33 23 20 28 39 39 23 24 21 20 34 20 33 25 29 49 36 48
leaf_count=48 133 35 22 20 24 25 23 24 44 35 35 68 33 23 20 28 39 39 23 24 21 20 34 20 33 25 29 49 36 48
internal_value=0 -0.00285958 -0.00409738 -0.0051021 -0.00374486 -0.00457154 -1.56574e-05 0.00192535 0.00427822 0.00776043 -0.00402753 0.0134512 0.00430763 -0.00706536 0.00225654 -0.00969874 -0.00521195 -0.0100664 0.0103675 -0.00380953 0.0104523 -0.0131009 -0.0159457 -0.00626016 -0.0167234 -0.00902213 0.00390117 -0.00119025 -0.00885469 -0.0216153
internal_weight=0 848 800 765 685 661 350 325 281 215 70 145 77 66 43 311 181 138 43 99 232 44 130 48 80 47 99 70 75 82
internal_count=1080 848 800 765 685 661 350 325 281 215 70 145 77 66 43 311 181 138 43 99 232 44 130 48 80 47 99 70 75 82
shrinkage=0.1


Tree=11
num_leaves=31
num_cat=0
split_feature=8 2 2 4 9 7 6 8 1 7 11 2 11 4 6 10 4 2 2 7 0 0 7 2 5 6 8 4 0 4
split_gain=2.631 1.9855 1.84321 1.57332 1.51042 1.77399 1.67284 1.37006 1.33387 1.22176 1.54361 1.00081 0.988872 0.94373 0.90452 0.917656 0.803693 0.910223 1.24618 0.806954 0.795726 0.799058 1.00833 0.758346 0.731079 0.96593 1.37868 0.759004 0.680228 0.665476
threshold=0.29081575500000006 0.52112729000000013 -0.55235158499999992 0.38501320000000006 0.036308655000000002 0.12690555500000003 -0.039261449999999996 -0.10205034499999999 -0.23525183999999996 -0.028962489999999997 -0.029516129999999998 0.0082656600000000011 -0.056960004999999994 -0.16587897999999998 0.16330467500000004 0.048362350000000005 -0.12282158499999998 0.14648768000000004 -0.14579133999999996 0.061361270000000009 -0.0017309849999999998 -0.14072092999999999 -0.13600359999999997 0.082944125000000021 0.15628306000000003 0.45938788500000005 0.36215694000000004 0.067193545000000007 -0.033324989999999992 0.012856910000000001
decision_type=2 2 2 2 2 2 2 2 2 2 2 2 2 2 2 2 2 2 2 2 2 2 2 2 2 2 2 2 2 2
left_child=1 2 -1 4 5 7 11 -4 -9 12 23 -7 -10 -6 20 -16 -12 18 -18 -20 21 -15 -23 -11 25 26 28 -28 -2 -22
right_child=24 -3 3 -5 13 6 -8 8 9 10 16 -13 -14 14 15 -17 17 -19 19 -21 29 22 -24 -25 -26 -27 27 -29 -30 -31
leaf_value=0.017162783667445183 0.022747845823566121 0.021281620814944759 -0.015939206650128237 0.017970188835571551 -0.023051218794924874 0.014964814643774714 -0.020949406638930117 -0.020253711044788361 0.008930905610322953 -0.013561172564240062 0.033930527418851851 -0.013536859303712845 -0.020406521525647908 -0.016076257905444584 0.017883266314216283 -0.0084795662472324992 0.022647843509912492 0.024196195290532227 -0.013301523943101207 0.011420070218003314 -0.0058520877155764355 0.020628892183303833 -0.0087698691657611318 0.010978917926549911 0.017079236534865282 0.013951971205441574 -0.027934727221727376 -0.002785100738207499 0.00016088292002677918 -0.024112845910713079
leaf_weight=40 24 33 37 29 56 28 79 20 20 34 20 22 27 37 23 31 30 43 31 23 29 20 28 20 76 76 20 30 30 64
leaf_count=40 24 33 37 29 56 28 79 20 20 34 20 22 27 37 23 31 30 43 31 23 29 20 28 20 76 76 20 30 30 64
internal_value=0 -0.00275109 -0.00375372 -0.00486778 -0.0057851 -0.00205919 -0.0118899 0.00209873 0.00458904 0.00659249 0.00998654 0.00242408 -0.00792251 -0.0113998 -0.00858743 0.00274905 0.0152979 0.0123637 0.00630654 -0.00277196 -0.0120266 -0.00503294 0.00347961 -0.00447225 0.00885507 0.00538265 -0.000879546 -0.012845 0.0101995 -0.0184186
internal_weight=0 824 791 751 722 434 129 305 268 248 201 50 47 288 232 54 147 127 84 54 178 85 48 54 256 180 104 50 54 93
internal_count=1080 824 791 751 722 434 129 305 268 248 201 50 47 288 232 54 147 127 84 54 178 85 48 54 256 180 104 50 54 93
shrinkage=0.1


Tree=12
num_leaves=31
num_cat=0
split_feature=6 1 5 5 0 8 0 7 7 2 0 1 11 9 6 2 10 8 5 5 3 5 2 5 2 6 0 10 10 11
split_gain=2.17245 1.57617 1.10695 0.888852 0.933234 1.13982 1.28842 0.87393 0.951029 1.00924 1.19827 0.999548 1.17073 0.882288 0.835907 0.816396 0.727276 0.720184 0.795122 0.986534 1.13768 0.694536 1.027 1.1293 0.599005 0.573679 0.521298 0.517923 0.535158 0.47341
threshold=0.28544006000000005 -0.43532822999999993 -0.29993976499999997 -0.16362170999999998 0.42131384500000008 0.052447870000000001 -0.23089404499999996 0.26138754000000003 -0.027511644999999998 0.11725186000000001 -0.033324989999999992 -0.061547429999999993 -0.049053239999999991 -0.083121754999999978 0.15885945500000001 -0.030027314999999995 -0.066686834999999986 0.73701749500000013 0.24320383000000004 0.054011695000000005 -0.035474969999999995 0.058490890000000011 -0.16586626499999998 -0.083079084999999983 0.20091649500000003 -0.13333889499999999 -0.023183199999999998 0.10269192500000002 -0.14846145499999996 -0.082314234999999986
decision_type=2 2 2 2 2 2 2 2 2 2 2 2 2 2 2 2 2 2 2 2 2 2 2 2 2 2 2 2 2 2
left_child=1 -1 -3 27 5 21 -7 8 11 10 14 -8 -13 -12 15 -10 -2 18 19 20 -18 22 -5 -24 29 -23 -27 28 -4 -25
right_child=16 2 3 4 -6 6 7 -9 9 -11 13 12 -14 -15 -16 -17 17 -19 -20 -21 -22 25 23 24 -26 26 -28 -29 -30 -31
leaf_value=0.015226487132410208 0.015304592505414437 0.014221250265836717 -0.018825475532900204 0.0099488686397671694 0.016318338240186372 -0.021714561700820922 0.0086115634178414065 -0.016114274680614472 0.027183755952864888 0.0167895366188506 0.0049346999989615548 0.0029546673481280986 -0.025418657380523103 -0.01944014344251517 -0.0070185777544975285 0.0024839946757192199 0.022086420158545176 0.018334809264966421 0.016608176752924919 -0.019456554044570244 -0.0065359193377378519 -0.0045681825076991861 -0.022678827513486911 0.0047632793585459391 0.011143373946348827 -0.027542205315989415 -0.011673809905001458 -0.02379499353242643 0.0025595011115074162 -0.012116381415614377
leaf_weight=48 94 34 22 40 24 25 34 25 32 71 27 26 33 33 20 23 21 28 24 28 41 44 39 24 24 37 47 33 25 54
leaf_count=48 94 34 22 40 24 25 34 25 32 71 27 26 33 33 20 23 21 28 24 28 41 44 39 24 24 37 47 33 25 54
internal_value=0 -0.00237164 -0.00343283 -0.00422054 -0.0030508 -0.00375728 0.00015899 0.00184676 0.00334852 0.00713791 0.00206187 -0.00504517 -0.0129152 -0.00847146 0.0104885 0.0168548 0.00848162 0.003965 0.000435569 -0.00387713 0.00315874 -0.0081805 -0.00419362 -0.00820567 -0.00267181 -0.0138182 -0.0186635 -0.0141926 -0.00745049 -0.00692264
internal_weight=0 844 796 762 682 658 349 324 299 206 135 93 59 60 75 55 236 142 114 90 62 309 181 141 102 128 84 80 47 78
internal_count=1080 844 796 762 682 658 349 324 299 206 135 93 59 60 75 55 236 142 114 90 62 309 181 141 102 128 84 80 47 78
shrinkage=0.1


Tree=13
num_leaves=31
num_cat=0
split_feature=3 8 4 11 8 2 3 2 8 3 4 4 10 4 7 1 8 0 5 6 8 8 9 0 1 10 4 5 5 9
split_gain=1.95881 1.67633 1.45196 1.3402 1.1059 1.36942 1.51359 0.872812 0.834799 0.830169 0.845968 0.710528 1.77834 0.995849 1.11774 0.808171 0.743488 0.732468 0.678662 0.763273 1.4243 0.674335 0.68758 0.657813 0.772462 0.636548 0.609646 0.817358 1.05919 1.02202
threshold=0.51940847000000012 0.29081575500000006 0.38501320000000006 0.41849148000000008 -0.026904519999999998 0.11725186000000001 -0.22585300499999997 -0.16261002499999996 0.059505215000000007 0.06627530500000002 -0.084749244999999987 -0.067570544999999982 0.019460405000000004 -0.015695254999999995 0.18336581000000002 -0.088313219999999984 0.16260469500000005 -0.059153719999999993 0.15628306000000003 0.45938788500000005 0.36215694000000004 0.081912095000000018 0.021186125000000004 0.11131146000000001 -0.04898178999999999 -0.047729334999999991 0.16312615000000003 0.032135870000000004 0.17238770000000003 -0.018552084999999996
decision_type=2 2 2 2 2 2 2 2 2 2 2 2 2 2 2 2 2 2 2 2 2 2 2 2 2 2 2 2 2 2
left_child=1 2 3 4 26 7 -7 9 -8 -6 -11 12 15 -13 16 -9 21 -17 19 20 25 22 -15 -10 -25 -3 27 29 -29 -1
right_child=-2 18 -4 -5 5 6 8 11 23 10 -12 13 -14 14 -16 17 -18 -19 -20 -21 -22 -23 -24 24 -26 -27 -28 28 -30 -31
leaf_value=-0.01864253282546997 0.027665617167949675 0.02152090600945733 0.016484849316042823 0.015042917720145649 -0.010943752641861256 -0.019095511585474016 -0.0056403163671493537 -0.0081707114726305013 0.022959799456353094 -0.0056652801483869555 0.020116278997489384 -0.026577701560548835 -0.018455613538240778 0.010944473370909692 -0.027437262361248334 0.0035110079723855723 0.0072097143903374671 0.029033632847395813 0.014404715617236339 0.010815383820501094 -0.015537471518568373 -0.023430892700950307 -0.01496323577704884 0.021084090173244478 -0.005056523015865913 -0.00072044922459510072 -0.020332267601042987 -0.023343804356726734 -0.0030153714120388034 0.0053604111075401311
leaf_weight=24 25 22 37 36 26 20 25 20 49 20 35 37 39 20 24 23 40 22 76 73 46 24 21 20 26 31 48 55 48 68
leaf_count=24 25 22 37 36 26 20 25 20 49 20 35 37 39 20 24 23 40 22 76 73 46 24 21 20 26 31 48 55 48 68
internal_value=0 -0.000655583 -0.00286533 -0.00379515 -0.00471909 -0.00198839 0.00637374 -0.00532372 0.0106186 0.00378058 0.0107412 -0.008055 -0.00157394 -0.0121154 -0.00796733 0.00855506 -0.00351706 0.0159887 0.00653502 0.00305771 -0.0026626 -0.0101182 -0.00232533 0.0148973 0.00630896 0.00851181 -0.0102367 -0.00775159 -0.0138704 -0.000901226
internal_weight=0 1055 807 770 734 491 140 351 120 81 55 270 104 166 129 65 105 45 248 172 99 65 41 95 46 53 243 195 103 92
internal_count=1080 1055 807 770 734 491 140 351 120 81 55 270 104 166 129 65 105 45 248 172 99 65 41 95 46 53 243 195 103 92
shrinkage=0.1


Tree=14
num_leaves=31
num_cat=0
split_feature=3 10 6 2 9 9 4 1 5 10 0 10 5 10 11 7 2 0 4 9 7 0 7 2 2 3 11 4 7 1
split_gain=1.58664 1.37661 1.26446 1.18709 1.00736 1.27709 1.27192 0.963786 0.896591 1.07236 1.3721 0.892571 0.851258 1.0101 1.05007 0.987285 0.936071 0.810665 0.77026 0.678394 0.935574 1.14844 0.647775 0.644783 1.18504 0.632273 0.62287 0.612252 0.581178 0.452396
threshold=0.51940847000000012 -0.44314999999999999 0.65162419000000005 0.52112729000000013 -0.24950141999999997 0.042655725000000005 0.36110381500000005 -0.23525183999999996 0.10022699500000003 0.031513940000000011 0.013866180000000001 -0.022856739999999997 0.16099822500000002 -0.27567836999999995 -0.015693139999999998 -0.028962489999999997 -0.0060765899999999989 -0.066172339999999982 -0.19937761499999998 -0.0064564849999999988 0.10580096500000001 -0.033324989999999992 -0.24886883999999995 0.23664652500000002 -0.027988334999999996 -0.0072711999999999994 0.018295740000000001 -0.11718529999999998 0.03503000500000001 0.029401975000000004
decision_type=2 2 2 2 2 2 2 2 2 2 2 2 2 2 2 2 2 2 2 2 2 2 2 2 2 2 2 2 2 2
left_child=1 29 3 4 26 7 8 -6 9 11 17 23 13 -9 16 -16 28 -11 -14 20 -17 -22 -10 24 -7 -18 -3 -20 -15 -1
right_child=-2 2 -4 -5 5 6 -8 12 22 10 -12 -13 18 14 15 19 25 -19 27 -21 21 -23 -24 -25 -26 -27 -28 -29 -30 -31
leaf_value=0.019026856223742169 0.024899055540561679 -0.0059460630019505826 0.013347514691176239 0.017179145961999893 -0.014730242101682556 0.0088903166113361229 0.016915245070343927 -0.021847723424434664 -0.030802456498146058 -0.011235572317881245 -0.023199373732010524 0.019804072096234276 -0.0016927109445844378 -0.0014200085943395441 -0.015056466236710548 0.017102959371627646 -0.0045794619149283362 0.015124539285898209 0.031265533491969109 -0.0065639338527734466 0.017307795464992524 -0.010926056039683961 -0.011643321737647058 0.01333861157298088 -0.015724027100599038 0.013356055517991385 -0.026034152764698556 0.01037552759368369 -0.021655287444591526 0.0015292219817638398
leaf_weight=45 25 33 54 30 36 31 21 20 25 28 57 21 35 22 20 94 57 20 20 26 25 34 60 20 53 30 29 47 40 22
leaf_count=45 25 33 54 30 36 31 21 20 25 28 57 21 35 22 20 94 57 20 20 26 25 34 60 20 53 30 29 47 40 22
internal_value=0 -0.000590025 -0.0015307 -0.00239089 -0.00304034 -0.00213451 -0.00691377 0.00103907 -0.00850237 -0.00525907 -0.0127092 0.000999073 0.00224693 6.36342e-06 0.00126235 0.00601556 -0.0050859 -0.000252192 0.0103305 0.00836997 0.0109078 0.00103744 -0.0172784 -0.00279809 -0.00664016 0.0016052 -0.0153421 0.0166114 -0.014475 0.0132814
internal_weight=0 1055 988 934 904 842 336 506 315 230 105 125 470 368 348 199 149 48 102 179 153 59 85 104 84 87 62 67 62 67
internal_count=1080 1055 988 934 904 842 336 506 315 230 105 125 470 368 348 199 149 48 102 179 153 59 85 104 84 87 62 67 62 67
shrinkage=0.1


Tree=15
num_leaves=31
num_cat=0
split_feature=3 6 2 0 5 6 11 2 4 6 2 2 7 7 0 0 11 11 9 2 5 4 2 9 4 4 4 11 0 5
split_gain=1.28517 1.20238 0.881877 0.897159 0.926936 0.727182 0.636803 0.95785 0.955312 0.913104 0.764988 0.877535 1.09322 1.16453 1.05279 1.03449 0.785096 0.921238 1.21463 0.808922 0.81954 1.43789 0.73546 0.73066 0.858922 0.611132 0.589903 0.583469 0.5534 0.516085
threshold=0.51940847000000012 0.28544006000000005 -0.41929082999999995 0.52323388500000012 0.31904967000000006 -0.33284250499999996 -0.11258459999999999 -0.011867649999999999 0.040095185000000005 0.096164470000000016 0.33632426500000007 0.13635564000000003 0.12690555500000003 -0.017231334999999997 0.0098282850000000008 0.23449444500000002 -0.079708634999999986 0.18485525000000003 -0.024202789999999998 -0.027988334999999996 0.10811213000000001 0.071908075000000002 0.10905908500000001 -0.043280119999999991 -0.099572509999999989 -0.056360949999999993 0.041218370000000011 0.18485525000000003 0.12040126000000001 0.20763518000000003
decision_type=2 2 2 2 2 2 2 2 2 2 2 2 2 2 2 2 2 2 2 2 2 2 2 2 2 2 2 2 2 2
left_child=1 2 -1 4 5 -4 7 -7 9 -9 11 14 13 -13 16 25 -8 18 23 20 21 -20 -10 24 -18 -16 -27 29 -28 -3
right_child=-2 27 3 -5 -6 6 10 8 22 -11 -12 12 -14 -15 15 -17 17 -19 19 -21 -22 -23 -24 -25 -26 26 28 -29 -30 -31
leaf_value=0.011151825782397519 0.022409149736166003 0.00052117976567728067 -0.021343481043974558 0.017810618355870247 -0.022582156211137773 -0.018482436409644917 0.018209135472774508 0.022319316507681555 0.0016198802366852762 -0.0065218494761557812 -0.018831312073313674 -0.0032160947338128703 -0.014646961316466332 0.018187649047946279 -0.0014074518471150785 0.012094940990209579 -0.015834166498287863 0.012132628594941283 0.018957362890243534 -0.023373255303927833 -0.021359694302082063 -0.017016239538788797 -0.024600247131741568 0.021713711246848108 0.0075909225308165261 -0.027613384160213174 -0.004075203708759168 0.0177776828621115 -0.023735351217063994 0.01204071436767225
leaf_weight=46 25 139 21 20 25 57 25 23 20 21 23 39 20 73 37 20 23 47 25 35 20 20 23 20 49 32 41 35 22 54
leaf_count=46 25 139 21 20 25 57 25 23 20 21 23 39 20 73 37 20 23 47 25 35 20 20 23 20 49 32 41 35 22 54
internal_value=0 -0.000531022 -0.00230362 -0.00309613 -0.00364558 -0.00300235 -0.00246366 -0.0084064 -0.00180486 0.00855421 -0.00096497 -0.000215106 0.00688887 0.0107346 -0.00246925 -0.00909912 0.00134794 -0.00041578 -0.00348753 -0.0111165 -0.00451669 0.0029691 -0.0124048 0.00480482 0.000107908 -0.0123103 -0.0165567 0.00589852 -0.0109407 0.00374426
internal_weight=0 1055 827 781 761 736 715 144 87 44 571 548 132 112 416 152 264 239 192 100 65 45 43 92 72 132 95 228 63 193
internal_count=1080 1055 827 781 761 736 715 144 87 44 571 548 132 112 416 152 264 239 192 100 65 45 43 92 72 132 95 228 63 193
shrinkage=0.1


Tree=16
num_leaves=31
num_cat=0
split_feature=8 1 11 3 5 9 4 6 7 7 0 7 1 4 11 5 11 3 4 2 11 8 2 2 3 10 0 11 6 11
split_gain=1.0652 1.09784 0.846676 0.926559 0.792608 0.747097 1.0356 0.859537 1.15891 0.92909 0.817318 0.798083 1.32743 0.827028 0.953343 0.800732 0.711276 0.659133 0.578149 0.760359 0.560294 0.685528 0.498735 0.491204 0.441051 0.410349 0.771565 0.566234 0.78099 0.685583
threshold=0.29081575500000006 0.53931122500000017 0.17945166500000001 -0.17424291499999997 0.08861933000000001 0.036308655000000002 -0.16587897999999998 0.14227173000000001 -0.30430842499999994 -0.20796284999999998 0.23449444500000002 0.10580096500000001 -0.19195987999999997 -0.060987094999999998 -0.026259179999999997 0.024111850000000004 0.062334980000000005 0.11052603500000001 0.062573855000000012 0.096926640000000022 -0.029516129999999998 0.094337395000000004 0.16305569000000003 0.071913040000000025 -0.052000099999999994 0.16190869000000002 -0.023183199999999998 0.050739350000000009 0.28544006000000005 -0.0058136399999999993
decision_type=2 2 2 2 2 2 2 2 2 2 2 2 2 2 2 2 2 2 2 2 2 2 2 2 2 2 2 2 2 2
left_child=1 2 5 -4 23 10 -7 8 -8 -9 11 12 -1 14 -14 22 -16 -12 19 -10 21 -13 24 -5 -15 27 -27 29 -29 -2
right_child=25 -3 3 4 -6 6 7 9 18 -11 17 20 13 15 16 -17 -18 -19 -20 -21 -22 -23 -24 -25 -26 26 -28 28 -30 -31
leaf_value=-0.020685934189420482 0.0079965296853333721 0.020288010551170868 -0.016048485562205315 0.005737167057630263 0.013613074272871018 -0.02190742192996873 0.011785638772628525 -0.013089973089240849 -0.013654175251722337 0.012383311854468452 -0.0033043235540390018 0.0094525382518768318 -0.0056232856078581375 -0.013560734726488591 0.032840697264129463 -0.013721956861646553 0.0089958977853429722 0.020132339944442114 -0.01988679413048048 0.0097797368839383138 -0.017051195962862534 -0.012968894317746164 0.014668927102216654 -0.012311261475086212 0.0051541462978895976 -0.017626575082540515 0.0063310801619436688 -0.011883644706436568 0.0083967985869464242 0.026177529777799337
leaf_weight=26 80 22 20 38 79 45 22 21 45 45 20 25 22 20 22 38 29 30 63 20 55 30 28 25 34 20 41 28 59 28
leaf_count=26 80 22 20 38 79 45 22 21 45 45 20 25 22 20 22 38 29 30 63 20 55 30 28 25 34 20 41 28 59 28
internal_value=0 -0.00175049 -0.00235504 0.00410305 0.00694129 -0.00398974 -0.0081069 -0.00523179 -0.00941618 0.00427818 -0.00115444 -0.00296479 0.000525807 0.00338335 0.0117762 -0.00172232 0.0192819 0.0107577 -0.0130602 -0.00644374 -0.00991427 -0.00277733 0.00383849 -0.00142491 -0.00177729 0.00563439 -0.00152389 0.00787365 0.00186976 0.0127101
internal_weight=0 824 802 162 142 640 261 216 150 66 379 329 219 193 73 120 51 50 128 65 110 55 82 63 54 256 61 195 87 108
internal_count=1080 824 802 162 142 640 261 216 150 66 379 329 219 193 73 120 51 50 128 65 110 55 82 63 54 256 61 195 87 108
shrinkage=0.1


Tree=17
num_leaves=31
num_cat=0
split_feature=3 2 8 7 6 4 7 2 2 11 0 11 11 2 2 5 2 5 5 6 2 4 4 4 5 11 11 6 4 9
split_gain=0.951421 0.866113 0.900789 0.895144 0.834782 0.797928 0.716765 1.04454 0.884878 0.788152 1.11318 0.707847 0.774397 0.651789 0.637638 0.622711 0.597834 0.643811 0.507038 0.487034 0.559846 0.55094 0.417931 0.520018 0.633992 0.488413 1.76416 0.513247 0.389426 0.388024
threshold=0.51940847000000012 0.52112729000000013 0.29081575500000006 0.12690555500000003 -0.010845654999999997 0.41472983000000002 -0.061182679999999996 0.039784000000000007 0.14892801000000003 0.34575533000000008 -0.12021058999999999 0.047638520000000011 -0.11258459999999999 0.28432811000000008 0.0082656600000000011 0.14523019000000001 0.20610043000000003 0.018819510000000005 0.24320383000000004 0.16129966000000004 -0.14373428999999996 -0.015695254999999995 0.33548753500000006 0.14606110000000003 0.15628306000000003 0.063327420000000009 -0.020183894999999997 0.40614070500000005 -0.25891942999999995 0.091985675000000017
decision_type=2 2 2 2 2 2 2 2 2 2 2 2 2 2 2 2 2 2 2 2 2 2 2 2 2 2 2 2 2 2
left_child=1 2 3 5 14 6 7 9 15 10 -1 12 -12 29 -5 19 -10 -18 -17 20 -8 -22 23 24 25 26 27 -4 -26 -9
right_child=-2 -3 22 4 -6 -7 8 13 16 -11 11 -13 -14 -15 -16 18 17 -19 -20 -21 21 -23 -24 -25 28 -27 -28 -29 -30 -31
leaf_value=-0.015028464518211507 0.019281051874160769 0.014365885191057859 -0.021029810810630975 0.010260997765830586 -0.016123277615098391 0.018578980714082718 0.0078367499873424184 -0.026477169222903975 0.021173459663987163 0.014870233778600341 -0.00014984776430270252 -0.010042988398560772 0.023311380421121918 0.00028200584650039674 -0.011277117166254257 0.013358575968844136 0.010742195149262748 -0.010821081846952438 -0.0060627159103751188 -0.017622178524732589 -0.013416575085033071 -0.00020210579843134497 -0.0091661077524934492 0.013452317296970088 -0.00099289878493263612 -0.013697314661528385 0.023061685919761658 0.0011042727530002595 0.015558441965417428 -0.011986840587286723
leaf_weight=54 25 38 22 28 85 20 39 33 30 27 34 27 24 25 27 41 45 20 20 25 55 74 21 61 21 28 25 20 44 42
leaf_count=54 25 38 22 28 85 20 39 33 30 27 34 27 24 25 27 41 45 20 20 25 55 74 21 61 21 28 25 20 44 42
internal_value=0 -0.000456897 -0.00101075 -0.00267381 -0.00991181 -0.00107803 -0.00171728 -0.0056277 0.00126315 -0.000763995 -0.00380086 0.00333197 0.00955825 -0.0137014 -0.000312259 -0.0018163 0.00949664 0.00410734 0.00699094 -0.00459994 -0.00266211 -0.00583618 0.00431517 0.00559619 0.00260105 -0.00260582 0.00202943 -0.0104898 0.0102111 -0.0183626
internal_weight=0 1055 1017 775 140 635 615 266 349 166 139 85 58 100 55 254 95 65 61 193 168 129 242 221 160 95 67 42 65 75
internal_count=1080 1055 1017 775 140 635 615 266 349 166 139 85 58 100 55 254 95 65 61 193 168 129 242 221 160 95 67 42 65 75
shrinkage=0.1


Tree=18
num_leaves=31
num_cat=0
split_feature=3 6 11 9 2 9 4 4 4 2 7 8 5 4 1 0 8 2 0 11 11 1 2 8 6 11 3 3 8 7
split_gain=0.770651 0.719786 0.788869 0.847138 0.947834 0.587276 0.839971 0.617851 0.870447 0.86079 0.805967 0.592628 0.776374 0.761359 1.06216 0.855095 0.541496 0.609662 0.854424 0.592427 0.589942 0.787434 0.484408 0.479801 0.582966 0.453053 0.614321 0.409371 0.351184 0.345199
threshold=0.51940847000000012 0.65162419000000005 0.21089494500000003 -0.028103114999999994 -0.04234404499999999 0.042655725000000005 -0.16587897999999998 0.38501320000000006 0.062573855000000012 0.039784000000000007 -0.11449464999999999 -0.030904074999999996 -0.20155049999999999 0.14606110000000003 -0.16860726499999998 0.015034980000000002 0.017762595000000003 0.11725186000000001 0.0098282850000000008 -0.018601419999999997 0.063327420000000009 -0.051802449999999993 0.25154180500000006 0.026615885000000002 -0.19327958999999997 0.071697910000000017 0.041615360000000011 -0.059825379999999991 -0.018754974999999997 0.063089165000000016
decision_type=2 2 2 2 2 2 2 2 2 2 2 2 2 2 2 2 2 2 2 2 2 2 2 2 2 2 2 2 2 2
left_child=1 2 5 4 -4 11 28 8 22 10 -10 29 -13 14 -14 -15 -16 18 19 -18 -21 -22 25 24 -5 26 27 -8 -7 -1
right_child=-2 -3 3 23 -6 6 7 -9 9 -11 -12 12 13 15 16 -17 17 -19 -20 20 21 -23 -24 -25 -26 -27 -28 -29 -30 -31
leaf_value=-0.0024736281119140929 0.017352946400642395 0.010225605306526026 0.0094663355499506 0.012901567543546358 -0.014920534609871753 -0.027566528543829918 -0.006275821003046903 0.013542772978544235 0.00585011459494892 -0.020749976551708054 -0.017557491641491653 -0.012792512319154209 -0.014326679052376166 -0.002009235187010332 0.015345371009842044 0.023292503133416177 -0.0079144257145958973 0.0070119335654035084 -0.013418608054518701 0.018677009282440978 0.014732826855033639 -0.01239795982837677 0.014442104067314755 0.021136040714654056 -0.0078417355008423336 0.010851681706580249 -0.014178706910461187 0.013491906970739365 -0.010866793738130261 -0.015263256720370717
leaf_weight=51 25 60 30 42 34 20 22 20 38 51 24 36 41 22 31 34 37 113 50 29 20 23 22 33 20 22 40 20 34 36
leaf_count=51 25 60 30 42 34 20 22 20 38 51 24 36 41 22 31 34 37 113 50 29 20 23 22 33 20 22 40 20 34 36
internal_value=0 -0.000411207 -0.00105262 0.00540385 -0.00348919 -0.00228059 -0.00570666 -0.00334125 -0.00475414 -0.0111268 -0.00321089 -0.000230186 0.0012735 0.00253944 0.000779168 0.0133525 0.00282319 0.00139603 -0.00259514 0.00236975 0.00765468 0.000221011 0.000960993 0.011395 0.00621018 -0.00189078 -0.00530949 0.00313738 -0.0170519 -0.00776589
internal_weight=0 1055 995 159 64 836 313 259 239 113 62 523 436 400 344 56 303 272 159 109 72 43 126 95 62 104 82 42 54 87
internal_count=1080 1055 995 159 64 836 313 259 239 113 62 523 436 400 344 56 303 272 159 109 72 43 126 95 62 104 82 42 54 87
shrinkage=0.1


Tree=19
num_leaves=31
num_cat=0
split_feature=2 3 8 10 4 3 11 3 10 2 6 2 7 2 9 11 8 2 1 11 2 7 3 10 8 9 9 6 9 11
split_gain=0.655457 0.679281 0.748067 0.679039 0.850226 0.752417 0.701655 0.620096 0.500638 0.868916 0.978062 0.794743 0.804782 0.958603 0.948067 0.491313 0.488959 0.481404 0.480941 0.860835 0.4389 0.470142 0.55436 0.433202 0.521532 0.519323 0.619595 0.425521 0.414584 0.45403
threshold=0.50810022500000007 0.32668950000000002 0.051218350000000003 0.11705926500000001 -0.015695254999999995 -0.17739716999999997 -0.12157218499999999 -0.27468106999999992 -0.018576919999999997 0.040496000000000011 0.10468980000000001 -0.034430274999999996 0.15555239000000001 0.10560641000000001 -0.064450214999999991 -0.15568723999999998 0.036882310000000008 0.11398043000000001 0.099181480000000016 0.18485525000000003 0.068356890000000017 -0.077551644999999989 0.016592550000000001 0.15920127000000003 -0.090160424999999975 0.20491951500000002 0.12429803500000002 0.052773960000000009 -0.082588669999999989 0.10772620000000001
decision_type=2 2 2 2 2 2 2 2 2 2 2 2 2 2 2 2 2 2 2 2 2 2 2 2 2 2 2 2 2 2
left_child=1 2 7 6 5 -5 -4 -1 11 10 -10 18 13 14 -13 -6 20 -7 19 -8 23 -22 -23 25 -25 26 -9 -2 -15 -30
right_child=27 -3 3 4 15 17 8 16 9 -11 -12 12 -14 28 -16 -17 -18 -19 -20 -21 21 22 -24 24 -26 -27 -28 -29 29 -31
leaf_value=0.011598491025241939 0.0023789783093062316 0.0092366567576554291 -0.014714295736380986 -0.012661058983455101 -0.0055862518958747394 0.00057576637094219527 -0.0036909379810094833 -0.0045606613799463961 -0.017148455090465999 0.016407079011615779 0.011626343139343793 0.0078758482422147478 -0.015067556118353821 -0.0041341859315122877 -0.019000476854188101 -0.021736939996480943 -0.018385055421718529 0.018239894757668178 0.020603087872266772 0.016429333217643404 -0.017955885420358458 0.0031663750347338225 -0.016246696158001821 -0.0040736360306089575 0.017700658874078231 -0.017327190692035054 0.014365601204335691 0.022279932669230871 0.0062175567306223369 0.024523770622909072
leaf_weight=22 22 67 21 24 48 36 50 128 21 72 27 21 39 21 35 31 28 27 25 37 43 38 24 22 22 26 20 21 42 20
leaf_count=22 22 67 21 24 48 36 50 128 21 72 27 21 39 21 35 31 28 27 25 37 43 38 24 22 22 26 20 21 42 20
internal_value=0 -0.000501655 -0.0011743 0.00102079 -0.00441353 0.0024062 0.00311382 -0.00468762 0.00402696 0.00945919 -0.000962631 0.00177914 -0.00237339 0.00118828 -0.00892185 -0.0119239 -0.0057084 0.00814611 0.00837871 0.00486596 -0.00460949 -0.00992097 -0.00434836 -0.00205122 0.00681351 -0.00429287 -0.00200306 0.012098 0.00800958 0.0121228
internal_weight=0 1037 970 597 166 87 431 373 410 120 48 290 178 139 56 79 351 63 112 87 323 105 62 218 44 174 148 43 83 62
internal_count=1080 1037 970 597 166 87 431 373 410 120 48 290 178 139 56 79 351 63 112 87 323 105 62 218 44 174 148 43 83 62
shrinkage=0.1


Tree=20
num_leaves=31
num_cat=0
split_feature=4 8 2 3 2 4 4 10 4 8 9 5 8 8 1 10 7 10 6 4 7 1 11 4 5 7 2 4 8 10
split_gain=0.602995 0.558251 0.46529 0.459705 0.689465 1.11402 0.545807 0.460675 0.706448 0.588555 0.521425 0.496136 0.4579 0.627196 0.785553 0.570444 0.773562 0.598608 0.510435 0.441649 0.42673 0.389732 0.368924 0.362971 0.378058 0.415739 0.445758 0.371002 0.347158 0.341549
threshold=0.44577327500000002 0.29081575500000006 0.11532368500000001 -0.15603617499999997 0.28098233000000006 0.041218370000000011 -0.15552899999999997 -0.027843314999999997 -0.060987094999999998 -0.13979149499999996 0.20491951500000002 0.021171760000000001 0.24395523000000002 0.15331429000000005 0.016996930000000004 0.15920127000000003 -0.053672699999999997 0.051060375000000012 -0.036643614999999991 0.29705791000000009 -0.028962489999999997 0.15499349000000004 0.058978250000000003 0.14606110000000003 0.15628306000000003 0.17950967500000004 1.0000000180025095e-35 -0.26944823999999995 0.48783952500000011 -0.047729334999999991
decision_type=2 2 2 2 2 2 2 2 2 2 2 2 2 2 2 2 2 2 2 2 2 2 2 2 2 2 2 2 2 2
left_child=1 3 -2 6 7 -6 -1 8 10 20 -5 -10 13 15 -15 17 -17 18 -11 23 -9 -8 -23 24 25 26 -3 -26 -29 -27
right_child=2 19 -4 4 5 -7 21 9 11 12 -12 -13 -14 14 -16 16 -18 -19 -20 -21 -22 22 -24 -25 27 29 -28 28 -30 -31
leaf_value=-0.021243483961924263 0.022833756385371093 -0.017880691316994754 0.0012631733715534211 0.0076195201286787381 0.020085857043395175 -0.0092073902115225783 -0.016675719432532789 -0.021987518879274529 -0.00070596972772897764 0.009835109228025312 -0.0096119132777676003 -0.013804257661104203 -0.01594936961065168 -0.0014025712651865824 0.022712019763209607 0.018456143394789914 -0.0054736829655511049 -0.016735466759727927 -0.0095712165263566115 -0.010516876745969059 -0.0031299497559666638 -0.0058599781934861785 0.0084563651846514803 0.011964760381462318 -0.0029145639017224313 0.015866872109472751 9.4079709536320464e-05 0.022909926161879587 0.0056230596051766325 -0.0021892528642307629
leaf_weight=23 20 22 20 144 37 20 20 30 121 23 20 38 23 35 22 22 35 49 33 20 20 54 27 56 20 20 37 21 26 22
leaf_count=23 20 22 20 144 37 20 20 30 121 23 20 38 23 35 22 22 35 49 33 20 20 54 27 56 20 20 37 21 26 22
internal_value=0 -0.000463402 0.0120485 -0.00174614 -0.000713828 0.00980752 -0.00734058 -0.00168898 0.000913277 -0.0045675 0.00551813 -0.00383638 -0.0025268 -0.00111712 0.00790481 -0.00429151 0.00376239 -0.00866362 -0.00160076 0.00372125 -0.0144445 -0.00417457 -0.00108786 0.00499251 0.00266843 -0.00119525 -0.00660838 0.00849279 0.013347 0.0064089
internal_weight=0 1040 40 796 672 57 124 615 323 292 164 159 242 219 57 162 57 105 56 244 50 101 81 224 168 101 59 67 47 42
internal_count=1080 1040 40 796 672 57 124 615 323 292 164 159 242 219 57 162 57 105 56 244 50 101 81 224 168 101 59 67 47 42
shrinkage=0.1


Tree=21
num_leaves=31
num_cat=0
split_feature=3 6 2 0 5 1 8 7 5 10 7 5 0 1 6 1 4 11 7 11 2 8 4 4 11 0 0 4 8 1
split_gain=0.532089 0.504864 0.52586 0.737341 0.669628 0.491869 0.462535 0.554673 0.542466 0.629916 0.445303 0.355462 0.613085 0.608453 0.491233 0.431176 0.406057 0.342793 0.339261 0.530982 1.22405 0.769077 0.530657 0.963961 0.492497 0.450654 0.787406 0.836541 0.581459 0.466057
threshold=0.51940847000000012 0.65162419000000005 0.50810022500000007 0.36907836500000007 -0.29993976499999997 0.44860065000000005 0.052447870000000001 -0.25864846999999996 0.38625117000000003 -0.25983410999999995 -0.20337719499999998 0.067572300000000016 0.049623050000000009 0.0076892950000000005 -0.081478924999999994 0.10201369500000002 0.062573855000000012 -0.042581319999999999 0.14258137000000001 0.063327420000000009 -0.030027314999999995 0.27771926000000008 -0.16587897999999998 -0.12796545499999998 -0.21682206499999998 -0.048184799999999993 0.0098282850000000008 0.019852700000000004 0.16260469500000005 0.064146630000000024
decision_type=2 2 2 2 2 2 2 2 2 2 2 2 2 2 2 2 2 2 2 2 2 2 2 2 2 2 2 2 2 2
left_child=1 2 3 4 -1 6 8 -8 9 -6 -9 12 16 -13 -14 -15 -11 -18 22 21 -21 -20 -12 -24 -25 29 -27 -28 -29 -26
right_child=-2 -3 -4 -5 5 -7 7 10 -10 11 18 13 14 15 -16 -17 17 -19 19 20 -22 -23 23 24 25 26 27 28 -30 -31
leaf_value=0.013153715612310352 0.014419051022501662 0.008566655591130257 0.010503169273336728 -0.016513540283326182 -0.017960967552481274 -0.016475430130958559 -0.015330276601016522 0.015906293512809845 0.008984982558796482 0.0082841184347459719 -0.0073891303026013908 -0.015218848425761931 0.0023074963101834961 0.0099544130589651041 -0.013125376681035215 -0.0098645110925038651 0.0045563295159650888 -0.013114977769908451 -0.0074095922327318863 0.0045978567252556481 -0.027019205972552304 0.012255448767462292 0.024404585090550511 -0.011706870777363126 -0.0084618981384361799 0.020243256198508402 -0.006604531882148163 -0.0011839157291527454 0.016822130502538481 0.0069758645174178213
leaf_weight=33 25 60 39 31 33 21 20 21 31 73 45 56 33 23 55 21 23 21 43 24 25 37 22 22 48 35 51 29 47 33
leaf_count=33 25 60 39 31 33 21 20 21 31 73 45 56 33 23 55 21 23 21 43 24 25 37 22 22 48 35 51 29 47 33
internal_value=0 -0.000341684 -0.00087887 -0.0013432 -0.000834789 -0.0013523 -0.000987679 0.000988038 -0.00367551 -0.00483668 0.00166515 -0.00341667 -0.00103233 -0.00830459 -0.00733805 0.000495381 0.00371044 -0.0038777 0.00101642 -0.0033356 -0.0115333 0.00168549 0.00270741 0.00429049 0.00262064 0.00391779 0.0069629 0.00330296 0.0099514 -0.00217244
internal_weight=0 1055 995 956 925 892 871 502 369 338 482 305 205 100 88 44 117 44 461 129 49 80 332 287 265 243 162 127 76 81
internal_count=1080 1055 995 956 925 892 871 502 369 338 482 305 205 100 88 44 117 44 461 129 49 80 332 287 265 243 162 127 76 81
shrinkage=0.1


Tree=22
num_leaves=31
num_cat=0
split_feature=3 8 9 4 5 5 0 2 2 0 7 3 1 10 10 9 1 9 1 7 7 4 0 8 2 8 10 9 10 10
split_gain=0.438061 0.417096 0.478319 0.516701 0.447053 0.811364 0.656993 0.615594 0.655688 0.615336 0.672407 0.400704 0.554413 0.509729 0.97917 0.671083 0.571635 0.799117 0.58944 0.818236 0.535577 0.487751 0.571304 0.456104 0.551832 0.43205 0.326574 0.318419 0.275033 0.360689
threshold=0.32668950000000002 0.73701749500000013 -0.35999890999999995 0.44577327500000002 -0.085815974999999975 -0.048284814999999995 0.034271020000000006 0.29316435500000004 0.20091649500000003 0.42131384500000008 -0.34065364499999995 -0.17739716999999997 0.25861978000000008 0.15920127000000003 0.031513940000000011 -0.017891389999999997 0.10008138500000001 0.18052155500000003 -0.17721850499999997 -0.012824959999999998 0.069201080000000012 -0.060987094999999998 -0.063655029999999987 0.23964759000000002 0.16305569000000003 0.29336688500000008 0.10073538000000001 -0.00081594499999999989 0.24018017500000002 -0.065315124999999988
decision_type=2 2 2 2 2 2 2 2 2 2 2 2 2 2 2 2 2 2 2 2 2 2 2 2 2 2 2 2 2 2
left_child=1 2 -1 4 7 6 -6 8 28 10 -7 12 -12 14 16 -15 17 18 19 -13 26 22 27 24 -23 -14 -16 -20 29 -4
right_child=-2 -3 3 -5 5 9 -8 -9 -10 -11 11 13 25 15 20 -17 -18 -19 21 -21 -22 23 -24 -25 -26 -27 -28 -29 -30 -31
leaf_value=-0.015207855597786283 0.0077091530620025982 0.0089958840684795927 -0.010846898397978616 0.012084368327932974 0.021711353560288749 -0.01905365593376614 0.0016739940581222375 -0.021170061968621756 0.0090715758657703809 0.015938892038095565 -0.017536899796687069 0.0067467743605375292 -0.0074903684894780864 -0.0018303129318598156 -0.022821102765473455 0.016969850334601525 -0.010517059670140346 -0.01644407944753766 0.0098559796659124874 -0.019388433837372324 0.00046039618817823272 -0.009357530100548522 0.018636851025007242 0.0096673866479911608 0.010474941115826369 0.010752317048609258 -0.007092009068318559 -0.0055611423083714081 -0.015031441825407525 -0.00044040760840289298
leaf_weight=23 69 44 51 31 30 21 36 21 36 21 32 25 37 37 33 39 36 20 37 23 28 47 53 44 20 20 22 21 27 96
leaf_count=23 69 44 51 31 30 21 36 21 36 21 32 25 37 37 33 39 36 20 37 23 28 47 53 44 20 20 22 21 27 96
internal_value=0 -0.000526144 -0.000959411 -0.000612256 -0.00104336 0.000244471 0.0107819 -0.00484552 -0.00321306 -0.000884538 -0.00147831 -0.000835305 -0.00700312 0.000296522 -0.00110095 0.00781714 0.00136791 0.00284329 0.00427198 -0.00577635 -0.0107979 0.0064446 0.0111319 0.0017573 -0.00343739 -0.00108943 -0.0165295 0.00427392 -0.00575471 -0.00405082
internal_weight=0 1011 967 944 913 682 66 231 210 616 595 574 89 485 409 76 326 290 270 48 83 222 111 111 67 57 55 58 174 147
internal_count=1080 1011 967 944 913 682 66 231 210 616 595 574 89 485 409 76 326 290 270 48 83 222 111 111 67 57 55 58 174 147
shrinkage=0.1


Tree=23
num_leaves=31
num_cat=0
split_feature=11 0 9 7 8 4 2 10 11 9 4 1 5 3 1 4 7 1 10 9 11 9 8 11 10 9 1 2 2 4
split_gain=0.406814 0.559955 0.50944 0.538267 0.518276 1.12674 0.666155 0.738239 0.875771 0.544974 0.526125 0.684519 0.502439 0.49053 0.604499 0.636773 0.69435 0.5492 0.472948 0.464676 0.455999 0.832555 0.582973 0.360185 0.417917 0.348825 0.302454 0.295514 0.335758 0.272276
threshold=0.25529769500000005 -0.37525172999999995 0.31129052500000004 -0.31706064499999992 0.13656332000000002 0.04810422000000001 0.23954020000000001 0.031513940000000011 -0.17517242499999999 -0.065725064999999985 -0.048139144999999987 -0.11050251499999998 -0.0071635849999999992 0.13531935500000003 0.0056508950000000004 -0.16587897999999998 0.14101985500000003 0.081077565000000018 -0.11413203499999998 -0.059484359999999993 -0.049053239999999991 -0.00081594499999999989 0.2970413950000001 -0.042581319999999999 0.13125825500000002 0.0085496050000000018 -0.071305669999999988 0.14648768000000004 0.057743620000000002 0.15812065500000003
decision_type=2 2 2 2 2 2 2 2 2 2 2 2 2 2 2 2 2 2 2 2 2 2 2 2 2 2 2 2 2 2
left_child=1 -1 3 -3 5 6 7 10 -9 29 11 -5 -12 14 23 -16 20 -18 -13 -2 22 -22 -17 24 -6 -15 -25 28 -11 -7
right_child=19 2 -4 4 13 9 -8 8 -10 27 12 18 -14 25 15 16 17 -19 -20 -21 21 -23 -24 26 -26 -27 -28 -29 -30 -31
leaf_value=-0.015205665591817637 -0.0047819255877818382 0.013303230479359628 -0.012336278115125264 -0.0075296818562175924 -0.022083318089558324 -0.0096256826411594051 0.014288496258942521 0.005241987993940711 -0.014786709220621919 -0.013655057114859424 0.0045371284475550057 0.0051055418389538932 -0.013805571557687864 0.0053934380439902424 -0.0080089664741142385 0.028332220562375512 0.0076815883750500887 -0.013730145186185838 0.020367365471414618 0.0086058418004540723 0.013873918233691036 -0.011055376043631918 0.0071558074882397283 -0.0097984198311513119 -0.003515961076374407 0.020164046950993084 0.0047992694913409654 -0.021285213797818871 0.001306184297427535 0.0047364007794495795
leaf_weight=26 35 30 34 23 22 22 34 34 61 60 32 45 28 67 37 26 23 25 37 100 37 21 26 22 27 21 40 32 20 33
leaf_count=26 35 30 34 23 22 22 34 34 61 60 32 45 28 67 37 26 23 25 37 100 37 21 26 22 27 21 40 32 20 33
internal_value=0 -0.000733563 -0.000324124 0.00013736 -0.0003246 -0.00260072 0.0011253 -0.00059604 -0.00761854 -0.0091603 0.00344722 0.0077158 -0.0040228 0.00233858 0.000446384 0.00379975 0.00656509 -0.00347036 0.011992 0.00513494 0.0109442 0.00484779 0.017744 -0.00544467 -0.0118523 0.00891824 -0.000380556 -0.0131635 -0.00991475 -0.00100843
internal_weight=0 945 919 885 855 461 294 260 95 167 165 105 60 394 306 195 158 48 82 135 110 58 52 111 49 88 62 112 80 55
internal_count=1080 945 919 885 855 461 294 260 95 167 165 105 60 394 306 195 158 48 82 135 110 58 52 111 49 88 62 112 80 55
shrinkage=0.1


Tree=24
num_leaves=31
num_cat=0
split_feature=5 3 5 8 3 2 4 11 5 11 9 0 4 6 11 11 4 9 8 7 7 6 1 9 9 5 0 0 0 2
split_gain=0.373826 0.908271 0.717513 0.355791 0.37652 0.438236 0.842141 0.428169 0.415041 0.381427 0.373915 0.394026 0.348153 0.313744 0.313142 0.53437 0.481638 0.463176 0.453261 0.31107 0.585289 0.466228 0.405352 0.418179 0.640455 0.668166 0.416571 0.347679 0.652409 0.912501
threshold=-0.29993976499999997 -0.17739716999999997 -0.24435825499999997 0.29081575500000006 -0.21194517999999998 0.28098233000000006 0.041218370000000011 0.17945166500000001 0.032135870000000004 0.16148829000000003 0.19872062500000001 0.017976665000000006 -0.34897241999999995 -0.58244839999999998 -0.10253597999999998 0.050739350000000009 0.063812365000000024 -0.17733626999999999 0.3540425900000001 0.090727895000000017 0.061361270000000009 0.20202834500000003 -0.23085266999999995 -0.012169139999999997 -0.03505044999999999 0.012160635000000001 0.15531217500000002 -0.059153719999999993 -0.010825159999999999 0.0088422100000000014
decision_type=2 2 2 2 2 2 2 2 2 2 2 2 2 2 2 2 2 2 2 2 2 2 2 2 2 2 2 2 2 2
left_child=1 -1 -2 4 8 7 -7 9 -4 12 11 13 -6 -9 17 18 -17 -5 -16 20 22 -21 -14 24 25 -24 27 -25 -29 -30
right_child=2 -3 3 14 5 6 -8 10 -10 -11 -12 -13 19 -15 15 16 -18 -19 -20 21 -22 -23 23 26 -26 -27 -28 28 29 -31
leaf_value=0.023189471467681553 -0.019186131507158283 -0.0028630794258788228 -0.00038015571966146434 0.0088418439707972796 -0.014775298621971161 0.016598320016876247 -0.0075280524466348727 0.00010216793577585901 -0.015564964173568618 -0.015607443097091856 -0.0082923103496432317 -0.003666757649086692 -0.011300540961591263 0.014545122830126928 0.022434912413358689 -0.0095248674014301021 0.0060404313169419768 -0.0093047064705154836 0.0064846371090219873 -0.0029297691291180726 0.012305319630023508 -0.019563675578683618 0.0088670173252467076 -0.0066343328700615815 0.019700464245397599 -0.011492513865232468 -0.015846375854951994 0.017549161677775177 0.012226593655844531 -0.009833935469388962
leaf_weight=23 20 32 36 22 20 39 23 21 36 21 20 27 35 53 25 33 50 39 62 107 36 20 40 65 24 27 21 23 30 50
leaf_count=23 20 32 36 22 20 39 23 21 36 21 20 27 35 53 25 33 50 39 62 107 36 20 40 65 24 27 21 23 30 50
internal_value=0 0.00803162 -0.000430965 -5.77281e-05 -0.00108563 -0.000379274 0.00764821 -0.00115694 -0.00797256 -0.00240583 0.0041999 0.00667361 -0.00184914 0.0104464 0.0033864 0.00559189 -0.000148181 -0.00276005 0.011068 -0.0013083 0.00022619 -0.00554928 -0.00115428 0.000114001 0.00568345 0.00066243 -0.00256759 -0.000907737 0.00270613 -0.00156124
internal_weight=0 55 1025 1005 774 702 62 640 72 519 121 101 498 74 231 170 83 61 87 478 351 127 315 280 91 67 189 168 103 80
internal_count=1080 55 1025 1005 774 702 62 640 72 519 121 101 498 74 231 170 83 61 87 478 351 127 315 280 91 67 189 168 103 80
shrinkage=0.1


Tree=25
num_leaves=31
num_cat=0
split_feature=3 8 9 4 11 4 9 11 5 5 10 10 7 9 10 1 9 2 8 5 10 9 4 11 1 11 9 9 9 9
split_gain=0.351493 0.332165 0.3814 0.359682 0.295484 0.543752 0.436511 0.427751 0.323087 0.424819 0.415153 0.507288 0.57617 0.387887 0.634957 0.794233 0.514082 0.547685 0.641722 0.87859 0.484449 0.444139 0.378978 0.350194 0.541336 0.536969 0.301718 0.29318 0.68401 0.469701
threshold=0.51940847000000012 0.73701749500000013 -0.35999890999999995 0.44577327500000002 0.17945166500000001 -0.31509082999999999 0.35905771500000006 0.16148829000000003 -0.09944273499999999 -0.11733075499999999 0.24018017500000002 -0.11413203499999998 -0.14136024999999999 -0.016010309999999996 0.18096894000000002 0.081077565000000018 -0.03877126999999999 1.0000000180025095e-35 0.18566312500000001 -0.0089998499999999985 -0.098696874999999976 -0.10641734999999998 -0.17968958999999998 0.050739350000000009 0.016996930000000004 -0.077144679999999979 -0.026505364999999999 -0.010070189999999998 -0.11855489999999998 0.20491951500000002
decision_type=2 2 2 2 2 2 2 2 2 2 2 2 2 2 2 2 2 2 2 2 2 2 2 2 2 2 2 2 2 2
left_child=1 2 -1 4 5 -4 7 8 9 10 11 -7 -13 16 22 -16 17 20 19 -19 -10 -21 -15 24 -24 -26 -18 28 -6 -29
right_child=-2 -3 3 -5 27 6 -8 -9 13 -11 -12 12 -14 14 15 -17 26 18 -20 21 -22 -23 23 -25 25 -27 -28 29 -30 -31
leaf_value=-0.012381721922644863 0.011719324486330153 0.0080326000451231786 -0.0141092171553861 0.010093559231609107 0.0075724866082210367 -0.013001798652112484 -0.015556911323219539 -0.013992701859577843 0.0040527869529765224 -0.015035616362403179 -0.01266704883115987 0.019519494958221913 -1.2971821331208752e-07 -0.015290713255052213 0.019164471328258516 -0.0054282861761748794 0.01949965499474534 0.012170986362616532 0.012629243234292634 -0.00050957727112940375 -0.01283536810518765 -0.019263902792464135 -0.012637532023680315 0.0043280120491265102 0.012234840109944344 -0.0061179781078614971 0.0050660522513984087 0.01172436041142646 -0.010693972948484304 -0.0021978089251579384
leaf_weight=27 25 46 33 32 41 20 20 23 29 29 27 20 62 27 29 24 28 32 62 28 41 23 57 52 25 44 30 64 41 39
leaf_count=27 25 46 33 32 41 20 20 23 29 29 27 20 62 27 29 24 28 32 62 28 41 23 57 52 25 44 30 64 41 39
internal_value=0 -0.000277709 -0.000656574 -0.000334192 -0.000685442 -0.00155272 -0.000986652 -0.000577375 -0.000129549 -0.00409935 -0.00164081 0.0012779 0.00476075 0.00105167 -0.00172853 0.00802813 0.00367912 0.00142524 0.00493205 -0.000817667 -0.00583885 -0.00896741 -0.00425099 -0.00257642 -0.00542587 0.000531594 0.012034 0.00290088 -0.00156074 0.00645286
internal_weight=0 1055 1009 982 950 765 732 712 689 158 129 102 82 531 258 53 273 215 145 83 70 51 205 178 126 69 58 185 82 103
internal_count=1080 1055 1009 982 950 765 732 712 689 158 129 102 82 531 258 53 273 215 145 83 70 51 205 178 126 69 58 185 82 103
shrinkage=0.1


Tree=26
num_leaves=31
num_cat=0
split_feature=3 1 5 8 9 6 1 0 7 11 1 9 2 11 1 10 11 8 6 8 4 2 9 9 4 10 5 5 5 6
split_gain=0.284709 0.280811 0.593331 0.523591 0.495279 0.3862 0.827361 0.496599 0.454951 0.61259 0.683328 0.537833 0.447326 0.414766 0.387065 0.419637 0.374352 0.374038 0.332327 0.342782 0.332218 0.322967 0.315589 0.57554 0.423398 0.550019 0.422661 0.618222 0.399041 0.313499
threshold=0.51940847000000012 0.3312065400000001 -0.25309292999999994 -0.032568194999999994 0.076329815000000009 0.082985480000000014 0.10634549000000001 0.067180720000000013 0.14681083500000003 0.13632600000000003 0.012330300000000001 -0.17733626999999999 0.26671689000000004 -0.031601014999999989 -0.26794864999999995 -0.0018688349999999999 0.018295740000000001 0.14775707000000002 0.17292685500000002 0.15599750500000001 -0.096715024999999996 0.068356890000000017 -0.023454389999999995 1.0000000180025095e-35 0.17834899000000001 0.15920127000000003 0.38625117000000003 0.062029920000000009 0.18563974500000002 -0.026326049999999997
decision_type=2 2 2 2 2 2 2 2 2 2 2 2 2 2 2 2 2 2 2 2 2 2 2 2 2 2 2 2 2 2
left_child=1 5 -3 -4 -5 6 12 -8 9 10 14 13 22 -10 -7 17 -13 -16 19 -12 -20 -11 28 -24 25 26 27 29 -1 -25
right_child=-2 2 3 4 -6 8 7 -9 11 21 18 16 -14 -15 15 -17 -18 -19 20 -21 -22 -23 23 24 -26 -27 -28 -29 -30 -31
leaf_value=0.0032421881977997315 0.010547392031177879 0.019353364509615032 0.014200990740209819 0.0031827742730577788 -0.017133037820458413 0.009068481931462884 -0.005685467735271562 -0.021202406456524676 0.0085974538749134227 0.016962573652909624 0.0036193998361175716 -0.02204663177863473 0.0096779811019833024 -0.0092766066361218685 0.0085516751211668768 -0.01149717910358539 -0.0047543833317655708 -0.0071623208847912878 -0.0074560180231928834 0.02073439520597458 0.0057908427985146269 0.0027810670363788426 -0.019892403621501714 0.0094632125645875941 -0.014423741729786763 0.014395744229356447 0.0084453865234972916 -0.014518741684277421 -0.0099773103854170556 -0.0063734277486801154
leaf_weight=148 25 22 20 30 20 20 55 33 37 42 22 21 37 20 28 65 31 33 25 25 78 26 22 25 26 21 25 46 27 25
leaf_count=148 25 22 20 30 20 20 55 33 37 42 22 21 37 20 28 65 31 33 25 25 78 26 22 25 26 21 25 46 27 25
internal_value=0 -0.000249938 0.00502844 0.000526318 -0.00494355 -0.000754207 -0.00272176 -0.0115043 0.00128406 0.00298118 0.00101492 -0.00438341 -0.000799205 0.00232585 -0.00385518 -0.00590656 -0.0117378 5.06609e-05 0.00575515 0.0127231 0.00257559 0.0115402 -0.00186128 -0.00468328 -0.0026916 -0.000543466 -0.00313622 -0.00615227 0.00120261 0.00154489
internal_weight=0 1055 92 70 50 963 490 88 473 364 296 109 402 57 146 126 52 61 150 47 103 68 365 190 168 142 121 96 175 50
internal_count=1080 1055 92 70 50 963 490 88 473 364 296 109 402 57 146 126 52 61 150 47 103 68 365 190 168 142 121 96 175 50
shrinkage=0.1


Tree=27
num_leaves=31
num_cat=0
split_feature=3 1 4 4 5 5 10 4 8 6 3 6 1 3 4 3 0 6 6 5 4 1 3 7 8 11 11 6 7 2
split_gain=0.252667 0.419976 0.653685 0.39587 0.437182 0.369445 0.316648 0.260216 0.24001 0.290332 0.287903 0.266176 0.508471 0.673697 0.635688 0.477826 0.448829 0.411668 0.944138 0.583754 0.477915 0.349344 0.388528 0.428349 0.349043 0.342697 0.298941 0.347652 0.29318 0.256363
threshold=0.14720816500000003 -0.15670724499999997 -0.020862889999999999 0.13305813000000002 -0.031914499999999991 -0.30561871999999995 -0.022856739999999997 0.20659148500000002 0.73701749500000013 0.49449631500000008 -0.34073365499999991 0.082985480000000014 0.012330300000000001 0.01004699 -0.080597534999999984 -0.080681619999999982 -0.110394495 -0.032946684999999996 -0.12372590999999998 0.082085220000000014 0.034582595000000008 0.051501195000000007 -0.069788599999999992 -0.13127986499999997 -0.043542319999999995 -0.038579569999999994 -0.094147179999999983 0.0023343250000000004 0.061361270000000009 0.034236690000000007
decision_type=2 2 2 2 2 2 2 2 2 2 2 2 2 2 2 2 2 2 2 2 2 2 2 2 2 2 2 2 2 2
left_child=1 2 -1 4 -2 -3 -6 -5 9 10 -7 15 13 -13 -15 16 24 18 20 29 -17 -14 23 -23 -12 -24 -18 -28 -16 -19
right_child=3 5 -4 7 6 8 -8 -9 -10 -11 11 12 21 14 28 17 26 19 -20 -21 -22 22 25 -25 -26 -27 27 -29 -30 -31
leaf_value=0.00011026019660326152 -0.011079390835145425 0.010204894276279393 -0.019714474021697997 0.015292248420198174 0.0064504600984716352 -0.011772751232439822 -0.0037186894672922794 0.0036443262667903171 0.0077283548267036116 -0.0096201095881091585 0.011190593838691712 -0.013641688618808984 0.015395273897668411 0.014742005754400184 -0.010875613306616915 0.0039654523134231567 -0.0022107678431051749 -0.0046463897887050456 0.014895513718231366 -0.016972924502566458 -0.014465358030671874 -0.004801544904708863 0.0039938856226702539 0.010109312641656116 -0.0074921038001775743 -0.013285053555261007 -0.021314583559121407 -0.0058747024927288298 0.0040660964596706132 0.0063747252170474099
leaf_weight=39 29 33 29 34 79 22 50 44 33 37 20 40 29 27 29 34 27 46 52 25 24 25 24 84 20 22 35 25 24 39
leaf_count=39 29 33 29 34 79 22 50 44 33 37 20 40 29 27 29 34 27 46 52 25 24 25 24 84 20 22 35 25 24 39
internal_value=0 -0.000808811 -0.00834441 0.00289253 1.48705e-05 -0.000148475 0.00250893 0.00872163 -0.000608315 -0.000995794 -0.000521649 -0.000141428 0.00201891 -0.00304533 0.00225285 -0.00203406 -0.0069181 0.000785367 0.00511112 -0.00354039 -0.00366109 0.00532168 0.00343694 0.00668939 0.00184925 -0.00426995 -0.0109491 -0.0148813 -0.00410956 0.000410357
internal_weight=0 844 68 236 158 776 129 78 743 710 673 651 304 120 80 347 127 220 110 110 58 184 155 109 40 46 87 60 53 85
internal_count=1080 844 68 236 158 776 129 78 743 710 673 651 304 120 80 347 127 220 110 110 58 184 155 109 40 46 87 60 53 85
shrinkage=0.1


Tree=28
num_leaves=31
num_cat=0
split_feature=3 1 8 11 3 11 8 8 5 2 4 11 4 11 3 3 9 8 7 10 4 11 0 8 10 6 4 10 9 5
split_gain=0.218821 0.228763 0.449814 0.321197 0.31004 0.50903 0.313469 0.303526 0.286653 0.315176 0.487785 0.296326 0.463445 0.335667 0.314054 0.657347 0.389169 0.43542 0.560584 0.340296 0.40479 0.37503 0.361044 0.600482 0.274194 0.343674 0.525266 0.457884 0.273633 0.507493
threshold=0.51940847000000012 0.3312065400000001 -0.043542319999999995 0.012281980000000001 -0.17424291499999997 0.14293768000000004 0.55567233000000005 0.48783952500000011 -0.24435825499999997 0.26671689000000004 0.041218370000000011 0.17945166500000001 -0.32728903499999995 0.16148829000000003 0.21617057500000003 0.17732296500000003 -0.012169139999999997 0.29081575500000006 0.10580096500000001 0.15174746000000003 -0.044557744999999989 -0.11939540499999998 -0.059153719999999993 0.087694410000000014 -0.17651567499999996 0.091159725000000011 -0.46150185999999999 -0.25625558999999992 -0.03877126999999999 -0.0081917549999999985
decision_type=2 2 2 2 2 2 2 2 2 2 2 2 2 2 2 2 2 2 2 2 2 2 2 2 2 2 2 2 2 2
left_child=1 4 -3 -4 5 -1 7 8 -6 11 -11 12 -10 14 15 16 17 18 28 21 -21 -18 -23 -24 25 26 -13 -28 29 -14
right_child=-2 2 3 -5 6 -7 -8 -9 9 10 -12 24 13 -15 -16 -17 19 -19 -20 20 -22 22 23 -25 -26 -27 27 -29 -30 -31
leaf_value=-0.0023310400006410323 0.0092467365488410006 0.01599198868870735 -0.0061512867816620404 0.007735164487554182 -0.0099318401515483858 -0.020261257116217166 0.0058867025171639407 -0.01226401332427155 -0.016211001362119403 0.01137944412426496 -0.0063336985566737978 0.0082537513924762617 0.007833432960615028 -0.013147539916363631 -0.0084944693907164047 0.017542212917691185 -0.019072839841246608 0.011499516763502644 -0.0076128079571196293 0.013775970618284884 -0.0031619747927369075 -0.01161627085371451 -0.0088677625046906672 0.0083537253923714177 0.014554355933796614 0.011560790169124421 -0.019026501747694883 0.0018797381734475494 0.011451421881793067 -0.0077514286983657536
leaf_weight=76 25 25 36 31 30 20 80 22 21 53 22 30 48 22 45 21 20 42 61 21 43 44 41 40 20 26 22 20 36 37
leaf_count=76 25 25 36 31 30 20 80 22 21 53 22 30 48 22 45 21 20 42 61 21 43 44 41 40 20 26 22 20 36 37
internal_value=0 -0.000219117 0.00454504 0.000273788 -0.00067426 -0.0060665 -7.71946e-05 -0.000683436 -0.0003504 4.06797e-05 0.00618359 -0.000657378 -0.00164605 -0.00105898 -0.000526021 0.000263803 -0.00057418 0.00232166 0.000203691 -0.00367785 0.00239579 -0.00635863 -0.00432436 -0.000363324 0.00388383 0.00170617 -0.00185244 -0.00907115 0.00414424 0.00104943
internal_weight=0 1055 92 67 963 96 867 787 765 735 75 660 542 521 499 454 433 224 182 209 64 145 125 81 118 98 72 42 121 85
internal_count=1080 1055 92 67 963 96 867 787 765 735 75 660 542 521 499 454 433 224 182 209 64 145 125 81 118 98 72 42 121 85
shrinkage=0.1


Tree=29
num_leaves=31
num_cat=0
split_feature=5 3 5 6 7 8 8 1 1 10 10 4 4 11 11 10 2 1 9 3 0 11 11 8 11 11 5 6 4 2
split_gain=0.1929 0.482328 0.479555 0.204332 0.282654 0.931713 0.263492 0.201995 0.424867 0.373113 0.379656 0.370243 0.67078 0.463839 0.439787 0.53111 0.385996 0.33169 0.322938 0.322029 0.268811 0.234489 0.38088 0.296958 0.398548 0.495957 0.345321 0.360278 1.21203 0.63158
threshold=-0.29993976499999997 -0.17739716999999997 -0.24435825499999997 0.29526336500000006 0.038921565000000005 0.40370455500000008 0.45768352000000007 -0.066629184999999994 -0.079139014999999993 -0.28127780999999996 0.29648942000000006 0.13939598500000003 0.19192401000000001 0.25529769500000005 0.019292860000000005 0.0028049650000000004 -0.15432012999999997 -0.039426199999999995 0.016307140000000001 0.052008725000000006 -0.77827201999999984 -0.17517242499999999 -0.12394922499999998 0.27969934000000002 0.17945166500000001 0.13120620000000002 0.18563974500000002 -0.032946684999999996 0.007905220000000001 0.13635564000000003
decision_type=2 2 2 2 2 2 2 2 2 2 2 2 2 2 2 2 2 2 2 2 2 2 2 2 2 2 2 2 2 2
left_child=1 -1 -2 7 6 -6 -5 8 11 -9 17 13 -13 14 15 -4 -16 19 -17 -11 -15 -19 -23 24 25 26 27 28 -24 -29
right_child=2 -3 3 4 5 -7 -8 9 -10 10 -12 12 -14 20 16 18 -18 21 -20 -21 -22 22 23 -25 -26 -27 -28 29 -30 -31
leaf_value=0.01681535639192747 -0.015642508715391159 -0.0021697827498428526 0.012183959023268135 0.011363510220070129 -0.01602170169353485 0.0051251030948667514 0.0010025959288597936 -0.01163760099459339 0.011182123581391736 -0.016866898779635844 -0.012928900022346241 0.019638665455083054 -0.0045355272691019561 -0.0013512847839261999 -0.0013052528303477073 0.0021323106753138397 -0.015806687598427138 0.0091352212146438416 -0.011001977252049579 -0.0003081767819821835 0.013539875712659626 -0.012116957888007165 0.022518838955355544 0.0084342693260242765 0.0081552302050921649 -0.01606325079565463 -0.011202373397019176 -0.0074971788321380271 -0.0057680939691084803 0.0069787293017725465
leaf_weight=23 20 32 27 54 29 74 45 37 38 23 26 24 22 22 31 39 45 29 36 24 27 25 28 43 45 23 27 81 33 48
leaf_count=23 20 32 27 54 29 74 45 37 38 23 26 24 22 22 31 39 45 29 36 24 27 25 28 43 45 23 27 81 33 48
internal_value=0 0.00576946 -0.000309581 -4.4477e-06 0.00283849 -0.000828852 0.006654 -0.000719607 0.00127527 -0.00198059 -0.0011953 -0.000103711 0.0080771 -0.0017615 -0.00413319 0.00015741 -0.00989163 -0.000484171 -0.00417215 -0.00841138 0.00685405 0.000491166 -0.000218969 0.00068789 -0.000480862 -0.00210013 -0.000620167 0.000883621 0.00721607 -0.00211079
internal_weight=0 55 1025 1005 202 103 99 803 311 492 455 273 46 227 178 102 76 429 75 47 49 382 353 328 285 240 217 190 61 129
internal_count=1080 55 1025 1005 202 103 99 803 311 492 455 273 46 227 178 102 76 429 75 47 49 382 353 328 285 240 217 190 61 129
shrinkage=0.1


Tree=30
num_leaves=31
num_cat=0
split_feature=3 1 8 11 8 4 5 6 4 5 10 11 2 2 0 10 4 6 10 6 1 3 3 5 8 5 5 7 0 4
split_gain=0.174376 0.180523 0.381951 0.255567 0.251302 0.295867 0.255288 0.291576 0.270214 0.305768 0.31529 0.407239 0.263786 0.223369 0.306356 0.268187 0.2464 0.344837 0.374611 0.343117 0.404457 0.257104 0.459445 0.516667 0.418587 0.345925 0.572614 0.370005 0.343055 0.3375
threshold=0.32668950000000002 0.3312065400000001 -0.043542319999999995 0.012281980000000001 -0.040863879999999998 0.36110381500000005 -0.19382829499999996 0.012749820000000002 0.16312615000000003 -0.010030429999999998 0.10498788000000002 0.32725919500000006 0.0028328200000000002 -0.28757937499999997 -0.22073666999999997 -0.24229012499999997 -0.060987094999999998 -0.036643614999999991 -0.21668827999999998 0.082985480000000014 -0.060334699999999998 0.029904990000000003 0.15272827000000003 -0.071116229999999989 0.15599750500000001 -0.11733075499999999 -0.16362170999999998 0.12690555500000003 0.015034980000000002 -0.029052724999999998
decision_type=2 2 2 2 2 2 2 2 2 2 2 2 2 2 2 2 2 2 2 2 2 2 2 2 2 2 2 2 2 2
left_child=1 4 -3 -4 6 13 -1 8 9 -8 11 12 -11 -6 15 -15 17 -16 -19 20 -20 25 24 -24 -23 26 -18 29 -26 -27
right_child=-2 2 3 -5 5 -7 7 -9 -10 10 -12 -13 -14 14 16 -17 21 18 19 -21 -22 22 23 -25 28 27 -28 -29 -30 -31
leaf_value=0.0059498265230407323 0.0048638789833563827 0.014439546421170235 -0.0057757103401753634 0.0066110518122572577 0.010425123013556005 -0.011538254203540939 0.0083735013237366315 -0.013096298634385072 -0.013084944433775609 -0.017164637669920921 0.0075329904444515709 0.0060177898476831623 -0.0042994533569606789 0.0016714718769348805 0.012832970646294682 -0.012872149250506483 -0.00053743149699835946 0.014798002090537922 0.00077115779623172483 0.0030151262758579805 -0.01771388426423073 -0.015419027456190698 -0.0093225455967264944 0.0097566418458882257 0.0074344771152192908 -0.0075488951811888104 0.020857236373492266 -0.0093850397700934035 -0.0085013243077056763 0.0047761063253212921
leaf_weight=24 69 25 36 31 22 21 26 36 23 30 20 20 34 21 33 32 29 20 29 133 20 43 22 40 22 29 22 38 35 95
leaf_count=24 69 25 36 31 22 21 26 36 23 30 20 20 34 21 33 32 29 20 29 133 20 43 22 40 22 29 22 38 35 95
internal_value=0 -0.000331956 0.00389137 -4.45219e-05 -0.000754748 0.000153548 -0.00376535 -0.00499902 -0.00309378 -0.00132611 -0.00375101 -0.00643768 -0.01033 0.000511983 0.00018304 -0.00710958 0.000816662 0.00335551 0.00180722 0.000379658 -0.00677376 -0.000774352 -0.00377677 0.00298661 -0.00797006 0.00150918 0.00869164 -0.000751971 -0.00235066 0.00189365
internal_weight=0 1011 92 67 919 706 213 189 153 130 104 84 64 685 663 53 610 235 202 182 49 375 162 62 100 213 51 162 57 124
internal_count=1080 1011 92 67 919 706 213 189 153 130 104 84 64 685 663 53 610 235 202 182 49 375 162 62 100 213 51 162 57 124
shrinkage=0.1


Tree=31
num_leaves=31
num_cat=0
split_feature=8 3 9 1 9 7 10 8 8 6 4 1 0 11 1 1 1 5 10 10 9 0 1 1 3 8 7 8 10 7
split_gain=0.154973 0.174242 0.260741 0.188372 0.19592 0.655266 0.444881 0.330684 0.276045 0.208398 0.496289 0.400862 0.404795 0.346006 0.422838 0.388272 0.330876 0.325603 0.595335 0.413794 0.333156 0.298921 0.283149 0.365733 0.272129 0.311682 0.644868 0.258475 0.26794 0.257739
threshold=0.73701749500000013 0.51940847000000012 -0.35999890999999995 0.53931122500000017 -0.18350446999999998 0.25022709500000007 -0.14175732499999996 0.10649858500000002 0.27771926000000008 0.080785950000000009 -0.18371675499999998 0.040528650000000006 0.23243402000000005 0.13632600000000003 0.0076892950000000005 0.051501195000000007 -0.035179869999999995 0.10022699500000003 -0.035691979999999991 0.16190869000000002 0.036308655000000002 0.28463767500000003 -0.14456842999999997 -0.23525183999999996 0.041615360000000011 -0.014810859999999999 0.03503000500000001 -0.040863879999999998 -0.11663606999999999 0.055183235000000004
decision_type=2 2 2 2 2 2 2 2 2 2 2 2 2 2 2 2 2 2 2 2 2 2 2 2 2 2 2 2 2 2
left_child=1 2 -1 4 6 9 -4 -8 -9 11 16 21 -13 14 22 -16 -11 18 -17 20 -20 24 23 -12 27 -26 -27 -6 -29 -15
right_child=-2 -3 3 -5 5 -7 7 8 -10 10 13 12 -14 29 15 17 -18 -19 19 -21 -22 -23 -24 -25 25 26 -28 28 -30 -31
leaf_value=-0.010150493019156987 0.005615870067304833 0.0081655286201566934 -0.0057842874673731401 0.0080477886108888518 -0.0049276768307512011 -0.016546495960882077 0.0178083801176399 -0.0040146654743390782 0.011892601549625396 0.0010356523626493678 -0.0054589601402932949 -0.0038166957227016999 -0.017784448668360712 0.014456630772665928 0.015947359388228506 -0.0158781853637525 -0.014717353793481986 0.0093361660573546869 0.00035645006224513056 -0.0069396343547850851 0.018390407803512754 0.0090489166021785316 -0.0066176712700066025 0.013225498652318493 0.00057592031515234124 -0.018234848050291047 0.00072218083797978539 0.0013833855555276386 0.015200315549969673 0.0020574873678075771
leaf_weight=27 47 24 33 27 24 26 24 24 20 24 22 122 25 38 25 21 30 44 20 24 21 34 84 20 91 34 38 32 25 30
leaf_count=27 47 24 33 27 24 26 24 24 20 24 22 122 25 38 25 21 30 44 20 24 21 34 84 20 91 34 38 32 25 30
internal_value=0 -0.000255514 -0.000455816 -0.000189262 -0.000422142 -0.000914713 0.00374277 0.00836619 0.00321591 -0.00042386 0.00120533 -0.00196872 -0.00619216 0.00258572 0.00103679 0.00453426 -0.00771602 0.00233943 -0.0012403 0.00348887 0.00959336 0.000264539 -0.00326565 0.0034384 -0.000959513 -0.0033137 -0.00822975 0.00377793 0.00744344 0.00898642
internal_weight=0 1033 1009 982 955 854 101 68 44 828 403 425 147 349 281 155 54 130 86 65 41 278 126 42 244 163 72 81 57 68
internal_count=1080 1033 1009 982 955 854 101 68 44 828 403 425 147 349 281 155 54 130 86 65 41 278 126 42 244 163 72 81 57 68
shrinkage=0.1


Tree=32
num_leaves=31
num_cat=0
split_feature=5 5 7 7 7 4 5 8 1 3 11 8 10 9 3 1 4 9 10 0 10 8 11 4 3 1 3 3 6 2
split_gain=0.153245 0.380451 0.342841 0.159319 0.256084 0.179218 0.201716 0.309873 0.355039 0.213439 0.288013 0.262803 0.247283 0.385337 0.359928 0.509076 0.346173 0.312075 0.28571 0.194527 0.357883 0.332729 0.333492 0.285779 0.172065 0.365456 0.203219 0.380566 0.412893 0.336027
threshold=-0.29993976499999997 -0.24435825499999997 -0.073784254999999979 -0.41930496999999994 -0.34963269499999994 0.26802798500000008 -0.09944273499999999 0.13656332000000002 -0.028618489999999996 -0.17739716999999997 0.15419100000000002 0.22839984500000002 0.18096894000000002 -0.017891389999999997 -0.14709240499999995 0.10523354500000003 0.012856910000000001 0.032322885000000003 0.10979637500000002 -0.14859328999999996 -0.34347383499999995 -0.024816349999999997 0.048701460000000009 -0.21708150999999995 -0.023591134999999996 0.026400020000000003 0.054832380000000007 0.093048040000000012 0.030849395000000005 0.040496000000000011
decision_type=2 2 2 2 2 2 2 2 2 2 2 2 2 2 2 2 2 2 2 2 2 2 2 2 2 2 2 2 2 2
left_child=2 -2 -1 -3 -5 6 7 -6 -9 10 11 -8 14 -14 -11 18 -17 -15 19 20 -16 -22 -23 -21 25 -25 29 -28 -29 -26
right_child=1 3 -4 4 5 -7 9 8 -10 12 -12 -13 13 17 15 16 -18 -19 -20 23 21 22 -24 24 26 -27 27 28 -30 -31
leaf_value=0.012349678284178177 -0.013932938911020758 -0.006837387710358158 -0.0035064384788274765 0.010894016836854545 -0.007515331077835679 0.0064480861535341277 -0.0059785268564995098 -0.0072756428271532059 0.008327408810811383 0.012401386092761127 -0.014224337254251755 0.0047283580197339387 0.00025346604515872305 0.021685811951756478 0.0051683028738590932 -0.020457305014133453 -0.0022793502017686316 0.0052048907649737824 -0.0075338804908096791 0.013854067027568818 -0.014741964394162442 -0.0094255451097801021 0.0077960564839569015 -0.011395269130090518 0.015981803382081643 0.0035005117568653078 -0.0085746345216069705 -0.0048911362651300524 0.007875379487124615 0.0024388701171737235
leaf_weight=30 20 33 25 22 87 41 52 25 35 23 21 41 63 20 42 20 22 27 40 21 29 23 22 28 28 40 33 38 76 53
leaf_count=30 20 33 25 22 87 41 52 25 35 23 21 41 63 20 42 20 22 27 40 21 29 23 22 28 28 40 33 38 76 53
internal_value=0 -0.000275931 0.00514235 -4.14987e-06 0.000227843 -1.91634e-05 -0.000310865 -0.00370249 0.00182614 0.000343424 -0.00364677 -0.00125829 0.0010454 0.00536561 0.000162089 -0.00038452 -0.0109355 0.012218 0.000552355 0.00129935 -0.0022045 -0.00638907 -0.0010061 0.00258152 0.00178178 -0.00263305 0.00309848 0.000882331 0.00361987 0.00712038
internal_weight=0 1025 55 1005 972 950 909 147 60 762 114 93 648 110 538 515 42 47 473 433 116 74 45 317 296 68 228 147 114 81
internal_count=1080 1025 55 1005 972 950 909 147 60 762 114 93 648 110 538 515 42 47 473 433 116 74 45 317 296 68 228 147 114 81
shrinkage=0.1


Tree=33
num_leaves=31
num_cat=0
split_feature=5 0 5 2 7 4 9 3 1 2 8 0 3 9 0 3 5 10 0 8 0 0 6 11 10 10 1 5 10 8
split_gain=0.124128 0.337566 0.308165 0.149832 0.286343 0.214139 0.335009 0.316727 0.344944 0.279375 0.217476 0.193563 0.565681 0.368773 0.327801 0.313357 0.322244 0.36701 0.303259 0.256912 0.259186 0.248167 0.36403 0.276568 0.506505 0.322566 0.376118 0.222482 0.219895 0.218381
threshold=-0.29993976499999997 0.12861578000000004 -0.24435825499999997 0.42819423000000006 -0.41930496999999994 0.13939598500000003 -0.12188152499999998 0.12841251500000003 0.016996930000000004 0.068356890000000017 0.16471209500000003 0.0098282850000000008 0.054832380000000007 -0.25739032499999998 0.27017657 -0.0053831049999999983 0.26268681500000007 -0.19863116499999997 0.08496875000000001 0.17762150500000004 0.091771665000000016 -0.22073666999999997 -0.026326049999999997 -0.19273577999999997 0.12811893500000002 -0.027843314999999997 0.071022125000000005 0.034334530000000009 -0.21800102499999999 0.12174296500000002
decision_type=2 2 2 2 2 2 2 2 2 2 2 2 2 2 2 2 2 2 2 2 2 2 2 2 2 2 2 2 2 2
left_child=1 -1 -2 4 -4 11 -7 8 -8 -9 -10 13 15 -6 -14 16 17 -13 -17 20 -19 22 -15 -23 25 28 -27 -26 -25 -30
right_child=2 -3 3 -5 5 6 7 9 10 -11 -12 12 14 21 -16 18 -18 19 -20 -21 -22 23 -24 24 27 26 -28 -29 29 -31
leaf_value=0.014223090745508671 -0.012539645116776228 -0.0017685320350045168 -0.010622290786928855 0.0055713283910375578 -0.010657212634881338 0.009929336837547667 -0.012400928578615467 0.014759457223408391 -0.0039925846557777658 -0.00049874383063676462 0.0073323917637268705 0.0090419485041638836 -0.011723657898837701 0.0017784214833931576 0.0023145330537642753 0.015305559306095043 0.00945281982421875 0.0034189747669734062 -0.00028277181733686189 -0.012156688700779343 -0.0076441889452851484 -0.0067623350631307675 -0.010755570288244132 -0.0026043781305530242 0.0056706586852669719 -0.010854591061878536 0.0043062142500032976 0.019821053227875383 0.0096646355152810622 0.00087466383352875722
leaf_weight=22 20 33 26 46 27 51 27 24 39 24 30 20 80 62 21 24 22 40 26 40 45 27 37 35 20 36 30 25 76 45
leaf_count=22 20 33 26 46 27 51 27 24 39 24 30 20 80 62 21 24 22 40 26 40 45 27 37 35 20 36 30 25 76 45
internal_value=0 0.00462812 -0.000248338 -3.7349e-06 -0.000271152 1.73043e-05 0.00296456 0.000497868 -0.00281838 0.00713036 0.000931318 -0.000761442 -0.00262265 0.000647757 -0.00880483 0.000254771 -0.00182453 -0.00353557 0.00719963 -0.00554798 -0.00243799 0.00142443 -0.002906 0.00288264 0.00385798 0.00189703 -0.00396332 0.013532 0.0043764 0.00639564
internal_weight=0 55 1025 1005 959 933 195 144 96 48 69 738 318 420 101 217 167 145 50 125 85 393 99 294 267 222 66 45 156 121
internal_count=1080 55 1025 1005 959 933 195 144 96 48 69 738 318 420 101 217 167 145 50 125 85 393 99 294 267 222 66 45 156 121
shrinkage=0.1


Tree=34
num_leaves=31
num_cat=0
split_feature=0 5 0 1 5 1 3 2 0 8 6 8 9 8 8 7 9 5 5 1 6 4 5 8 9 4 5 4 2 8
split_gain=0.112789 0.339608 0.338941 0.246248 0.223845 0.188824 0.374532 0.241603 0.160589 0.261117 0.395706 0.25551 0.187553 0.147626 0.303763 0.156489 0.367526 0.381957 0.233891 0.324074 0.174509 0.377984 0.290373 0.335129 0.327232 0.490343 0.25463 0.394278 0.22268 0.315583
threshold=0.36102168000000007 -0.30561871999999995 0.39930050500000008 0.44860065000000005 -0.03484822499999999 0.3312065400000001 -0.27154201499999991 0.071913040000000025 0.18156076000000002 0.17060607500000002 -0.081478924999999994 0.41093428500000007 -0.047190649999999994 0.55567233000000005 0.48783952500000011 0.12690555500000003 -0.064450214999999991 0.025621340000000003 0.18257935500000003 1.0000000180025095e-35 0.080785950000000009 -0.18371675499999998 0.044043205000000009 0.30281752000000006 -0.097871984999999981 -0.096715024999999996 -0.048284814999999995 -0.024969819999999997 0.15159692500000002 0.0095837850000000009
decision_type=2 2 2 2 2 2 2 2 2 2 2 2 2 2 2 2 2 2 2 2 2 2 2 2 2 2 2 2 2 2
left_child=1 -1 -2 5 -4 6 -3 -7 13 10 -10 -11 -12 14 15 20 17 -17 19 -19 28 -22 23 26 -24 -26 -23 -28 29 -8
right_child=2 3 4 -5 -6 7 8 -9 9 11 12 -13 -14 -15 -16 16 -18 18 -20 -21 21 22 24 -25 25 -27 27 -29 -30 -31
leaf_value=0.0094297373930040083 -0.014889003168791532 -0.013685500882565977 -0.0056091937684686864 -0.010547025671059435 0.0070679263458049927 0.014667553398758174 0.00042612727494598129 -0.00036062407104865365 0.0092932875234899778 0.017358327961780811 4.6153007618462044e-05 0.0017411629296839239 -0.013065818983595818 0.0042302700874643053 -0.012933852709829809 -0.0086089704526452031 -0.014720988789728532 -0.00052102521061897272 -0.0037032107919982918 0.01748103674617596 -0.0070994317934319779 0.0027395599556289279 -0.0029842029724802292 0.012457161024212838 0.0033153531227358862 0.01972070838723864 0.0018315951096946779 -0.016893845178525557 0.0077016364820301541 -0.0066307952739298355
leaf_weight=39 20 20 30 22 26 20 173 23 28 22 24 20 20 64 20 41 24 20 26 20 37 57 21 20 38 35 23 22 25 100
leaf_count=39 20 20 30 22 26 20 173 23 28 22 24 20 20 64 20 41 24 20 26 20 37 57 21 20 38 35 23 22 25 100
internal_value=0 0.000281165 -0.00371434 -8.85699e-05 0.000276612 0.000155424 -0.00015388 0.00662923 0.000153657 0.00365535 4.64329e-08 0.00992158 -0.00591383 -0.000367483 -0.000786651 -0.000430428 -0.00353706 -0.00102851 0.00368056 0.00848001 0.000308172 0.00223961 0.00383935 0.000620986 0.00801638 0.0111809 -0.00169983 -0.00732306 -0.00133161 -0.00215883
internal_weight=0 1004 76 965 56 943 900 43 880 114 72 42 44 766 702 682 131 107 66 40 551 253 216 122 94 73 102 45 298 273
internal_count=1080 1004 76 965 56 943 900 43 880 114 72 42 44 766 702 682 131 107 66 40 551 253 216 122 94 73 102 45 298 273
shrinkage=0.1


Tree=35
num_leaves=31
num_cat=0
split_feature=3 3 8 2 0 8 8 0 5 5 5 8 7 5 0 0 7 0 5 9 9 0 10 1 0 7 8 11 10 9
split_gain=0.111138 0.132657 0.12009 0.117551 0.525546 0.340691 0.262778 0.290626 0.188316 0.221633 0.458923 0.284204 0.346764 0.216676 0.214773 0.261151 0.307152 0.286598 0.24182 0.303738 0.372259 0.37628 0.299894 0.287135 0.271213 0.25439 0.51461 0.220128 0.216089 0.351008
