tree
version=v3
num_class=1
num_tree_per_iteration=1
label_index=0
max_feature_idx=1219
objective=regression
feature_names=Column_0 Column_1 Column_2 Column_3 Column_4 Column_5 Column_6 Column_7 Column_8 Column_9 Column_10 Column_11 Column_12 Column_13 Column_14 Column_15 Column_16 Column_17 Column_18 Column_19 Column_20 Column_21 Column_22 Column_23 Column_24 Column_25 Column_26 Column_27 Column_28 Column_29 Column_30 Column_31 Column_32 Column_33 Column_34 Column_35 Column_36 Column_37 Column_38 Column_39 Column_40 Column_41 Column_42 Column_43 Column_44 Column_45 Column_46 Column_47 Column_48 Column_49 Column_50 Column_51 Column_52 Column_53 Column_54 Column_55 Column_56 Column_57 Column_58 Column_59 Column_60 Column_61 Column_62 Column_63 Column_64 Column_65 Column_66 Column_67 Column_68 Column_69 Column_70 Column_71 Column_72 Column_73 Column_74 Column_75 Column_76 Column_77 Column_78 Column_79 Column_80 Column_81 Column_82 Column_83 Column_84 Column_85 Column_86 Column_87 Column_88 Column_89 Column_90 Column_91 Column_92 Column_93 Column_94 Column_95 Column_96 Column_97 Column_98 Column_99 Column_100 Column_101 Column_102 Column_103 Column_104 Column_105 Column_106 Column_107 Column_108 Column_109 Column_110 Column_111 Column_112 Column_113 Column_114 Column_115 Column_116 Column_117 Column_118 Column_119 Column_120 Column_121 Column_122 Column_123 Column_124 Column_125 Column_126 Column_127 Column_128 Column_129 Column_130 Column_131 Column_132 Column_133 Column_134 Column_135 Column_136 Column_137 Column_138 Column_139 Column_140 Column_141 Column_142 Column_143 Column_144 Column_145 Column_146 Column_147 Column_148 Column_149 Column_150 Column_151 Column_152 Column_153 Column_154 Column_155 Column_156 Column_157 Column_158 Column_159 Column_160 Column_161 Column_162 Column_163 Column_164 Column_165 Column_166 Column_167 Column_168 Column_169 Column_170 Column_171 Column_172 Column_173 Column_174 Column_175 Column_176 Column_177 Column_178 Column_179 Column_180 Column_181 Column_182 Column_183 Column_184 Column_185 Column_186 Column_187 Column_188 Column_189 Column_190 Column_191 Column_192 Column_193 Column_194 Column_195 Column_196 Column_197 Column_198 Column_199 Column_200 Column_201 Column_202 Column_203 Column_204 Column_205 Column_206 Column_207 Column_208 Column_209 Column_210 Column_211 Column_212 Column_213 Column_214 Column_215 Column_216 Column_217 Column_218 Column_219 Column_220 Column_221 Column_222 Column_223 Column_224 Column_225 Column_226 Column_227 Column_228 Column_229 Column_230 Column_231 Column_232 Column_233 Column_234 Column_235 Column_236 Column_237 Column_238 Column_239 Column_240 Column_241 Column_242 Column_243 Column_244 Column_245 Column_246 Column_247 Column_248 Column_249 Column_250 Column_251 Column_252 Column_253 Column_254 Column_255 Column_256 Column_257 Column_258 Column_259 Column_260 Column_261 Column_262 Column_263 Column_264 Column_265 Column_266 Column_267 Column_268 Column_269 Column_270 Column_271 Column_272 Column_273 Column_274 Column_275 Column_276 Column_277 Column_278 Column_279 Column_280 Column_281 Column_282 Column_283 Column_284 Column_285 Column_286 Column_287 Column_288 Column_289 Column_290 Column_291 Column_292 Column_293 Column_294 Column_295 Column_296 Column_297 Column_298 Column_299 Column_300 Column_301 Column_302 Column_303 Column_304 Column_305 Column_306 Column_307 Column_308 Column_309 Column_310 Column_311 Column_312 Column_313 Column_314 Column_315 Column_316 Column_317 Column_318 Column_319 Column_320 Column_321 Column_322 Column_323 Column_324 Column_325 Column_326 Column_327 Column_328 Column_329 Column_330 Column_331 Column_332 Column_333 Column_334 Column_335 Column_336 Column_337 Column_338 Column_339 Column_340 Column_341 Column_342 Column_343 Column_344 Column_345 Column_346 Column_347 Column_348 Column_349 Column_350 Column_351 Column_352 Column_353 Column_354 Column_355 Column_356 Column_357 Column_358 Column_359 Column_360 Column_361 Column_362 Column_363 Column_364 Column_365 Column_366 Column_367 Column_368 Column_369 Column_370 Column_371 Column_372 Column_373 Column_374 Column_375 Column_376 Column_377 Column_378 Column_379 Column_380 Column_381 Column_382 Column_383 Column_384 Column_385 Column_386 Column_387 Column_388 Column_389 Column_390 Column_391 Column_392 Column_393 Column_394 Column_395 Column_396 Column_397 Column_398 Column_399 Column_400 Column_401 Column_402 Column_403 Column_404 Column_405 Column_406 Column_407 Column_408 Column_409 Column_410 Column_411 Column_412 Column_413 Column_414 Column_415 Column_416 Column_417 Column_418 Column_419 Column_420 Column_421 Column_422 Column_423 Column_424 Column_425 Column_426 Column_427 Column_428 Column_429 Column_430 Column_431 Column_432 Column_433 Column_434 Column_435 Column_436 Column_437 Column_438 Column_439 Column_440 Column_441 Column_442 Column_443 Column_444 Column_445 Column_446 Column_447 Column_448 Column_449 Column_450 Column_451 Column_452 Column_453 Column_454 Column_455 Column_456 Column_457 Column_458 Column_459 Column_460 Column_461 Column_462 Column_463 Column_464 Column_465 Column_466 Column_467 Column_468 Column_469 Column_470 Column_471 Column_472 Column_473 Column_474 Column_475 Column_476 Column_477 Column_478 Column_479 Column_480 Column_481 Column_482 Column_483 Column_484 Column_485 Column_486 Column_487 Column_488 Column_489 Column_490 Column_491 Column_492 Column_493 Column_494 Column_495 Column_496 Column_497 Column_498 Column_499 Column_500 Column_501 Column_502 Column_503 Column_504 Column_505 Column_506 Column_507 Column_508 Column_509 Column_510 Column_511 Column_512 Column_513 Column_514 Column_515 Column_516 Column_517 Column_518 Column_519 Column_520 Column_521 Column_522 Column_523 Column_524 Column_525 Column_526 Column_527 Column_528 Column_529 Column_530 Column_531 Column_532 Column_533 Column_534 Column_535 Column_536 Column_537 Column_538 Column_539 Column_540 Column_541 Column_542 Column_543 Column_544 Column_545 Column_546 Column_547 Column_548 Column_549 Column_550 Column_551 Column_552 Column_553 Column_554 Column_555 Column_556 Column_557 Column_558 Column_559 Column_560 Column_561 Column_562 Column_563 Column_564 Column_565 Column_566 Column_567 Column_568 Column_569 Column_570 Column_571 Column_572 Column_573 Column_574 Column_575 Column_576 Column_577 Column_578 Column_579 Column_580 Column_581 Column_582 Column_583 Column_584 Column_585 Column_586 Column_587 Column_588 Column_589 Column_590 Column_591 Column_592 Column_593 Column_594 Column_595 Column_596 Column_597 Column_598 Column_599 Column_600 Column_601 Column_602 Column_603 Column_604 Column_605 Column_606 Column_607 Column_608 Column_609 Column_610 Column_611 Column_612 Column_613 Column_614 Column_615 Column_616 Column_617 Column_618 Column_619 Column_620 Column_621 Column_622 Column_623 Column_624 Column_625 Column_626 Column_627 Column_628 Column_629 Column_630 Column_631 Column_632 Column_633 Column_634 Column_635 Column_636 Column_637 Column_638 Column_639 Column_640 Column_641 Column_642 Column_643 Column_644 Column_645 Column_646 Column_647 Column_648 Column_649 Column_650 Column_651 Column_652 Column_653 Column_654 Column_655 Column_656 Column_657 Column_658 Column_659 Column_660 Column_661 Column_662 Column_663 Column_664 Column_665 Column_666 Column_667 Column_668 Column_669 Column_670 Column_671 Column_672 Column_673 Column_674 Column_675 Column_676 Column_677 Column_678 Column_679 Column_680 Column_681 Column_682 Column_683 Column_684 Column_685 Column_686 Column_687 Column_688 Column_689 Column_690 Column_691 Column_692 Column_693 Column_694 Column_695 Column_696 Column_697 Column_698 Column_699 Column_700 Column_701 Column_702 Column_703 Column_704 Column_705 Column_706 Column_707 Column_708 Column_709 Column_710 Column_711 Column_712 Column_713 Column_714 Column_715 Column_716 Column_717 Column_718 Column_719 Column_720 Column_721 Column_722 Column_723 Column_724 Column_725 Column_726 Column_727 Column_728 Column_729 Column_730 Column_731 Column_732 Column_733 Column_734 Column_735 Column_736 Column_737 Column_738 Column_739 Column_740 Column_741 Column_742 Column_743 Column_744 Column_745 Column_746 Column_747 Column_748 Column_749 Column_750 Column_751 Column_752 Column_753 Column_754 Column_755 Column_756 Column_757 Column_758 Column_759 Column_760 Column_761 Column_762 Column_763 Column_764 Column_765 Column_766 Column_767 Column_768 Column_769 Column_770 Column_771 Column_772 Column_773 Column_774 Column_775 Column_776 Column_777 Column_778 Column_779 Column_780 Column_781 Column_782 Column_783 Column_784 Column_785 Column_786 Column_787 Column_788 Column_789 Column_790 Column_791 Column_792 Column_793 Column_794 Column_795 Column_796 Column_797 Column_798 Column_799 Column_800 Column_801 Column_802 Column_803 Column_804 Column_805 Column_806 Column_807 Column_808 Column_809 Column_810 Column_811 Column_812 Column_813 Column_814 Column_815 Column_816 Column_817 Column_818 Column_819 Column_820 Column_821 Column_822 Column_823 Column_824 Column_825 Column_826 Column_827 Column_828 Column_829 Column_830 Column_831 Column_832 Column_833 Column_834 Column_835 Column_836 Column_837 Column_838 Column_839 Column_840 Column_841 Column_842 Column_843 Column_844 Column_845 Column_846 Column_847 Column_848 Column_849 Column_850 Column_851 Column_852 Column_853 Column_854 Column_855 Column_856 Column_857 Column_858 Column_859 Column_860 Column_861 Column_862 Column_863 Column_864 Column_865 Column_866 Column_867 Column_868 Column_869 Column_870 Column_871 Column_872 Column_873 Column_874 Column_875 Column_876 Column_877 Column_878 Column_879 Column_880 Column_881 Column_882 Column_883 Column_884 Column_885 Column_886 Column_887 Column_888 Column_889 Column_890 Column_891 Column_892 Column_893 Column_894 Column_895 Column_896 Column_897 Column_898 Column_899 Column_900 Column_901 Column_902 Column_903 Column_904 Column_905 Column_906 Column_907 Column_908 Column_909 Column_910 Column_911 Column_912 Column_913 Column_914 Column_915 Column_916 Column_917 Column_918 Column_919 Column_920 Column_921 Column_922 Column_923 Column_924 Column_925 Column_926 Column_927 Column_928 Column_929 Column_930 Column_931 Column_932 Column_933 Column_934 Column_935 Column_936 Column_937 Column_938 Column_939 Column_940 Column_941 Column_942 Column_943 Column_944 Column_945 Column_946 Column_947 Column_948 Column_949 Column_950 Column_951 Column_952 Column_953 Column_954 Column_955 Column_956 Column_957 Column_958 Column_959 Column_960 Column_961 Column_962 Column_963 Column_964 Column_965 Column_966 Column_967 Column_968 Column_969 Column_970 Column_971 Column_972 Column_973 Column_974 Column_975 Column_976 Column_977 Column_978 Column_979 Column_980 Column_981 Column_982 Column_983 Column_984 Column_985 Column_986 Column_987 Column_988 Column_989 Column_990 Column_991 Column_992 Column_993 Column_994 Column_995 Column_996 Column_997 Column_998 Column_999 Column_1000 Column_1001 Column_1002 Column_1003 Column_1004 Column_1005 Column_1006 Column_1007 Column_1008 Column_1009 Column_1010 Column_1011 Column_1012 Column_1013 Column_1014 Column_1015 Column_1016 Column_1017 Column_1018 Column_1019 Column_1020 Column_1021 Column_1022 Column_1023 Column_1024 Column_1025 Column_1026 Column_1027 Column_1028 Column_1029 Column_1030 Column_1031 Column_1032 Column_1033 Column_1034 Column_1035 Column_1036 Column_1037 Column_1038 Column_1039 Column_1040 Column_1041 Column_1042 Column_1043 Column_1044 Column_1045 Column_1046 Column_1047 Column_1048 Column_1049 Column_1050 Column_1051 Column_1052 Column_1053 Column_1054 Column_1055 Column_1056 Column_1057 Column_1058 Column_1059 Column_1060 Column_1061 Column_1062 Column_1063 Column_1064 Column_1065 Column_1066 Column_1067 Column_1068 Column_1069 Column_1070 Column_1071 Column_1072 Column_1073 Column_1074 Column_1075 Column_1076 Column_1077 Column_1078 Column_1079 Column_1080 Column_1081 Column_1082 Column_1083 Column_1084 Column_1085 Column_1086 Column_1087 Column_1088 Column_1089 Column_1090 Column_1091 Column_1092 Column_1093 Column_1094 Column_1095 Column_1096 Column_1097 Column_1098 Column_1099 Column_1100 Column_1101 Column_1102 Column_1103 Column_1104 Column_1105 Column_1106 Column_1107 Column_1108 Column_1109 Column_1110 Column_1111 Column_1112 Column_1113 Column_1114 Column_1115 Column_1116 Column_1117 Column_1118 Column_1119 Column_1120 Column_1121 Column_1122 Column_1123 Column_1124 Column_1125 Column_1126 Column_1127 Column_1128 Column_1129 Column_1130 Column_1131 Column_1132 Column_1133 Column_1134 Column_1135 Column_1136 Column_1137 Column_1138 Column_1139 Column_1140 Column_1141 Column_1142 Column_1143 Column_1144 Column_1145 Column_1146 Column_1147 Column_1148 Column_1149 Column_1150 Column_1151 Column_1152 Column_1153 Column_1154 Column_1155 Column_1156 Column_1157 Column_1158 Column_1159 Column_1160 Column_1161 Column_1162 Column_1163 Column_1164 Column_1165 Column_1166 Column_1167 Column_1168 Column_1169 Column_1170 Column_1171 Column_1172 Column_1173 Column_1174 Column_1175 Column_1176 Column_1177 Column_1178 Column_1179 Column_1180 Column_1181 Column_1182 Column_1183 Column_1184 Column_1185 Column_1186 Column_1187 Column_1188 Column_1189 Column_1190 Column_1191 Column_1192 Column_1193 Column_1194 Column_1195 Column_1196 Column_1197 Column_1198 Column_1199 Column_1200 Column_1201 Column_1202 Column_1203 Column_1204 Column_1205 Column_1206 Column_1207 Column_1208 Column_1209 Column_1210 Column_1211 Column_1212 Column_1213 Column_1214 Column_1215 Column_1216 Column_1217 Column_1218 Column_1219
feature_infos=[0:55] [0:17] [0:6] [0:9] [0:6] [0:11] [0:5] [0:6] [0:11] [0:12] [0:5] [0:5] [0:14] [0:8] [0:10] [0:7] [0:6] [0:7] [0:6] [0:6] [0:54] [0:2] [0:2] [0:4] [0:2] [0:3] [0:1] [0:2] [0:4] [0:6] none [0:1] [0:4] [0:3] [0:2] [0:2] [0:2] [0:3] none none none [0:3] none none none [0:2] none [0:2] [0:2] [0:4] none none [0:5] none [0:3] [0:2] [0:2] [0:1] none [0:1] [0:2] none [0:2] [0:2] [0:1] [0:2] none [0:2] [0:1] [0:2] none [0:1] [0:2] [0:2] [0:1] [0:1] [0:1] [0:2] [0:2] none [0:3] none [0:2] [0:4] [0:2] [0:2] none [0:2] [0:3] [0:4] none [0:2] [0:2] [0:2] [0:2] [0:3] [0:1] [0:3] [0:1] [0:1] [0:1] [0:2] [0:2] none [0:2] [0:2] none [0:2] [0:3] [0:2] none [0:2] [0:2] none [0:1] [0:2] [0:1] [0:2] [0:1] [0:1] [0:3] [0:2] [0:2] [0:2] [0:2] [0:5] [0:2] [0:3] [0:2] [0:2] none [0:1] [0:3] none [0:2] [0:2] [0:2] [0:3] [0:2] [0:3] none none none [0:1] none [0:4] none none none [0:1] none none [0:2] none [0:2] none none none none none [0:2] [0:4] [0:2] [0:2] [0:2] [0:2] none [0:2] [0:2] [0:2] [0:1] [0:1] [0:4] [0:1] [0:2] [0:2] [0:2] [0:2] [0:2] [0:1] [0:5] [0:3] [0:1] [0:2] [0:2] [0:2] none [0:3] [0:4] [0:4] none [0:2] [0:2] [0:1] [0:4] [0:2] [0:1] [0:3] [0:1] [0:1] [0:4] [0:2] [0:2] [0:3] [0:2] [0:3] [0:2] [0:2] [0:3] [0:6] [0:1] [0:3] [0:3] [0:3] [0:4] [0:6] [0:2] [0:2] [0:2] [0:2] none none [0:1] none none none none [0:2] [0:1] none none none none [0:1] none [0:2] [0:1] none none none [0:2] none none [0:2] [0:2] [0:2] none [0:2] [0:2] [0:3] none [0:2] [0:1] [0:1] none [0:1] none [0:2] [0:1] [0:1] [0:6] [0:2] [0:2] [0:2] [0:2] [0:4] none [0:2] [0:2] [0:2] [0:2] [0:1] [0:4] [0:2] [0:3] [0:2] [0:1] [0:3] [0:3] none [0:1] none [0:1] [0:3] none [0:1] none [0:1] [0:2] [0:2] none [0:1] [0:1] [0:2] [0:3] [0:2] [0:2] [0:1] [0:1] [0:1] [0:3] [0:4] [0:1] [0:2] [0:2] [0:2] none [0:2] [0:6] [0:4] [0:1] [0:2] [0:2] [0:2] [0:3] [0:2] [0:2] [0:2] [0:6] [0:1] [0:2] [0:2] [0:2] [0:2] [0:2] [0:2] [0:2] [0:2] [0:6] [0:3] none [0:1] [0:3] [0:2] [0:3] [0:2] [0:2] [0:2] [0:1] [0:1] [0:3] [0:2] [0:1] [0:2] none [0:1] none [0:1] [0:1] [0:2] none [0:2] [0:1] none [0:2] [0:2] [0:2] [0:2] [0:2] [0:1] [0:2] [0:2] [0:2] [0:2] [0:2] [0:2] none [0:2] [0:4] [0:2] none [0:2] [0:2] [0:3] [0:2] [0:3] [0:2] [0:3] [0:2] [0:1] [0:2] none [0:2] [0:1] [0:3] [0:2] none [0:1] none [0:2] [0:1] [0:1] none [0:1] [0:6] none none [0:2] none none [0:2] none none [0:2] none [0:2] none [0:1] [0:1] [0:2] none [0:1] none none [0:2] [0:1] [0:2] none none none [0:53] [0:2] [0:1] [0:3] [0:3] [0:3] none [0:3] [0:4] [0:4] none [0:2] [0:3] [0:3] [0:4] [0:6] [0:2] [0:3] none [0:2] [0:2] [0:4] none [0:1] [0:2] [0:4] none none none [0:2] none [0:2] [0:2] none [0:3] [0:2] none [0:1] none none [0:2] none none [0:2] [0:1] [0:2] none [0:3] [0:1] [0:2] none [0:1] [0:1] [0:1] [0:1] [0:1] none [0:2] [0:1] [0:1] [0:4] [0:1] [0:2] [0:3] none [0:3] none [0:2] [0:2] [0:4] none [0:2] [0:1] [0:2] [0:2] [0:2] [0:1] [0:1] [0:1] [0:1] [0:2] none none [0:1] [0:2] [0:2] none none [0:3] [0:2] none [0:1] [0:1] [0:2] [0:3] [0:1] [0:1] [0:2] none none [0:3] [0:3] [0:2] [0:4] [0:2] [0:4] none [0:2] [0:3] [0:2] none [0:1] [0:2] [0:1] [0:3] [0:2] [0:2] [0:2] [0:1] [0:1] [0:1] none none none none [0:1] none none none [0:1] none none none none [0:1] none none [0:2] none none [0:3] [0:2] [0:1] [0:2] none [0:2] none [0:2] [0:2] [0:3] [0:2] [0:1] [0:2] [0:2] [0:2] [0:2] [0:2] [0:1] none [0:1] [0:4] [0:5] [0:2] [0:3] [0:3] [0:2] none [0:2] [0:4] [0:6] none [0:2] [0:2] none [0:2] [0:1] [0:2] [0:3] [0:4] [0:1] [0:3] [0:2] [0:2] [0:3] [0:2] [0:3] [0:1] [0:4] [0:6] [0:6] none [0:2] [0:3] [0:2] [0:6] [0:4] [0:3] [0:2] none [0:1] [0:2] none none none none none none [0:2] none [0:1] none none none none none none none none [0:2] none [0:2] none none [0:2] [0:1] [0:2] none [0:2] [0:1] [0:2] none none [0:2] [0:2] [0:1] [0:1] [0:2] [0:1] none none [0:3] [0:3] [0:2] [0:2] [0:1] [0:2] none [0:2] [0:2] [0:2] none none [0:4] [0:2] [0:3] [0:2] [0:1] [0:5] none none [0:2] none [0:1] [0:1] [0:1] none none [0:1] [0:3] [0:2] none [0:1] [0:3] [0:2] [0:1] [0:2] [0:2] none none none [0:2] [0:2] [0:1] [0:2] [0:2] [0:2] [0:1] [0:3] [0:2] [0:5] none [0:1] [0:2] [0:2] [0:8] [0:2] [0:2] [0:1] [0:2] [0:2] [0:5] none [0:2] [0:4] [0:1] [0:2] none [0:2] [0:2] [0:2] none [0:2] [0:3] [0:2] [0:3] [0:3] [0:2] [0:2] [0:2] [0:1] [0:3] none [0:2] [0:2] [0:2] [0:2] none [0:2] [0:2] [0:3] [0:1] [0:2] [0:1] none [0:1] [0:2] [0:1] [0:2] [0:2] none [0:3] [0:1] [0:2] [0:2] [0:2] [0:3] none [0:3] [0:2] [0:3] none [0:2] [0:2] [0:2] [0:2] [0:2] [0:2] [0:4] [0:1] none none [0:1] [0:2] none none none none none [0:4] [0:2] none [0:1] [0:1] [0:1] [0:1] [0:1] [0:1] [0:1] [0:3] none [0:1] none [0:1] none none [0:1] none [0:1] [0:2] [0:2] none [0:2] [0:2] [0:1] none [0:2] [0:1] none none none [0:52] [0:2] [0:2] [0:3] [0:1] [0:3] [0:1] [0:2] [0:6] [0:3] [0:2] [0:2] [0:4] [0:2] [0:3] [0:4] [0:2] [0:2] [0:1] [0:1] [0:2] none none none [0:1] [0:3] none [0:2] [0:2] [0:2] none [0:1] [0:2] none [0:4] [0:2] [0:2] [0:3] [0:1] none [0:4] [0:2] [0:2] [0:2] [0:1] [0:1] none [0:2] [0:2] [0:1] none [0:2] [0:2] [0:2] [0:2] [0:2] [0:2] [0:2] none [0:2] [0:4] none [0:2] [0:3] [0:2] [0:2] [0:1] [0:2] [0:4] [0:2] [0:1] [0:2] [0:2] [0:2] [0:2] [0:1] [0:1] [0:1] none none [0:1] none [0:2] [0:1] none [0:2] none [0:2] [0:3] [0:3] none [0:1] [0:2] none [0:2] [0:1] [0:1] [0:2] none none [0:3] [0:3] [0:2] [0:2] none [0:4] [0:1] [0:2] [0:3] [0:3] none none [0:3] [0:2] [0:2] [0:2] [0:2] [0:2] [0:1] [0:2] [0:1] none none none [0:1] none none none [0:2] [0:1] none none [0:2] none [0:1] [0:1] none none none none [0:2] [0:2] [0:2] [0:2] [0:2] [0:2] [0:1] [0:3] [0:3] [0:2] none [0:1] none none [0:2] [0:2] [0:1] [0:2] [0:1] [0:1] [0:2] none [0:1] [0:6] [0:2] [0:3] none [0:2] [0:5] [0:3] none none [0:2] [0:2] [0:4] [0:5] [0:1] [0:2] [0:1] [0:1] [0:5] [0:2] [0:3] [0:2] [0:2] [0:3] none [0:3] [0:4] [0:5] [0:1] [0:1] [0:2] [0:1] [0:3] [0:2] [0:2] [0:3] [0:2] [0:2] none none [0:1] [0:1] none none none none [0:1] [0:2] none none [0:2] none none none none none none none [0:1] none [0:2] [0:2] [0:2] [0:1] none [0:1] [0:2] [0:2] none [0:1] [0:1] [0:1] [0:2] [0:2] [0:1] [0:3] none [0:2] [0:4] [0:4] none [0:1] [0:2] [0:2] [0:2] [0:2] [0:3] [0:2] none none [0:4] [0:1] [0:2] [0:2] [0:1] [0:2] none none [0:2] none [0:1] [0:2] [0:2] [0:1] none [0:1] [0:2] [0:2] none [0:2] [0:2] [0:1] [0:2] [0:2] none [0:2] none [0:1] [0:2] [0:3] [0:1] [0:2] [0:2] [0:2] [0:2] [0:1] [0:4] [0:3] none [0:2] [0:2] [0:3] [0:3] [0:3] [0:2] [0:1] [0:5] [0:1] [0:2] none [0:1] [0:2] [0:2] [0:2] none [0:2] [0:2] [0:5] none [0:1] [0:2] [0:2] [0:2] [0:3] [0:2] [0:2] [0:1] [0:2] [0:2] [0:1] [0:2] [0:1] [0:1] [0:2] [0:1] [0:1] [0:1] [0:2] none [0:2] [0:1] [0:1] [0:2] [0:2] [0:1] [0:1] none none [0:3] [0:2] [0:2] [0:2] [0:3] [0:2] [0:2] [0:2] [0:2] [0:3] none [0:2] [0:2] [0:1] [0:1] [0:2] [0:2] [0:1] none [0:2] none none [0:1] [0:1] [0:1] [0:2] none none none [0:2] none none none none [0:5] none [0:1] [0:2] [0:2] none [0:1] none none none none [0:2] none [0:2] [0:1] [0:2] none none [0:2] none [0:2] none [0:1] none none none
tree_sizes=2727 2818 2813 2819 2832 2841 2839 2837 2873 2862 2868 2835 2829 2880 2867 2894 2844 2888 2891 2898 2891 2910 2899 2930 2911 2906 2938 2925 2940 2934 2921 2954 2941 2942 2968 2984 2989 2958 2961 2966 2967 2978 2979 2999 2978 2989 2968 3022 2982 2980 3000 2968 2998 2988 2972 3000 2995 2994 2990 2997 3004 3029 2980 2997 2998 2962 2999 3030 3020 2985 3001 3000 3017 2985 3000 3001 3024 2992 2988 3011 2992 3008 2995 3006 3006 3024 2989 2987 2984 3014 3008 3016 3002 3020 3021 2999 2988 2989 3004 3004

Tree=0
num_leaves=31
num_cat=0
split_feature=8 5 12 0 45 334 11 609 2 18 7 217 18 16 1 15 15 189 993 12 9 989 5 6 0 12 0 15 0 0
split_gain=36.7096 19.3773 16.7404 9.6 8.12884 6.89972 5.85593 6.90965 5.52681 3.9488 3.86331 3.8197 2.66569 6.99203 2.17994 1.74588 1.61523 1.11213 3.12745 1.10609 1.03128 0.86071 0.709771 0.652497 0.611344 0.610484 0.394571 0.252203 0.753751 0.174222
threshold=1.0000000180025095e-35 1.0000000180025095e-35 1.5000000000000002 1.0000000180025095e-35 1.0000000180025095e-35 1.0000000180025095e-35 1.5000000000000002 1.0000000180025095e-35 1.0000000180025095e-35 1.0000000180025095e-35 1.0000000180025095e-35 1.0000000180025095e-35 1.0000000180025095e-35 1.0000000180025095e-35 1.0000000180025095e-35 1.0000000180025095e-35 1.0000000180025095e-35 1.0000000180025095e-35 1.0000000180025095e-35 1.0000000180025095e-35 2.5000000000000004 1.0000000180025095e-35 1.5000000000000002 1.0000000180025095e-35 30.500000000000004 1.0000000180025095e-35 1.5000000000000002 1.0000000180025095e-35 16.500000000000004 23.500000000000004
decision_type=2 2 2 2 2 2 2 2 2 2 2 2 2 2 2 2 2 2 2 2 2 2 2 2 2 2 2 2 2 2
left_child=3 11 5 14 21 6 7 8 16 -10 24 12 13 20 -1 -12 -3 18 -8 -17 -2 22 -4 -21 26 -14 -5 28 -28 -30
right_child=1 2 4 10 -6 -7 17 -9 9 -11 15 -13 25 -15 -16 19 -18 -19 -20 23 -22 -23 -24 -25 -26 -27 27 -29 29 -31
leaf_value=0.49559523695439256 0.52608974154009103 0.5448188379718869 0.46916666631345394 0.47189393895944759 0.52416666467432615 0.45869047614947828 0.49916666541938426 0.46027777768947459 0.46640804570601208 0.52416666467432615 0.50630952234936766 0.49499999887689394 0.54916666392926816 0.47993589676173665 0.53666666430179721 0.49202380848940086 0.51468390633624483 0.54916666392926816 0.54916666392926816 0.45392857152948934 0.54734848216527232 0.47916666601543073 0.45065920417845218 0.47916666601543073 0.47242248016991151 0.53098484628931042 0.47643939336943703 0.44916666690950036 0.45916666661147715 0.45138888906549524
leaf_weight=28 39 46 30 22 24 21 22 27 29 20 28 24 115 26 24 28 29 45 29 21 55 20 67 20 43 22 22 29 80 45
leaf_count=28 39 46 30 22 24 21 22 27 29 20 28 24 115 26 24 28 29 45 29 21 55 20 67 20 43 22 22 29 80 45
internal_value=0.499074 0.512935 0.499044 0.474551 0.471152 0.513719 0.518397 0.50612 0.516102 0.489983 0.468397 0.533152 0.536715 0.525833 0.514551 0.485249 0.533167 0.537708 0.527598 0.476703 0.538528 0.460278 0.456383 0.46624 0.461615 0.546247 0.459268 0.457689 0.459371 0.456367
internal_weight=0 690 409 390 141 268 247 151 124 49 338 281 257 120 52 97 75 96 51 69 94 117 97 41 241 137 198 176 147 125
internal_count=1080 690 409 390 141 268 247 151 124 49 338 281 257 120 52 97 75 96 51 69 94 117 97 41 241 137 198 176 147 125
shrinkage=1


Tree=1
num_leaves=31
num_cat=0
split_feature=8 5 12 0 45 993 19 608 421 217 14 15 6 4 18 16 5 3 8 12 0 989 0 12 19 0 0 0 11 4
split_gain=29.7347 15.6956 13.5597 7.776 6.58436 5.85713 7.20513 4.80474 3.36883 3.09395 3.08554 2.65476 2.41523 2.3337 2.15921 5.66355 1.83301 1.545 0.912693 0.697901 1.08037 0.527879 0.517758 0.494492 0.379419 0.305407 1.15743 0.14112 0.131699 0.104376
threshold=1.0000000180025095e-35 1.0000000180025095e-35 1.5000000000000002 1.0000000180025095e-35 1.0000000180025095e-35 1.0000000180025095e-35 1.0000000180025095e-35 1.0000000180025095e-35 1.0000000180025095e-35 1.0000000180025095e-35 1.0000000180025095e-35 1.0000000180025095e-35 1.0000000180025095e-35 1.0000000180025095e-35 1.0000000180025095e-35 1.0000000180025095e-35 1.5000000000000002 1.0000000180025095e-35 1.5000000000000002 3.5000000000000004 2.5000000000000004 1.0000000180025095e-35 30.500000000000004 1.0000000180025095e-35 1.0000000180025095e-35 6.5000000000000009 16.500000000000004 23.500000000000004 1.0000000180025095e-35 1.0000000180025095e-35
decision_type=2 2 2 2 2 2 2 2 2 2 2 2 2 2 2 2 2 2 2 2 2 2 2 2 2 2 2 2 2 2
left_child=3 9 5 16 19 6 7 11 12 14 -8 -3 22 -13 15 18 -1 -14 -2 20 -4 -9 24 -16 25 28 -27 -28 -5 -20
right_child=1 2 4 8 -6 -7 10 21 -10 -11 -12 13 17 -15 23 -17 -18 -19 29 -21 -22 -23 -24 -25 -26 26 27 -29 -30 -31
leaf_value=-0.0071526914834976196 0.02179312501102686 0.028153272087757406 -0.017034053480302968 -0.047173760417434908 0.022583333402872087 0.044049043357372288 0.0053486180526238908 0.028327049594372513 0.010227765278382735 -0.0036666671435038249 -0.038187129904584192 -0.037874520421028138 0.0055030920675822673 0.0049463018349238802 0.045083335041999822 -0.017224357678340033 0.030649836412791551 -0.029909582165154543 0.045524405996973924 -0.045632339045405396 -0.040742413774132735 0.045866490215868562 -0.023986434104830721 0.028719697486270557 -0.023177849394934519 -0.012527056485414507 -0.035916667282581326 -0.042916667328940505 -0.037208976632072809 0.036854896658942815
leaf_weight=23 32 26 37 36 24 50 27 32 22 24 41 20 28 35 115 26 29 22 41 40 40 37 43 22 21 20 80 45 21 21
leaf_count=23 32 26 37 36 24 50 27 32 22 24 41 20 28 35 115 26 29 22 41 40 40 37 43 22 21 20 80 45 21 21
internal_value=0 0.0124746 -2.6691e-05 -0.0220705 -0.0251294 0.0131803 0.00610037 0.0183409 -0.027609 0.0306705 -0.0209009 0.00182241 -0.0302432 -0.0106249 0.0338771 0.0240833 0.0139295 -0.0100785 0.0355089 -0.0349167 -0.0293501 0.0377323 -0.0340335 0.0424556 -0.0359709 -0.0373008 -0.0348629 -0.0384367 -0.0435025 0.042588
internal_weight=0 690 409 390 141 268 218 150 338 281 68 81 316 55 257 120 52 50 94 117 77 69 266 137 223 202 145 125 57 62
internal_count=1080 690 409 390 141 268 218 150 338 281 68 81 316 55 257 120 52 50 94 117 77 69 266 137 223 202 145 125 57 62
shrinkage=0.1


Tree=2
num_leaves=31
num_cat=0
split_feature=8 12 794 16 5 0 1056 18 8 1 7 19 2 17 1 19 17 11 5 5 3 677 15 0 0 3 18 19 0 315
split_gain=24.0851 12.9805 8.28043 7.21113 7.49775 6.29856 6.28612 3.59537 3.29715 3.10043 2.73179 2.33564 2.08911 1.89441 1.63913 1.59458 1.51818 2.50134 1.39703 1.16942 0.785576 0.679446 0.509577 1.40192 0.546032 0.438354 0.171434 0.218889 0.112893 0.101786
threshold=1.0000000180025095e-35 1.0000000180025095e-35 1.0000000180025095e-35 1.0000000180025095e-35 1.0000000180025095e-35 1.0000000180025095e-35 1.0000000180025095e-35 1.0000000180025095e-35 1.5000000000000002 1.5000000000000002 1.0000000180025095e-35 1.0000000180025095e-35 1.0000000180025095e-35 1.5000000000000002 1.0000000180025095e-35 1.0000000180025095e-35 1.5000000000000002 1.0000000180025095e-35 1.5000000000000002 1.5000000000000002 1.0000000180025095e-35 1.0000000180025095e-35 1.0000000180025095e-35 15.500000000000002 30.500000000000004 1.5000000000000002 1.5000000000000002 1.0000000180025095e-35 23.500000000000004 1.0000000180025095e-35
decision_type=2 2 2 2 2 2 2 2 2 2 2 2 2 2 2 2 2 2 2 2 2 2 2 2 2 2 2 2 2 2
left_child=5 7 3 4 21 14 9 8 12 13 22 25 -2 19 -1 -6 17 -12 26 -5 -18 -3 23 -7 28 -10 27 -9 -25 -4
right_child=1 2 29 6 15 10 -8 18 11 -11 16 -13 -14 -15 -16 -17 20 -19 -20 -21 -22 -23 -24 24 -26 -27 -28 -29 -30 -31
leaf_value=-0.0039007823382105145 0.011765825748443605 0.020920372144742447 0.043810711217963177 -0.0018630776716315228 -0.029364081099629402 -0.0046088742938908663 0.028408222397168476 0.026924146647038669 0.042029539247353871 0.0012528740998470423 -0.021354934448997179 0.00096317450205485029 -0.030486292866143311 -0.043271678415211762 0.031713413074612617 0.0036343121970141379 -0.0081807370483875288 0.023841999650001527 0.016480476628331579 -0.030577258081049531 -0.034129744661705839 0.042613968253135681 -0.040418810068174854 -0.03246738419614055 -0.02158779051414756 0.025943811889737847 0.041043374163133133 0.041228461563587192 -0.038624998860889014 0.034056323021650313
leaf_weight=28 25 22 23 23 32 22 24 23 36 33 24 30 22 77 24 27 20 25 34 37 28 42 43 88 43 32 108 20 45 20
leaf_count=28 25 22 23 23 32 22 24 23 36 33 24 30 22 77 24 27 20 25 34 37 28 42 43 88 43 32 108 20 45 20
internal_value=0 0.0112272 -0.00190473 -0.00749046 0.0114513 -0.0198635 -0.0194999 0.0255529 0.0137628 -0.0262634 -0.0248481 0.0242057 -0.00801176 -0.0328914 0.0125365 -0.0142631 -0.0106775 0.00170473 0.0347938 -0.0195702 -0.0233177 0.0351568 -0.0305516 -0.0284087 -0.0313837 0.0344598 0.0389173 0.0335773 -0.0345508 0.0392738
internal_weight=0 690 360 317 123 390 194 330 145 170 338 98 47 137 52 59 97 49 185 60 48 64 241 198 176 68 151 43 133 43
internal_count=1080 690 360 317 123 390 194 330 145 170 338 98 47 137 52 59 97 49 185 60 48 64 241 198 176 68 151 43 133 43
shrinkage=0.1


Tree=3
num_leaves=31
num_cat=0
split_feature=8 12 429 1171 1 8 928 993 15 18 8 0 1 0 2 16 329 19 6 3 772 0 11 18 8 5 17 0 988 18
split_gain=19.509 10.5142 6.87799 5.65858 5.29534 3.63131 3.2698 2.89141 2.73868 2.66623 2.67106 2.13791 1.75627 1.70229 1.64399 1.36824 1.35536 1.15385 1.12669 1.05345 0.589431 0.329681 0.28743 0.271885 0.464662 0.23034 0.390079 0.810298 0.226059 0.169344
threshold=1.0000000180025095e-35 1.0000000180025095e-35 1.0000000180025095e-35 1.0000000180025095e-35 1.5000000000000002 1.5000000000000002 1.0000000180025095e-35 1.0000000180025095e-35 1.0000000180025095e-35 1.0000000180025095e-35 1.5000000000000002 1.5000000000000002 1.5000000000000002 1.0000000180025095e-35 1.0000000180025095e-35 1.0000000180025095e-35 1.0000000180025095e-35 1.0000000180025095e-35 1.0000000180025095e-35 1.0000000180025095e-35 1.0000000180025095e-35 30.500000000000004 1.5000000000000002 1.5000000000000002 1.5000000000000002 2.5000000000000004 1.0000000180025095e-35 15.500000000000002 1.0000000180025095e-35 1.0000000180025095e-35
decision_type=2 2 2 2 2 2 2 2 2 2 2 2 2 2 2 2 2 2 2 2 2 2 2 2 2 2 2 2 2 2
left_child=4 6 3 7 13 -4 9 8 -3 10 14 -6 20 -1 -2 -7 -5 22 21 -20 28 25 -12 24 -11 26 27 -15 29 -10
right_child=1 2 5 16 11 15 -8 -9 12 23 17 -13 -14 18 -16 -17 -18 -19 19 -21 -22 -23 -24 -25 -26 -27 -28 -29 -30 -31
leaf_value=-0.0018384141226609548 0.012831582625706993 0.0028715950250625612 -0.015448916827638945 0.0023699127137660984 0.035671906444159428 0.039531555041974906 -0.0090715688878092275 0.014687576765815417 -0.043199922209200659 0.016749796555155801 0.026680281232385073 -0.0056679706121313166 -0.0052485915245833225 -0.011473169565200806 -0.025988416820764543 0.014247261144612966 0.037617842108011251 0.0065137168635492739 0.0028467956643838149 -0.02768022447824478 -0.018720445172353228 -0.019429011608279031 0.040500320438985472 0.037071612952029813 0.035200047722229587 -0.019078660578954788 -0.039658774137496952 -0.031095709522863973 -0.027666440889948893 -0.033542712529500328
leaf_weight=36 24 35 24 20 22 49 29 24 46 21 34 29 27 25 20 38 24 23 26 20 22 43 27 113 39 21 35 133 21 30
leaf_count=36 24 35 24 20 22 49 29 24 46 21 34 29 27 25 20 38 24 23 26 20 22 43 27 113 39 21 35 133 21 30
internal_value=0 0.0101045 -0.00171426 -0.010943 -0.0178771 0.018988 0.0229976 -0.017927 -0.0222515 0.0260873 0.0151457 0.0121649 -0.0282742 -0.0223967 -0.00481387 0.0284878 0.0215961 0.0256006 -0.0248393 -0.0104258 -0.0334985 -0.0274191 0.0327973 0.0341829 0.0287425 -0.0290246 -0.0301068 -0.0279909 -0.0368502 -0.0393879
internal_weight=0 690 360 249 390 111 330 205 181 301 128 51 146 339 44 87 44 84 303 46 119 257 61 173 60 214 193 158 97 76
internal_count=1080 690 360 249 390 111 330 205 181 301 128 51 146 339 44 87 44 84 303 46 119 257 61 173 60 214 193 158 97 76
shrinkage=0.1


Tree=4
num_leaves=31
num_cat=0
split_feature=8 5 12 441 45 993 19 608 14 18 2 217 7 12 600 18 16 209 203 12 989 15 1128 5 17 15 0 0 13 0
split_gain=15.8023 8.90074 7.80652 4.31836 4.30014 3.91964 4.45821 2.99411 2.36623 2.3159 1.93213 1.81944 1.32672 2.65296 1.98904 1.08338 3.52241 0.623321 1.44138 0.612768 0.603647 0.38549 0.562216 0.375642 0.35655 0.305003 0.516621 0.325187 0.277088 0.128084
threshold=1.0000000180025095e-35 1.0000000180025095e-35 1.5000000000000002 1.0000000180025095e-35 1.0000000180025095e-35 1.0000000180025095e-35 1.0000000180025095e-35 1.0000000180025095e-35 1.0000000180025095e-35 1.5000000000000002 1.0000000180025095e-35 1.0000000180025095e-35 1.0000000180025095e-35 1.5000000000000002 1.0000000180025095e-35 1.0000000180025095e-35 1.0000000180025095e-35 1.0000000180025095e-35 1.0000000180025095e-35 1.0000000180025095e-35 1.0000000180025095e-35 1.0000000180025095e-35 1.0000000180025095e-35 1.5000000000000002 1.5000000000000002 1.5000000000000002 1.5000000000000002 30.500000000000004 1.0000000180025095e-35 21.500000000000004
decision_type=2 2 2 2 2 2 2 2 2 2 2 2 2 2 2 2 2 2 2 2 2 2 2 2 2 2 2 2 2 2
left_child=3 11 5 9 20 6 7 10 -8 12 -3 15 25 14 19 16 17 18 -2 -14 23 -9 -23 -4 -17 26 -1 29 -12 -28
right_child=1 2 4 -5 -6 -7 8 21 -10 -11 28 -13 13 -15 -16 24 -18 -19 -20 -21 -22 22 -24 -25 -26 -27 27 -29 -30 -31
leaf_value=-0.0096544717748959855 0.0033936870785859913 0.018203833954674856 -0.02123814880847931 0.022493839153537046 0.019191356003284456 0.034953035533428191 0.0056567002225805215 0.037889873555728371 -0.032468224807483397 0.014118710905313492 -0.0058608510494232184 -0.0035351565728584926 0.026662170439958572 -0.035916930334321383 -0.021671495079994205 0.034090757510572112 -0.014258611202239991 0.035825984213087296 0.037760270937629375 0.0019080218672752381 -0.011457815319299699 0.011240427834647043 0.03466753914952278 -0.034702173720544842 0.021898430681997733 -0.034959113712494189 -0.02507330348196718 -0.017486110191012538 -0.021442310015360514 -0.030982093790830192
leaf_weight=24 26 35 30 27 24 50 27 28 41 20 25 24 20 29 25 106 26 45 23 20 20 21 20 67 31 26 97 43 21 59
leaf_count=24 26 35 30 27 24 50 27 28 41 20 25 24 20 29 25 106 26 45 23 20 20 21 20 67 31 26 97 43 21 59
internal_value=0 0.00909401 -0.000320117 -0.0160894 -0.019367 0.00970084 0.00390906 0.0135376 -0.0173304 -0.0189592 0.000497832 0.0227964 -0.020888 -0.0107657 0.000455638 0.0252554 0.0183181 0.0273286 0.0195249 0.0142851 -0.0272765 0.0288452 0.0226683 -0.030538 0.0313319 -0.0247092 -0.0235142 -0.0251857 -0.0129741 -0.027308
internal_weight=0 690 409 390 141 268 218 150 68 363 81 281 343 94 65 257 120 94 49 40 117 69 41 97 137 249 223 199 46 156
internal_count=1080 690 409 390 141 268 218 150 68 363 81 281 343 94 65 257 120 94 49 40 117 69 41 97 137 249 223 199 46 156
shrinkage=0.1


Tree=5
num_leaves=31
num_cat=0
split_feature=20 265 96 485 980 325 334 120 169 18 883 729 2 487 7 329 1000 13 580 16 0 19 0 15 9 12 1089 2 12 0
split_gain=12.8366 7.76696 6.47216 5.48595 5.39061 4.90943 4.99945 3.79136 3.12842 2.07611 1.87297 1.86893 1.86127 3.18425 1.23796 1.09624 1.0291 1.06322 0.734598 0.715096 0.421715 0.413041 0.291978 0.259856 0.46843 0.25601 0.140994 0.147811 0.116592 0.0859757
threshold=1.0000000180025095e-35 1.0000000180025095e-35 1.0000000180025095e-35 1.0000000180025095e-35 1.0000000180025095e-35 1.0000000180025095e-35 1.0000000180025095e-35 1.0000000180025095e-35 1.0000000180025095e-35 1.0000000180025095e-35 1.0000000180025095e-35 1.0000000180025095e-35 1.0000000180025095e-35 1.0000000180025095e-35 1.0000000180025095e-35 1.0000000180025095e-35 1.0000000180025095e-35 1.0000000180025095e-35 1.5000000000000002 1.0000000180025095e-35 15.500000000000002 1.0000000180025095e-35 30.500000000000004 1.0000000180025095e-35 1.5000000000000002 1.5000000000000002 1.0000000180025095e-35 1.5000000000000002 1.0000000180025095e-35 25.500000000000004
decision_type=2 2 2 2 2 2 2 2 2 2 2 2 2 2 2 2 2 2 2 2 2 2 2 2 2 2 2 2 2 2
left_child=1 2 3 5 16 6 7 8 9 10 11 12 19 14 -14 23 17 20 -6 25 -2 -3 29 28 -25 -1 27 -26 -11 -22
right_child=4 21 -4 -5 18 -7 -8 -9 -10 15 -12 -13 13 -15 -16 -17 -18 -19 -20 -21 22 -23 -24 24 26 -27 -28 -29 -30 -31
leaf_value=0.038593837389579194 -0.010251719144082839 -0.032624229712363999 -0.037775858464064421 -0.033786904811859135 0.0041645936667919162 -0.02776899039745331 -0.022679210174828768 -0.015538585837930441 -0.0074265972926066473 0.031831224940039891 -0.013191708638554529 -0.01115551233291626 -0.022416954284364528 0.035157851919983378 0.0075379241157222448 0.011929942087994682 -0.0061781902062265498 -0.039005977068191922 0.031268065869808202 0.016723829414695503 -0.024054090191017497 -0.016158378243446351 -0.015737499262011328 0.014905603683513145 0.039941271004222692 0.026993424693743391 0.02459268590499615 0.030214108599991098 0.039034052193164831 -0.030776941776275636
leaf_weight=52 31 39 27 25 20 27 32 32 39 55 21 20 22 33 37 36 38 39 20 32 110 25 43 23 21 30 29 61 38 23
leaf_count=52 31 39 27 25 20 27 32 32 39 55 21 20 22 33 37 36 38 39 20 32 110 25 43 23 21 30 29 61 38 23
internal_value=0 0.00713715 0.0102196 0.0121683 -0.0166534 0.0139635 0.0158016 0.017921 0.0198713 0.0219588 0.0153751 0.0180295 0.020863 0.0102819 -0.00363169 0.028142 -0.0214942 -0.02386 0.0177163 0.0294021 -0.0210065 -0.0261923 -0.0229008 0.030713 0.0278944 0.0343498 0.0305857 0.0327052 0.0347743 -0.0252167
internal_weight=0 756 692 665 324 640 613 581 549 510 247 226 206 92 59 263 284 246 40 114 207 64 176 227 134 82 111 82 93 133
internal_count=1080 756 692 665 324 640 613 581 549 510 247 226 206 92 59 263 284 246 40 114 207 64 176 227 134 82 111 82 93 133
shrinkage=0.1


Tree=6
num_leaves=31
num_cat=0
split_feature=8 12 794 1 16 1056 5 0 928 594 421 6 5 7 17 17 0 18 3 609 165 4 9 0 4 0 0 8 18 1168
split_gain=10.6643 6.41491 4.13845 4.81335 4.52658 4.85557 4.79055 3.0445 1.99599 1.81189 1.50036 1.08846 1.08147 1.01633 1.05093 1.00012 0.897657 0.844354 0.840933 0.543513 0.520001 0.458966 0.404951 0.528293 0.345862 0.327058 0.826517 0.301745 0.513853 0.299557
threshold=1.0000000180025095e-35 1.0000000180025095e-35 1.0000000180025095e-35 3.5000000000000004 1.0000000180025095e-35 1.0000000180025095e-35 1.0000000180025095e-35 1.0000000180025095e-35 1.0000000180025095e-35 1.0000000180025095e-35 1.0000000180025095e-35 1.0000000180025095e-35 1.5000000000000002 1.0000000180025095e-35 1.0000000180025095e-35 1.5000000000000002 2.5000000000000004 1.0000000180025095e-35 1.0000000180025095e-35 1.0000000180025095e-35 1.0000000180025095e-35 1.0000000180025095e-35 1.5000000000000002 13.500000000000002 1.5000000000000002 33.500000000000007 29.500000000000004 1.5000000000000002 1.0000000180025095e-35 1.0000000180025095e-35
decision_type=2 2 2 2 2 2 2 2 2 2 2 2 2 2 2 2 2 2 2 2 2 2 2 2 2 2 2 2 2 2
left_child=7 8 3 4 6 15 24 12 9 13 11 19 -1 14 -2 16 17 -6 -13 22 27 -8 23 -9 -3 26 -25 28 -15 -17
right_child=1 2 -4 -5 5 -7 21 10 -10 -11 -12 18 -14 20 -16 29 -18 -19 -20 -21 -22 -23 -24 25 -26 -27 -28 -29 -30 -31
leaf_value=-0.0068849944550058127 0.022003654225005043 0.018247252454360329 0.027350507711255273 0.040552891719908946 -0.022653824868409531 0.022954434777299564 -0.025527336620367491 -0.034827010750770569 -0.0075141581995733855 -0.0042706603450434547 0.0085676725615154627 0.0065915039607456751 0.02215159833431244 0.010445747945619666 -0.0046852393150329588 -0.035905712269819701 -0.033614653065091087 0.0038952230215072632 -0.019534645568240774 -0.035339183111985521 0.011851765960454941 -0.0067376849743036125 -0.0092672868208451709 -0.020609232805393361 0.033065989081348689 -0.02972725583956792 -0.00010122008945630945 0.03140465045968692 0.027705120262892353 -0.022405798462304203
leaf_weight=23 36 36 43 21 23 24 26 25 29 28 22 28 29 23 25 65 21 25 22 24 24 26 33 135 28 26 23 96 69 22
leaf_count=23 36 36 43 21 23 24 26 25 29 28 22 28 29 23 25 65 21 25 22 24 24 26 33 135 28 26 23 96 69 22
internal_value=0 0.00747071 -0.00176088 -0.00570974 -0.00899189 -0.0189192 0.00641257 -0.0132174 0.0175415 0.0199555 -0.0166829 -0.0184409 0.00930849 0.0224403 0.0110656 -0.0253613 -0.0163705 -0.0088262 -0.004904 -0.0209854 0.0257132 -0.0161325 -0.0195619 -0.0211874 0.0247304 -0.0193341 -0.0176239 0.0274827 0.0233903 -0.0324919
internal_weight=0 690 360 317 296 180 116 390 330 301 338 316 52 273 61 156 69 48 50 266 212 52 242 209 64 184 158 188 92 87
internal_count=1080 690 360 317 296 180 116 390 330 301 338 316 52 273 61 156 69 48 50 266 212 52 242 209 64 184 158 188 92 87
shrinkage=0.1


Tree=7
num_leaves=31
num_cat=0
split_feature=8 25 325 1072 219 334 363 1 992 23 0 71 17 7 14 9 11 11 13 194 2 2 480 17 1 12 0 491 0 744
split_gain=8.63807 5.25692 5.25487 4.305 3.53331 3.78794 3.02657 2.52164 1.65064 1.59938 1.27901 1.17347 1.10653 0.957525 0.615103 0.602054 0.601175 0.510721 1.57053 0.465725 0.565847 1.20121 0.43964 0.401801 0.364956 0.347279 0.886829 0.247704 0.227337 0.206012
threshold=1.0000000180025095e-35 1.0000000180025095e-35 1.0000000180025095e-35 1.0000000180025095e-35 1.0000000180025095e-35 1.0000000180025095e-35 1.0000000180025095e-35 1.5000000000000002 1.0000000180025095e-35 1.0000000180025095e-35 1.5000000000000002 1.0000000180025095e-35 3.5000000000000004 1.5000000000000002 2.5000000000000004 2.5000000000000004 1.0000000180025095e-35 1.5000000000000002 1.5000000000000002 1.0000000180025095e-35 1.0000000180025095e-35 2.5000000000000004 1.0000000180025095e-35 1.5000000000000002 1.0000000180025095e-35 1.0000000180025095e-35 15.500000000000002 1.0000000180025095e-35 30.500000000000004 1.0000000180025095e-35
decision_type=2 2 2 2 2 2 2 2 2 2 2 2 2 2 2 2 2 2 2 2 2 2 2 2 2 2 2 2 2 2
left_child=7 2 3 4 5 6 8 13 9 11 -9 12 17 14 15 16 25 18 19 20 23 -22 24 29 -3 26 -1 -19 -28 -2
right_child=1 22 -4 -5 -6 -7 -8 10 -10 -11 -12 -13 -14 -15 -16 -17 -18 27 -20 -21 21 -23 -24 -25 -26 -27 28 -29 -30 -31
leaf_value=0.0026123025200583717 0.030995224754015605 -0.0046994543820619589 -0.029959531081840397 -0.02290891816510874 -0.02650341448329744 -0.018629145237707322 -0.019792937735716502 0.02701741321520372 -0.007785235413096169 -0.0048931577553351724 -0.0049576607243768103 -0.0020521131902933123 -0.00021691232919692993 0.0017375992190453314 0.00025760263204574588 -0.028645144910974935 -0.0012454769015312196 0.033134863858039564 -0.0032115707794825236 0.033482394516468054 -0.0015175875808511462 0.027056705663281101 -0.031640731770059341 0.015449402265010343 -0.023574471047946386 -0.029841338027091255 -0.020726614495865384 0.02495494204205136 -0.012362286517786425 0.019789454199018935
leaf_weight=22 75 20 32 34 21 31 21 22 22 24 29 20 20 31 20 44 25 65 24 40 28 31 23 31 21 21 133 86 43 21
leaf_count=22 75 20 32 34 21 31 21 22 22 24 29 20 20 31 20 44 25 65 24 40 28 31 23 31 21 21 133 86 43 21
internal_value=0 0.00672364 0.00951454 0.0116411 0.0137388 0.0153066 0.0173775 -0.0118957 0.0189804 0.0202467 0.00883551 0.0216148 0.0227392 -0.0150145 -0.0167006 -0.0178783 -0.0159367 0.0238841 0.0211105 0.0236934 0.0215883 0.013496 -0.0205748 0.0253477 -0.0143671 -0.0176138 -0.0163169 0.0284761 -0.0186831 0.028544
internal_weight=0 690 626 594 560 539 508 390 487 465 51 441 421 339 308 288 244 401 250 226 186 59 64 127 41 219 198 151 176 96
internal_count=1080 690 626 594 560 539 508 390 487 465 51 441 421 339 308 288 244 401 250 226 186 59 64 127 41 219 198 151 176 96
shrinkage=0.1


Tree=8
num_leaves=31
num_cat=0
split_feature=20 265 96 485 980 323 334 325 120 1013 755 483 320 260 1000 13 18 315 2 249 17 580 19 0 0 0 128 14 1003 12
split_gain=7.12359 4.6479 4.27036 3.5278 3.29406 3.12903 3.67631 2.60153 2.39402 1.48954 1.82126 1.12049 0.884042 0.86958 1.27566 0.595579 0.449855 0.639169 1.01583 2.09428 0.601362 0.44505 0.314322 0.313443 0.604255 0.36959 0.237116 0.217632 0.211773 0.212277
threshold=1.0000000180025095e-35 1.0000000180025095e-35 1.0000000180025095e-35 1.0000000180025095e-35 1.0000000180025095e-35 1.0000000180025095e-35 1.0000000180025095e-35 1.0000000180025095e-35 1.0000000180025095e-35 1.0000000180025095e-35 1.0000000180025095e-35 1.0000000180025095e-35 1.0000000180025095e-35 1.0000000180025095e-35 1.0000000180025095e-35 1.0000000180025095e-35 1.0000000180025095e-35 1.0000000180025095e-35 1.0000000180025095e-35 1.0000000180025095e-35 1.5000000000000002 1.5000000000000002 1.0000000180025095e-35 33.500000000000007 29.500000000000004 15.500000000000002 1.0000000180025095e-35 1.0000000180025095e-35 1.0000000180025095e-35 1.5000000000000002
decision_type=2 2 2 2 2 2 2 2 2 2 2 2 2 2 2 2 2 2 2 2 2 2 2 2 2 2 2 2 2 2
left_child=1 2 3 5 13 6 7 8 9 10 11 12 16 14 15 23 17 18 20 -20 27 -6 -3 24 25 -2 28 -1 29 -18
right_child=4 22 -4 -5 21 -7 -8 -9 -10 -11 -12 -13 -14 -15 -16 -17 26 -19 19 -21 -22 -23 -24 -25 -26 -27 -28 -29 -30 -31
leaf_value=0.018723551211533723 -0.0058131673212709102 -0.026076965301464767 -0.031284626269782033 -0.027567784309387208 0.0039132674038410186 -0.027238403757413227 -0.02099524959921837 -0.019926173375411471 -0.011441456712782384 -0.0081737710082012676 -0.010994471254802886 -0.0029738053679466249 0.0028917485049792697 -0.034830207798791972 0.0048522384464740756 -0.031324593207010858 0.025912892368846925 0.032739575862884528 -0.0078423424136070986 0.027464831673673223 0.0088212741193947966 0.025009467303752898 -0.011712973415851594 -0.025518300900092494 0.0013633305611817734 -0.018325015397991719 0.013770477771759033 0.029719303079225403 0.021069283094257117 0.037068076580762867
leaf_weight=27 29 39 27 25 20 21 32 22 32 23 21 22 28 23 30 26 116 25 42 28 27 20 25 26 23 127 20 54 80 20
leaf_count=27 29 39 27 25 20 21 32 22 32 23 21 22 28 23 30 26 116 25 42 28 27 20 25 26 23 127 20 54 80 20
internal_value=0 0.00531679 0.00770132 0.00928421 -0.0124058 0.0107237 0.0120116 0.013811 0.0151246 0.0167196 0.0178423 0.0190806 0.0201196 -0.0161899 -0.0145473 -0.0170667 0.0212184 0.0177669 0.015664 0.00628053 0.0217459 0.0144614 -0.020466 -0.0152584 -0.0137682 -0.0159991 0.0241873 0.0260541 0.0251519 0.0275534
internal_weight=0 756 692 665 324 640 619 587 565 533 510 489 467 284 261 231 439 203 178 70 108 40 64 205 179 156 236 81 216 136
internal_count=1080 756 692 665 324 640 619 587 565 533 510 489 467 284 261 231 439 203 178 70 108 40 64 205 179 156 236 81 216 136
shrinkage=0.1


Tree=9
num_leaves=31
num_cat=0
split_feature=0 217 37 736 265 1123 1167 65 23 909 16 188 18 12 1 589 591 15 16 14 329 10 792 0 14 13 1134 0 14 9
split_gain=5.80705 3.70153 3.56302 2.76885 2.70697 2.13429 2.08065 1.95302 1.77274 1.84578 1.43046 1.42603 0.964149 0.923831 0.809289 1.25425 1.40219 1.65667 1.40326 0.793143 0.484214 0.481232 0.363177 0.318513 0.315098 0.289649 0.230507 0.183332 0.13531 0.155664
threshold=3.5000000000000004 1.0000000180025095e-35 1.5000000000000002 1.0000000180025095e-35 1.0000000180025095e-35 1.0000000180025095e-35 1.0000000180025095e-35 1.0000000180025095e-35 1.0000000180025095e-35 1.0000000180025095e-35 1.0000000180025095e-35 1.0000000180025095e-35 1.0000000180025095e-35 1.0000000180025095e-35 1.5000000000000002 1.0000000180025095e-35 1.0000000180025095e-35 1.0000000180025095e-35 1.0000000180025095e-35 1.5000000000000002 1.0000000180025095e-35 1.0000000180025095e-35 1.0000000180025095e-35 15.500000000000002 1.0000000180025095e-35 1.0000000180025095e-35 1.0000000180025095e-35 30.500000000000004 2.5000000000000004 1.5000000000000002
decision_type=2 2 2 2 2 2 2 2 2 2 2 2 2 2 2 2 2 2 2 2 2 2 2 2 2 2 2 2 2 2
left_child=1 3 6 4 5 7 11 8 9 12 -3 13 14 23 15 16 17 18 -1 -12 22 -19 26 -2 -17 -15 28 -25 29 -14
right_child=2 10 -4 -5 -6 -7 -8 -9 -10 -11 19 -13 20 25 -16 24 -18 21 -20 -21 -22 -23 -24 27 -26 -27 -28 -29 -30 -31
leaf_value=0.028941513473788899 -0.0044771810527890919 0.0051880228423303171 0.022651118735472361 -0.025966086206228839 -0.018006191358846776 -0.018781201152697855 0.01792505495250225 -0.017571879497596195 -0.013602963284305906 -0.014214060774871282 -0.029532309530711755 0.0098137255935441883 0.014643725892528893 -0.019207639729275423 0.025315353712614848 0.031068368120626973 0.022913458994750321 -0.0063306543875384985 -0.0060233248228376566 -0.0076985044670956479 0.0082661618789037061 -0.025283780481134145 0.034311146537462874 -0.017141444647490092 0.014946040235183859 -0.031324503142782983 0.012982145959840104 -0.0096369891665702648 0.028638701026256271 0.022529226632221885
leaf_weight=24 32 31 30 23 34 23 20 21 23 21 41 21 32 34 34 22 29 37 22 28 30 21 21 134 27 47 34 43 26 115
leaf_count=24 32 31 30 23 34 23 20 21 23 21 41 21 32 34 34 22 29 37 22 28 30 21 21 134 27 47 34 43 26 115
internal_value=0 0.00519583 -0.0103485 0.00807974 0.00939358 0.0110512 -0.0133394 0.0123242 0.0135362 0.0147972 -0.0126555 -0.01535 0.0160825 -0.0171722 0.0111535 0.00850784 0.00346902 -0.00195298 0.0122192 -0.0206722 0.0202092 -0.013193 0.0217807 -0.0136584 0.0221846 -0.0262384 0.0205095 -0.0153183 0.0219888 0.0208127
internal_weight=0 719 361 619 596 562 331 539 518 495 100 311 474 290 216 182 133 104 46 69 258 58 228 209 49 81 207 177 173 147
internal_count=1080 719 361 619 596 562 331 539 518 495 100 311 474 290 216 182 133 104 46 69 258 58 228 209 49 81 207 177 173 147
shrinkage=0.1


Tree=10
num_leaves=31
num_cat=0
split_feature=8 25 325 1072 499 511 1013 565 845 334 6 1069 0 497 6 609 1169 311 7 85 12 4 0 0 9 727 17 5 568 0
split_gain=4.73525 3.19881 3.27619 2.52985 2.20095 2.17519 1.76141 1.60205 1.52877 1.30234 1.1859 1.09522 1.15361 0.616692 0.593958 0.575975 0.538201 0.713988 0.400552 0.326587 0.279474 1.10016 0.263988 0.485469 0.263425 0.17293 0.194887 0.501231 0.207669 0.121334
threshold=1.0000000180025095e-35 1.0000000180025095e-35 1.0000000180025095e-35 1.0000000180025095e-35 1.0000000180025095e-35 1.0000000180025095e-35 1.0000000180025095e-35 1.0000000180025095e-35 1.0000000180025095e-35 1.0000000180025095e-35 1.5000000000000002 1.0000000180025095e-35 1.0000000180025095e-35 1.0000000180025095e-35 1.0000000180025095e-35 1.0000000180025095e-35 1.0000000180025095e-35 1.0000000180025095e-35 1.5000000000000002 1.0000000180025095e-35 1.5000000000000002 1.0000000180025095e-35 33.500000000000007 29.500000000000004 1.5000000000000002 1.0000000180025095e-35 1.5000000000000002 1.0000000180025095e-35 1.0000000180025095e-35 13.500000000000002
decision_type=2 2 2 2 2 2 2 2 2 2 2 2 2 2 2 2 2 2 2 2 2 2 2 2 2 2 2 2 2 2
left_child=8 2 3 4 5 6 7 9 10 13 11 12 -1 16 15 22 17 19 -3 20 25 -22 23 24 29 26 28 -28 -2 -14
right_child=1 18 -4 -5 -6 -7 -8 -9 -10 -11 -12 -13 14 -15 -16 -17 -18 -19 -20 -21 21 -23 -24 -25 -26 -27 27 -29 -30 -31
leaf_value=0.0067354876548051841 0.019213578572615665 -0.025007430284187712 -0.024013249808922412 -0.017651199242647957 -0.021318736601443518 -0.019870888051532566 -0.014093414726464646 -0.012162897871299224 0.016799058900638063 -0.0077671164403791022 0.013341352492570877 -0.03186389738321304 -0.020559957375129067 0.0013656391501426699 0.00036601722240447998 -0.03018320195376873 0.0043769090853888418 0.036900910586118697 -0.0091151486550058638 0.0066974708667168247 -0.0070303630083799369 0.021817060311635338 -0.022002771267524132 0.0023864648912263957 -0.0030039195781168732 0.027907581303430642 0.006205019227096013 0.025208586843117428 0.029482048004865646 -0.01321649808574606
leaf_weight=36 188 29 32 34 21 21 23 22 22 23 20 25 27 25 33 20 29 20 35 26 20 39 26 23 23 23 35 23 22 135
leaf_count=36 188 29 32 34 21 21 23 22 22 23 20 25 27 25 33 20 29 20 35 26 20 39 26 23 23 23 35 23 22 135
internal_value=0 0.00497814 0.00715521 0.00883432 0.0104424 0.0116798 0.0129589 0.0142159 -0.00880748 0.0154428 -0.0103383 -0.0116992 -0.0101385 0.0166291 -0.0122551 -0.0138948 0.0175269 0.0184899 -0.0163163 0.0175106 0.0183139 0.0120383 -0.0125026 -0.0113151 -0.0130186 0.0195863 0.0188721 0.0137409 0.0202893 -0.0144404
internal_weight=0 690 626 594 560 539 518 495 390 473 368 348 323 450 287 254 425 396 64 376 350 59 234 208 185 291 268 58 210 162
internal_count=1080 690 626 594 560 539 518 495 390 473 368 348 323 450 287 254 425 396 64 376 350 59 234 208 185 291 268 58 210 162
shrinkage=0.1


Tree=11
num_leaves=31
num_cat=0
split_feature=689 1 18 584 314 993 608 15 11 19 3 160 15 0 436 336 0 5 3 97 1100 3 1003 0 0 14 4 322 209 10
split_gain=3.98169 3.82239 3.43691 3.71292 2.35814 2.11156 1.72319 1.53769 1.46344 1.36659 1.33054 1.44215 1.06434 1.94884 0.919795 0.858334 0.626192 0.615633 0.556506 0.361514 0.269005 0.250228 0.335497 0.187126 0.437232 0.176488 0.17249 0.151965 0.1231 0.116629
threshold=1.0000000180025095e-35 3.5000000000000004 1.5000000000000002 1.0000000180025095e-35 1.0000000180025095e-35 1.0000000180025095e-35 1.5000000000000002 1.5000000000000002 1.0000000180025095e-35 1.0000000180025095e-35 1.5000000000000002 1.0000000180025095e-35 1.0000000180025095e-35 1.5000000000000002 1.0000000180025095e-35 1.0000000180025095e-35 1.0000000180025095e-35 1.5000000000000002 1.5000000000000002 1.0000000180025095e-35 1.0000000180025095e-35 1.5000000000000002 1.0000000180025095e-35 33.500000000000007 29.500000000000004 1.0000000180025095e-35 1.5000000000000002 1.0000000180025095e-35 1.0000000180025095e-35 1.0000000180025095e-35
decision_type=2 2 2 2 2 2 2 2 2 2 2 2 2 2 2 2 2 2 2 2 2 2 2 2 2 2 2 2 2 2
left_child=1 2 3 4 5 6 10 20 -2 17 11 12 13 25 19 16 -14 -4 -5 28 -6 -10 27 24 -15 -1 29 -23 -12 -18
right_child=8 -3 9 18 7 -7 -8 -9 21 -11 14 -13 15 23 -16 -17 26 -19 -20 -21 -22 22 -24 -25 -26 -27 -28 -29 -30 -31
leaf_value=0.018252002128532955 -0.0084653312340378772 0.028063663572837145 0.021533826694769019 0.025440061920218998 0.02565960341691971 0.013207705361502512 0.013592790782451632 -0.010944968355553491 0.0081970954934755969 -0.012111813042845046 -0.033041283965110781 0.014278315820477226 -0.010196560346766522 -0.012621359880536032 -0.0035566054639362154 -0.0003339991621349169 -0.024993781029031829 0.0057734710283768483 0.0052523835816166622 -0.016730002838152427 0.010989774405956269 0.032961646873842586 0.0161155477553219 -0.019802495607962975 0.0021478182595709096 0.0052872977086475918 -0.018350227618658985 0.020917655453085899 -0.024064951186830347 -0.033421353561182816
leaf_weight=21 24 39 68 36 25 35 25 28 21 21 50 22 38 156 21 23 52 39 22 27 25 22 77 26 23 21 27 20 22 24
leaf_count=21 24 39 68 36 25 35 25 28 21 21 50 22 38 156 21 23 52 39 22 27 25 22 77 26 23 21 27 20 22 24
internal_value=0 -0.00256919 -0.00393143 -0.00651933 -0.00855915 -0.010643 -0.0120872 0.00781763 0.0143499 0.0112119 -0.0132482 -0.0106659 -0.0120011 -0.00785454 -0.0225658 -0.0182463 -0.0211682 0.0157894 0.0177827 -0.026598 0.0183247 0.018261 0.020037 -0.0118751 -0.0107236 0.0117696 -0.025216 0.0272264 -0.0302985 -0.0276551
internal_weight=0 916 877 749 691 613 578 78 164 128 553 433 411 247 120 164 141 107 58 99 50 140 119 205 179 42 103 42 72 76
internal_count=1080 916 877 749 691 613 578 78 164 128 553 433 411 247 120 164 141 107 58 99 50 140 119 205 179 42 103 42 72 76
shrinkage=0.1


Tree=12
num_leaves=31
num_cat=0
split_feature=7 1108 12 1 677 217 16 14 15 11 862 1000 3 3 8 0 15 15 0 16 2 8 9 17 83 1007 0 0 0 169
split_gain=3.3247 3.58741 2.93157 2.27008 2.61396 1.85272 1.33 1.15005 0.935461 1.42506 1.24277 0.948268 1.18566 0.915628 1.07305 0.752934 0.74026 0.641587 0.639984 0.590041 0.414593 0.259695 0.223956 0.217695 0.202483 0.194562 0.17746 0.31619 0.166809 0.150012
threshold=1.0000000180025095e-35 1.0000000180025095e-35 1.5000000000000002 2.5000000000000004 1.0000000180025095e-35 1.0000000180025095e-35 1.0000000180025095e-35 1.5000000000000002 1.0000000180025095e-35 2.5000000000000004 1.0000000180025095e-35 1.0000000180025095e-35 1.5000000000000002 1.5000000000000002 1.5000000000000002 1.5000000000000002 1.0000000180025095e-35 1.0000000180025095e-35 13.500000000000002 1.0000000180025095e-35 1.5000000000000002 2.5000000000000004 2.5000000000000004 1.0000000180025095e-35 1.0000000180025095e-35 1.0000000180025095e-35 33.500000000000007 29.500000000000004 18.500000000000004 1.0000000180025095e-35
decision_type=2 2 2 2 2 2 2 2 2 2 2 2 2 2 2 2 2 2 2 2 2 2 2 2 2 2 2 2 2 2
left_child=1 13 5 4 16 8 -6 -7 20 10 11 12 19 14 15 17 -4 -1 -17 -10 -2 -13 -15 -19 -11 29 27 28 -20 -18
right_child=2 -3 3 -5 6 7 -8 -9 9 24 -12 21 -14 22 -16 18 25 23 26 -21 -22 -23 -24 -25 -26 -27 -28 -29 -30 -31
leaf_value=0.0081223886963483465 0.023233788677408728 0.015754548243937957 -0.0012144348451069422 0.025964946448802952 0.023125391581962848 -0.020273150131106379 -0.0090752644707327301 0.0080414589781027581 0.0095384200910727177 0.025073454050081118 0.017804512110623446 0.0018116281181573869 -0.027652992612936279 -0.029475759714841843 0.011652788043022156 -0.023343489464858307 -0.027526485785841943 -0.017105514662606375 -0.0055052466335750762 -0.009222031502347244 0.0074253956476847335 0.017099709689617156 -0.016090516120195391 -0.0030231059893317848 0.015192889980971814 -0.013784665817564185 -0.0178222472851093 0.0019330364206562871 -0.013085621421007401 -0.017454917941774641
leaf_weight=37 79 62 21 20 29 32 23 26 30 28 44 20 22 25 25 46 50 21 42 38 21 25 25 23 80 22 26 23 94 21
leaf_count=37 79 62 21 20 29 32 23 26 30 28 44 20 22 25 25 46 50 21 42 38 21 25 25 23 80 22 26 23 94 21
internal_value=0 -0.00657742 0.00468029 -0.00586258 -0.00969722 0.00908697 0.00888279 -0.00758039 0.0115849 0.00868279 0.00320935 -0.00154759 -0.00747389 -0.0101552 -0.00828156 -0.00987887 -0.0181723 -0.00158295 -0.0127878 -0.000945362 0.019914 0.010305 -0.0227831 -0.00974426 0.0177545 -0.0220015 -0.0101632 -0.00891075 -0.0107446 -0.0245476
internal_weight=0 449 631 186 166 445 52 58 387 287 179 135 90 387 337 312 114 81 231 68 100 45 50 44 108 93 185 159 136 71
internal_count=1080 449 631 186 166 445 52 58 387 287 179 135 90 387 337 312 114 81 231 68 100 45 50 44 108 93 185 159 136 71
shrinkage=0.1


Tree=13
num_leaves=31
num_cat=0
split_feature=7 1108 12 1 487 15 77 169 928 18 1005 18 15 10 677 975 19 3 0 614 16 0 27 2 16 11 562 175 18 0
split_gain=2.693 2.9058 2.41477 2.19899 1.79253 1.98441 1.48412 1.30596 1.02008 0.931185 0.777091 0.743795 1.42117 0.976099 0.683385 0.628091 0.4717 0.703222 0.620427 0.368167 0.335488 0.472044 0.334078 0.214453 0.292893 0.171983 0.352349 0.283259 0.342108 0.131978
threshold=1.0000000180025095e-35 1.0000000180025095e-35 1.0000000180025095e-35 3.5000000000000004 1.0000000180025095e-35 1.0000000180025095e-35 1.0000000180025095e-35 1.0000000180025095e-35 1.0000000180025095e-35 1.0000000180025095e-35 1.0000000180025095e-35 1.0000000180025095e-35 1.0000000180025095e-35 1.0000000180025095e-35 1.0000000180025095e-35 1.0000000180025095e-35 1.0000000180025095e-35 1.0000000180025095e-35 15.500000000000002 1.0000000180025095e-35 2.5000000000000004 2.5000000000000004 1.0000000180025095e-35 1.0000000180025095e-35 1.5000000000000002 1.0000000180025095e-35 1.0000000180025095e-35 1.0000000180025095e-35 1.0000000180025095e-35 30.500000000000004
decision_type=2 2 2 2 2 2 2 2 2 2 2 2 2 2 2 2 2 2 2 2 2 2 2 2 2 2 2 2 2 2
left_child=1 10 7 4 5 9 14 8 19 -4 11 13 -13 16 22 -6 17 18 -1 20 21 25 23 24 -7 26 -2 28 -27 -20
right_child=2 -3 3 -5 15 6 -8 -9 -10 -11 -12 12 -14 -15 -16 -17 -18 -19 29 -21 -22 -23 -24 -25 -26 27 -28 -29 -30 -31
leaf_value=0.0052028225554573921 0.0036328260813440596 0.014179093426754398 -0.0050141355395317078 0.028193862541862159 -0.0035126053506419775 -0.011895375041400686 0.0090477302097357239 -0.0083346809726208455 -0.0081041769612403142 0.019509131135419012 -0.02459765973190467 0.017805108328660332 -0.011855840640408653 -0.027080409203966462 -0.0019584825978829312 0.017431765678856109 0.0031396875327283687 -0.026646671376445077 -0.011696633237196987 0.027202630483291371 0.025080850072529005 0.0013989350109389334 -0.0084863390096209263 -0.026717138290405274 -0.0265066740953404 0.031600340753793719 0.018151106289587916 0.0087865934803568087 0.016168749420081868 -0.0053235903035762705
leaf_weight=31 35 62 30 23 21 34 26 32 21 32 30 30 35 30 26 45 33 22 133 22 23 33 22 51 23 20 32 29 51 43
leaf_count=31 35 62 30 23 21 34 26 32 21 32 30 30 35 30 26 45 33 22 133 22 23 33 22 51 23 20 32 29 51 43
internal_value=0 -0.00591968 0.00421226 -0.00163981 -0.00385328 -0.00780812 -0.0130717 0.0107517 0.0130478 0.00764303 -0.00913964 -0.00784064 0.00183383 -0.00999421 -0.0167583 0.0107676 -0.00803777 -0.0096485 -0.00784193 0.0148608 0.0136432 0.0123279 -0.0197182 -0.0220062 -0.0177912 0.0144875 0.0105669 0.0171142 0.0205157 -0.0101396
internal_weight=0 449 631 333 310 244 182 298 266 62 387 357 65 292 156 66 262 229 207 245 223 200 130 108 57 167 67 100 71 176
internal_count=1080 449 631 333 310 244 182 298 266 62 387 357 65 292 156 66 262 229 207 245 223 200 130 108 57 167 67 100 71 176
shrinkage=0.1


Tree=14
num_leaves=31
num_cat=0
split_feature=993 1 794 584 15 0 1051 3 505 1017 209 16 18 12 5 1 12 19 6 3 1018 1 653 180 1009 9 9 2 0 0
split_gain=2.33116 2.26049 1.99598 1.72701 1.6455 2.32452 2.10252 1.54834 1.19653 0.805209 0.700391 0.685354 0.62527 0.951934 0.615734 1.30358 0.518545 0.402211 0.377989 0.37496 0.364769 0.419986 0.277524 0.217387 0.16554 0.228957 0.15639 0.211961 0.124255 0.297093
threshold=1.0000000180025095e-35 4.5000000000000009 1.0000000180025095e-35 1.0000000180025095e-35 1.0000000180025095e-35 15.500000000000002 1.0000000180025095e-35 2.5000000000000004 1.0000000180025095e-35 1.0000000180025095e-35 1.0000000180025095e-35 1.0000000180025095e-35 1.0000000180025095e-35 1.0000000180025095e-35 1.0000000180025095e-35 1.0000000180025095e-35 1.0000000180025095e-35 1.0000000180025095e-35 1.0000000180025095e-35 1.5000000000000002 1.0000000180025095e-35 1.5000000000000002 1.0000000180025095e-35 1.0000000180025095e-35 1.0000000180025095e-35 1.0000000180025095e-35 2.5000000000000004 1.0000000180025095e-35 33.500000000000007 29.500000000000004
decision_type=2 2 2 2 2 2 2 2 2 2 2 2 2 2 2 2 2 2 2 2 2 2 2 2 2 2 2 2 2 2
left_child=1 2 3 4 5 7 8 11 9 14 -11 17 13 -13 15 16 -6 24 22 -5 21 23 -2 26 25 -1 27 -16 29 -7
right_child=18 -3 -4 19 6 28 -8 -9 -10 10 -12 12 -14 -15 20 -17 -18 -19 -20 -21 -22 -23 -24 -25 -26 -27 -28 -29 -30 -31
leaf_value=0.012546656845193922 0.022720493929726738 0.024448342993855478 0.01156074402232965 0.01925138179744993 -0.0091500065019053788 -0.0099133286771811852 0.014703644975088538 -0.019962939098477364 0.011736112460494042 0.010133048951625825 -0.013537872880697251 0.0078358104825019849 0.015148661082441157 -0.021044562136133513 -0.010378189168630108 0.0072645880281925201 -0.028506932616233827 0.024104159582277823 0.0015608575195074081 0.0020871231704950332 -0.0066181757203910667 -0.031490626103348206 0.011704969744790685 -0.0096320779277728162 0.015975384776081358 -0.00045056440260099327 -0.023748448104770097 -0.021279638260602952 -0.015507661837797899 0.002438344514888266
leaf_weight=33 35 32 90 35 31 127 32 20 20 25 25 25 22 21 31 33 25 29 24 20 23 27 66 26 35 23 54 42 26 23
leaf_count=33 35 32 90 35 31 127 32 20 20 25 25 25 22 21 31 33 25 29 24 20 23 27 66 26 35 23 54 42 26 23
internal_value=0 -0.00168084 -0.00258673 -0.00411527 -0.00532591 -0.000667456 -0.00986614 0.00648946 -0.0120381 -0.0134284 -0.00170241 0.00930354 0.00128279 -0.00534871 -0.0154362 -0.00850103 -0.0177915 0.0138486 0.0128416 0.0130098 -0.0184768 -0.019992 0.0155222 -0.0179629 0.0105804 0.00720851 -0.0196684 -0.0166503 -0.00912563 -0.00801941
internal_weight=0 955 923 833 778 384 394 208 362 342 50 188 68 46 292 89 56 120 125 55 203 180 101 153 91 56 127 73 176 150
internal_count=1080 955 923 833 778 384 394 208 362 342 50 188 68 46 292 89 56 120 125 55 203 180 101 153 91 56 127 73 176 150
shrinkage=0.1


Tree=15
num_leaves=31
num_cat=0
split_feature=7 1108 332 577 1160 609 499 125 217 928 832 205 615 18 10 12 19 616 833 609 11 1115 14 5 3 7 1007 14 16 0
split_gain=1.93463 1.99907 1.99048 1.70019 1.73323 1.92343 1.2055 1.12172 0.68413 0.652046 0.716377 0.640827 0.597087 1.0308 0.764338 0.63928 0.560694 0.505834 0.549677 0.548127 1.00001 0.371471 0.596787 0.291689 0.41173 0.252069 0.317239 0.211434 0.190009 0.229044
threshold=1.0000000180025095e-35 1.0000000180025095e-35 1.0000000180025095e-35 1.0000000180025095e-35 1.0000000180025095e-35 1.5000000000000002 1.0000000180025095e-35 1.0000000180025095e-35 1.0000000180025095e-35 1.0000000180025095e-35 1.0000000180025095e-35 1.0000000180025095e-35 1.0000000180025095e-35 1.0000000180025095e-35 1.0000000180025095e-35 1.0000000180025095e-35 1.0000000180025095e-35 1.0000000180025095e-35 1.0000000180025095e-35 1.0000000180025095e-35 2.5000000000000004 1.0000000180025095e-35 2.5000000000000004 1.0000000180025095e-35 1.0000000180025095e-35 2.5000000000000004 1.0000000180025095e-35 1.0000000180025095e-35 1.0000000180025095e-35 15.500000000000002
decision_type=2 2 2 2 2 2 2 2 2 2 2 2 2 2 2 2 2 2 2 2 2 2 2 2 2 2 2 2 2 2
left_child=1 11 3 4 5 6 7 9 -6 10 17 12 13 14 16 -15 28 18 19 21 -21 22 23 25 -25 26 -2 -26 29 -1
right_child=2 -3 -4 -5 8 -7 -8 -9 -10 -11 -12 -13 -14 15 -16 -17 -18 -19 -20 20 -22 -23 -24 24 27 -27 -28 -29 -30 -31
leaf_value=0.0018421649932861329 -0.0029076179972401372 0.011653188015184095 -0.026700258325962796 -0.017117479443550111 -0.0020777897248345036 -0.016133362008258701 -0.014274235885767712 -0.012377299439339412 -0.025454341088022504 -0.0035102203488349918 -0.0038315111054823951 -0.021241716039367021 -0.022422084330835129 0.018906391143798829 -0.024567540794610977 -0.0027455230057239536 0.0071061829903296056 0.027696694951990376 0.027391430379255961 -0.014678169077350981 0.011107000792926213 0.0015935545787215235 0.028961083292961123 0.027444586992263792 0.01878164715545122 0.018023826252846493 0.011121123470366001 0.0098723417307649344 -0.016511481352474378 -0.0082130622880702674
leaf_weight=26 27 62 21 34 31 32 21 21 21 28 26 32 22 25 25 30 28 23 23 21 53 24 26 25 43 21 40 70 23 176
leaf_count=26 27 62 21 34 31 32 21 21 21 28 26 32 22 25 25 30 28 23 23 21 53 24 26 25 43 21 40 70 23 176
internal_value=0 -0.0050174 0.00357022 0.00461232 0.00589498 0.00762302 0.00916815 0.0102134 -0.0115183 0.0112676 0.0122481 -0.00768814 -0.00646641 -0.00541228 -0.00788699 0.00709626 -0.00623871 0.0133038 0.0124163 0.0114323 0.00378959 0.0134814 0.0146136 0.012963 0.0158318 0.00846409 0.00546775 0.0132626 -0.00789941 -0.00691883
internal_weight=0 449 631 610 576 524 492 471 52 450 422 387 355 333 278 55 253 396 373 350 74 276 252 226 138 88 67 113 225 202
internal_count=1080 449 631 610 576 524 492 471 52 450 422 387 355 333 278 55 253 396 373 350 74 276 252 226 138 88 67 113 225 202
shrinkage=0.1


Tree=16
num_leaves=31
num_cat=0
split_feature=993 1 794 584 29 15 1051 0 17 15 6 5 19 1114 1 10 11 3 5 6 653 369 18 7 8 19 4 0 0 5
split_gain=1.6402 1.65658 1.4644 1.23173 1.3276 1.33526 1.60514 1.55308 1.02703 0.571212 0.73106 0.608213 0.98661 0.340052 0.330064 0.34486 0.30954 0.280583 0.276911 0.267417 0.224771 0.212199 0.208846 0.159197 0.266391 0.306275 0.119571 0.100503 0.238475 0.0897976
threshold=1.0000000180025095e-35 3.5000000000000004 1.0000000180025095e-35 1.0000000180025095e-35 1.5000000000000002 1.0000000180025095e-35 1.0000000180025095e-35 2.5000000000000004 1.5000000000000002 2.5000000000000004 1.5000000000000002 1.0000000180025095e-35 1.0000000180025095e-35 1.0000000180025095e-35 1.5000000000000002 1.0000000180025095e-35 1.0000000180025095e-35 1.5000000000000002 1.0000000180025095e-35 1.0000000180025095e-35 1.0000000180025095e-35 1.0000000180025095e-35 1.0000000180025095e-35 2.5000000000000004 1.0000000180025095e-35 1.0000000180025095e-35 1.0000000180025095e-35 33.500000000000007 29.500000000000004 1.5000000000000002
decision_type=2 2 2 2 2 2 2 2 2 2 2 2 2 2 2 2 2 2 2 2 2 2 2 2 2 2 2 2 2 2
left_child=1 2 3 4 5 7 9 8 16 10 11 12 -7 14 15 23 22 -5 -11 20 -2 27 -1 24 -13 -26 -20 28 -9 -4
right_child=19 -3 29 17 -6 6 -8 21 -10 18 -12 13 -14 -15 -16 -17 -18 -19 26 -21 -22 -23 -24 -25 25 -27 -28 -29 -30 -31
leaf_value=0.0028523999783727858 0.019504459606749673 0.018774709449364588 0.01174845239994201 0.016268257690327508 0.014699247873881284 -0.011772281686334235 0.011767742712981999 -0.0079147753237888523 -0.0091231268147627508 -0.027725787771244844 0.0057041379012938206 -0.011954151274579945 0.015667461454868317 -0.0019211474433541301 -0.026825447315755098 -0.0042271056951119984 0.020234743529750455 0.0014204324781894684 -0.010378034579856643 0.001283250500758489 0.0095910131028204264 0.0030107237652621487 0.01335117424838245 -0.0089233591443016423 -0.032571162496294291 -0.015867629679648772 -0.019006216319070925 -0.013135589086092437 0.0030158166004263837 0.0046055274394651256
leaf_weight=36 35 39 66 35 34 38 32 151 30 24 29 33 20 20 23 29 31 20 29 24 66 22 40 21 21 23 36 26 23 24
leaf_count=36 35 39 66 35 34 38 32 151 30 24 29 33 20 20 23 29 31 20 29 24 66 22 40 21 21 23 36 26 23 24
internal_value=0 -0.00140991 -0.0022693 -0.00358911 -0.0046205 -0.00551177 -0.00965989 -0.00114412 0.00722859 -0.0116416 -0.00925058 -0.0111527 -0.0023103 -0.0141695 -0.0158027 -0.0138064 0.0118132 0.010869 -0.0185461 0.0107717 0.0130264 -0.00631107 0.00837807 -0.0166411 -0.0187459 -0.0238398 -0.0151567 -0.00733646 -0.00646993 0.00984367
internal_weight=0 955 916 826 771 737 378 359 137 346 257 228 58 170 150 127 107 55 89 125 101 222 76 98 77 44 65 200 174 90
internal_count=1080 955 916 826 771 737 378 359 137 346 257 228 58 170 150 127 107 55 89 125 101 222 76 98 77 44 65 200 174 90
shrinkage=0.1


Tree=17
num_leaves=31
num_cat=0
split_feature=7 332 1108 577 1160 609 499 125 1005 217 928 123 820 616 825 1 15 0 17 833 5 8 1 608 6 88 357 1003 0 0
split_gain=1.35292 1.46557 1.3926 1.22913 1.24798 1.4241 0.897628 0.758367 0.585901 0.498414 0.48265 0.585573 0.428873 0.407026 0.395244 0.455335 0.462374 0.479137 0.4363 0.3707 0.325125 0.887466 0.347462 0.448802 0.245159 0.171662 0.197534 0.226616 0.0987655 0.166174
threshold=1.0000000180025095e-35 1.0000000180025095e-35 1.0000000180025095e-35 1.0000000180025095e-35 1.0000000180025095e-35 1.5000000000000002 1.0000000180025095e-35 1.0000000180025095e-35 1.0000000180025095e-35 1.0000000180025095e-35 1.0000000180025095e-35 1.0000000180025095e-35 1.0000000180025095e-35 1.0000000180025095e-35 1.0000000180025095e-35 1.5000000000000002 1.5000000000000002 1.5000000000000002 1.0000000180025095e-35 1.0000000180025095e-35 1.5000000000000002 1.0000000180025095e-35 1.0000000180025095e-35 1.0000000180025095e-35 1.0000000180025095e-35 1.0000000180025095e-35 1.0000000180025095e-35 1.0000000180025095e-35 33.500000000000007 29.500000000000004
decision_type=2 2 2 2 2 2 2 2 2 2 2 2 2 2 2 2 2 2 2 2 2 2 2 2 2 2 2 2 2 2
left_child=2 3 8 4 5 6 7 10 14 -6 11 12 13 19 15 16 17 18 -1 20 21 -2 23 -22 25 26 27 -23 29 -19
right_child=1 -3 -4 -5 9 -7 -8 -9 -10 -11 -12 -13 -14 -15 -16 -17 -18 28 -20 -21 22 24 -24 -25 -26 -27 -28 -29 -30 -31
leaf_value=0.012545183176795642 -0.008689477008122665 -0.02298868993918101 0.009718087591951894 -0.014596079026951508 -0.0017476696160531814 -0.014004736253991724 -0.01246238923853352 -0.0099067157134413719 -0.019847309160977603 -0.02170057992140452 -0.0031791549442069869 -0.0038693328974423583 -0.00057694486209324426 0.026134271100163461 -0.018281017159196465 0.0085380756855010977 -0.014863272166500489 -0.0063691067842789641 -0.0055441690298418207 0.024679281357675793 0.030017056375741959 0.01981109066400677 0.0046884035070737205 0.013017511204248523 0.00087688494135033002 0.0078420371504930361 0.0069108462410754183 0.0097085810759488279 -0.011822031094477728 0.0027142349792563399
leaf_weight=30 26 21 62 34 31 32 21 21 30 21 28 27 28 20 22 25 45 162 24 20 25 64 21 41 22 65 29 34 26 23
leaf_count=30 26 21 62 34 31 32 21 21 30 21 28 27 28 20 22 25 45 162 24 20 25 64 21 41 22 65 29 34 26 23
internal_value=0 0.00298561 -0.00419581 0.00387981 0.0049704 0.00643672 0.00776624 0.00866816 -0.00642492 -0.00980558 0.00953498 0.0103786 0.0113525 0.0122626 -0.00529698 -0.0044443 -0.00549127 -0.00389979 0.00450547 0.0114631 0.0106548 0.00875631 0.015892 0.0194567 0.0108759 0.0120216 0.0141608 0.0163061 -0.0060509 -0.00523983
internal_weight=0 631 449 610 576 524 492 471 387 52 450 422 395 367 357 335 310 265 54 347 327 240 87 66 214 192 127 98 211 185
internal_count=1080 631 449 610 576 524 492 471 387 52 450 422 395 367 357 335 310 265 54 347 327 240 87 66 214 192 127 98 211 185
shrinkage=0.1


Tree=18
num_leaves=31
num_cat=0
split_feature=1 121 993 499 49 65 18 989 429 127 1 215 809 4 617 2 0 7 6 5 14 612 1171 607 13 283 608 5 11 15
split_gain=1.27769 1.26891 1.34688 1.13814 1.16015 0.991705 1.1406 1.48656 0.958335 1.02768 0.73353 0.784391 0.845463 0.533136 0.41213 0.335222 0.503193 0.389379 0.38667 0.369013 0.30743 0.375942 0.283253 0.214171 0.208468 0.203896 0.199609 0.25601 0.123981 0.113734
threshold=4.5000000000000009 1.0000000180025095e-35 1.0000000180025095e-35 1.0000000180025095e-35 1.0000000180025095e-35 1.0000000180025095e-35 1.5000000000000002 1.0000000180025095e-35 1.5000000000000002 1.0000000180025095e-35 1.5000000000000002 1.0000000180025095e-35 1.0000000180025095e-35 2.5000000000000004 1.0000000180025095e-35 1.0000000180025095e-35 1.0000000180025095e-35 1.0000000180025095e-35 1.0000000180025095e-35 1.0000000180025095e-35 1.0000000180025095e-35 1.0000000180025095e-35 1.0000000180025095e-35 1.0000000180025095e-35 1.0000000180025095e-35 1.0000000180025095e-35 1.0000000180025095e-35 1.0000000180025095e-35 3.5000000000000004 1.5000000000000002
decision_type=2 2 2 2 2 2 2 2 2 2 2 2 2 2 2 2 2 2 2 2 2 2 2 2 2 2 2 2 2 2
left_child=1 2 3 4 5 6 7 8 9 10 11 12 13 14 15 16 -1 -17 19 -18 22 -22 -9 -13 -19 29 27 -8 -27 -4
right_child=-2 -3 25 -5 -6 -7 26 20 -10 -11 -12 23 -14 -15 -16 17 18 24 -20 -21 21 -23 -24 -25 -26 28 -28 -29 -30 -31
leaf_value=0.0082583994274177865 0.019373896085854735 -0.020540671963845531 0.018419423252344132 -0.021945586399390149 -0.016728347409949745 -0.016868020007104585 0.0087469224219343493 0.023501481457302967 0.018655149675905706 0.016171638429164886 0.00898509172571672 -0.023051663807460241 0.014456986052834471 0.0080631367330040258 -0.019851877753223696 -0.017933478569839061 -0.0051527379714336602 0.0028139138505572365 0.0067736393493153932 -0.018297193665057422 -0.0020319908090374052 0.012838865345453516 0.0077924632213332446 -0.010447577258142141 -0.0111155118285255 0.00043683925271034241 0.0034088958901437845 0.020601644891279719 0.0097729295943722594 0.0097823091452160192
leaf_weight=31 33 31 30 26 43 33 56 24 20 25 37 28 23 28 21 41 194 21 24 24 34 34 22 26 22 25 33 27 33 31
leaf_count=31 33 31 30 26 43 33 56 24 20 25 37 28 23 28 21 41 194 21 24 24 34 34 22 26 22 25 33 27 33 31
internal_value=0 -0.000610639 -2.53715e-06 -0.0013287 -0.000713266 0.000118435 0.000823534 -0.000742057 -0.00284382 -0.00363278 -0.00458491 -0.00562444 -0.00419468 -0.0052513 -0.00623756 -0.00543672 -0.00373695 -0.010961 -0.00527354 -0.00659983 0.00967459 0.00540344 0.0159885 -0.016983 -0.00431277 0.0099938 0.00998763 0.0126033 0.00574875 0.0140301
internal_weight=0 1047 1016 897 871 828 795 679 565 545 520 483 429 406 378 357 273 84 242 218 114 68 46 54 43 119 116 83 58 61
internal_count=1080 1047 1016 897 871 828 795 679 565 545 520 483 429 406 378 357 273 84 242 218 114 68 46 54 43 119 116 83 58 61
shrinkage=0.1


Tree=19
num_leaves=31
num_cat=0
split_feature=1 49 660 219 7 307 1108 535 768 823 169 1005 12 0 2 18 15 10 3 95 13 14 1005 15 9 16 0 4 0 0
split_gain=1.04739 1.07801 1.0192 1.08751 1.20233 1.04043 0.891482 0.700784 0.643007 0.665996 0.823484 0.595193 0.365168 0.464598 0.426021 0.361892 0.473277 0.35592 0.334068 0.393603 0.388891 0.28735 0.15127 0.132352 0.117921 0.114965 0.283004 0.107354 0.101387 0.150684
threshold=3.5000000000000004 1.0000000180025095e-35 1.0000000180025095e-35 1.0000000180025095e-35 1.0000000180025095e-35 1.0000000180025095e-35 1.0000000180025095e-35 1.0000000180025095e-35 1.0000000180025095e-35 1.0000000180025095e-35 1.0000000180025095e-35 1.0000000180025095e-35 1.0000000180025095e-35 1.0000000180025095e-35 1.0000000180025095e-35 1.0000000180025095e-35 1.0000000180025095e-35 1.0000000180025095e-35 1.0000000180025095e-35 1.0000000180025095e-35 1.0000000180025095e-35 1.5000000000000002 1.0000000180025095e-35 1.0000000180025095e-35 2.5000000000000004 1.0000000180025095e-35 15.500000000000002 1.0000000180025095e-35 30.500000000000004 25.500000000000004
decision_type=2 2 2 2 2 2 2 2 2 2 2 2 2 2 2 2 2 2 2 2 2 2 2 2 2 2 2 2 2 2
left_child=1 2 3 4 6 7 11 8 9 10 12 15 14 -14 -6 17 -17 21 -15 20 23 25 -12 -20 -4 26 -1 -3 29 -28
right_child=-2 27 24 -5 5 -7 -8 -9 -10 -11 22 -13 13 18 -16 16 -18 -19 19 -21 -22 -23 -24 -25 -26 -27 28 -29 -30 -31
leaf_value=0.0052717479478035659 0.015879248697310687 -0.010528269259347803 -0.016578314628671199 -0.017247169837355615 0.020349356895962428 -0.011336713551065407 0.0086138691753149029 -0.008431260059437444 -0.0087706690498938165 0.024995502626354044 -0.012217752138773602 -0.019690716604236515 -0.0091912749968469151 0.018412290852178225 0.0090671643762793765 0.013431793299538117 -0.0060889690790487377 -0.016707119139154319 0.012461901048109646 0.015613678183693153 -0.0086135632752512518 0.0069432058250126633 -6.5855383872985847e-05 0.0024199934729507992 -0.007423191276999812 -0.011836857880864825 -0.0053775499016046526 -0.020318663554886977 -0.0013308496669281362 -0.01427773324691731
leaf_weight=28 40 21 34 32 43 37 61 31 24 22 21 24 20 22 151 27 23 23 21 26 26 23 20 35 24 21 110 24 43 23
leaf_count=28 40 21 34 32 43 37 61 31 24 22 21 24 20 22 151 27 23 23 21 26 26 23 20 35 24 21 110 24 43 23
internal_value=0 -0.00061074 7.39413e-05 0.000870214 0.00151083 0.0047986 -0.00253005 0.00609082 0.00713533 0.00807327 0.00710629 -0.00450042 0.00870294 0.00499765 0.0115679 -0.0033647 0.00445224 -0.00480694 0.00718056 0.00489262 0.00149326 -0.00370329 -0.00629 0.00618571 -0.01279 -0.0047916 -0.00406635 -0.0157498 -0.00555196 -0.00691668
internal_weight=0 1040 995 937 905 499 406 462 431 407 385 345 344 150 194 321 50 271 130 108 82 248 41 56 58 225 204 45 176 133
internal_count=1080 1040 995 937 905 499 406 462 431 407 385 345 344 150 194 321 50 271 130 108 82 248 41 56 58 225 204 45 176 133
shrinkage=0.1


Tree=20
num_leaves=31
num_cat=0
split_feature=485 292 7 1069 505 1108 768 1114 15 11 29 862 16 14 327 2 604 14 1 12 0 15 600 491 11 4 7 2 0 0
split_gain=0.871336 1.03875 0.901009 0.790995 0.857131 0.691291 0.642087 0.627209 0.678887 0.796169 0.68252 0.864438 0.677637 0.64855 0.600932 0.493755 0.412148 0.395941 0.308197 0.343327 0.430896 0.499995 0.293938 0.200881 0.167189 0.164316 0.102577 0.100951 0.0821235 0.122054
threshold=1.0000000180025095e-35 1.0000000180025095e-35 1.0000000180025095e-35 1.0000000180025095e-35 1.0000000180025095e-35 1.0000000180025095e-35 1.0000000180025095e-35 1.0000000180025095e-35 1.0000000180025095e-35 2.5000000000000004 1.0000000180025095e-35 1.0000000180025095e-35 1.0000000180025095e-35 1.0000000180025095e-35 1.0000000180025095e-35 1.5000000000000002 1.0000000180025095e-35 1.0000000180025095e-35 1.5000000000000002 1.0000000180025095e-35 15.500000000000002 1.0000000180025095e-35 1.0000000180025095e-35 1.0000000180025095e-35 1.0000000180025095e-35 1.0000000180025095e-35 1.5000000000000002 1.0000000180025095e-35 30.500000000000004 25.500000000000004
decision_type=2 2 2 2 2 2 2 2 2 2 2 2 2 2 2 2 2 2 2 2 2 2 2 2 2 2 2 2 2 2
left_child=1 2 5 4 6 16 7 8 15 10 11 12 13 -10 27 24 18 -5 19 20 21 -1 -12 -11 26 -21 -4 -14 29 -22
right_child=-2 -3 3 17 -6 -7 -8 -9 9 23 22 -13 14 -15 -16 -17 -18 -19 -20 25 28 -23 -24 -25 -26 -27 -28 -29 -30 -31
leaf_value=0.010383617392052777 -0.013316256118977958 -0.019129005790903018 0.0064681699375311527 0.0032283411494323185 0.025178871564567093 0.0074669531195378702 -0.0094144943424246536 0.020763254235498609 0.013749596815217625 0.016629926115274429 0.013140313297107416 0.0096462426424929609 -0.023115777527844467 -0.010020658063391846 0.0010174061304756574 -0.002359977348343186 -0.01799133040942252 -0.014140288893665587 0.0068307579095874512 -0.014490642240270975 -0.0048397948728366334 -0.0074216090763608621 -0.0010694369363288085 0.0065273603516412372 0.018884206847287716 -0.0047002852180351821 0.015344579898468828 -0.01511856443493774 -0.0011977658715359 -0.012849959666314331
leaf_weight=46 47 26 30 21 20 61 33 24 22 26 37 33 27 24 21 23 20 35 28 40 110 24 24 81 40 30 23 38 43 23
leaf_count=46 47 26 30 21 20 61 33 24 22 26 37 33 27 24 21 23 20 35 28 40 110 24 24 81 40 30 23 38 43 23
internal_value=0 0.00060587 0.00111541 0.00367154 0.00487443 -0.00238498 0.00407189 0.0050128 0.0041709 0.0018759 -0.00148858 -0.00482997 -0.00844902 0.00134772 -0.0136891 0.0107591 -0.004036 -0.00762705 -0.00322464 -0.00411562 -0.00235733 0.00427897 0.00754959 0.00898219 0.0140036 -0.0102948 0.0103202 -0.0184405 -0.00499676 -0.00622501
internal_weight=0 1033 1007 582 526 425 506 473 449 333 226 165 132 46 86 116 364 56 344 316 246 70 61 107 93 70 53 65 176 133
internal_count=1080 1033 1007 582 526 425 506 473 449 333 226 165 132 46 86 116 364 56 344 316 246 70 61 107 93 70 53 65 176 133
shrinkage=0.1


Tree=21
num_leaves=31
num_cat=0
split_feature=993 363 1 592 989 522 0 429 9 1017 437 4 15 8 27 1114 2 569 9 5 329 1 10 17 0 900 589 576 653 835
split_gain=0.745948 0.808203 0.684904 0.753281 0.801593 0.702517 0.825892 0.567043 0.551474 0.640559 0.382201 0.378839 0.529191 0.356285 0.385937 0.337544 0.32337 0.623349 0.320527 0.301488 0.286342 0.249315 0.247815 0.42338 0.371691 0.218488 0.176992 0.160913 0.116619 0.142037
threshold=1.0000000180025095e-35 1.0000000180025095e-35 3.5000000000000004 1.0000000180025095e-35 1.0000000180025095e-35 1.0000000180025095e-35 1.0000000180025095e-35 1.0000000180025095e-35 5.5000000000000009 1.0000000180025095e-35 1.0000000180025095e-35 1.0000000180025095e-35 1.0000000180025095e-35 2.5000000000000004 1.0000000180025095e-35 1.0000000180025095e-35 1.5000000000000002 1.0000000180025095e-35 2.5000000000000004 1.0000000180025095e-35 1.0000000180025095e-35 1.0000000180025095e-35 1.0000000180025095e-35 1.0000000180025095e-35 1.5000000000000002 1.0000000180025095e-35 1.0000000180025095e-35 1.0000000180025095e-35 1.0000000180025095e-35 1.0000000180025095e-35
decision_type=2 2 2 2 2 2 2 2 2 2 2 2 2 2 2 2 2 2 2 2 2 2 2 2 2 2 2 2 2 2
left_child=1 2 3 4 5 6 15 8 9 10 13 12 -9 14 20 18 26 -18 19 21 22 -1 23 24 -8 -13 -6 28 29 -2
right_child=27 -3 -4 -5 16 -7 7 11 -10 -11 -12 25 -14 -15 -16 -17 17 -19 -20 -21 -22 -23 -24 -25 -26 -27 -28 -29 -30 -31
leaf_value=-0.0062952392451141193 0.018562401345242625 -0.015865648407489063 0.012584700386147375 -0.015333595999649594 0.0074504281656864362 -0.018873799361450519 0.009306372019151847 0.0075566337909549475 -0.018504811006669813 0.013113884526220235 -0.015679345386368889 0.015326423943042755 -0.013915147327563979 -0.015100806385278701 0.0079082985198305512 0.016802828370229058 -0.01141117841439352 0.0090689984238928271 -0.0079765703529119502 0.014068939557839786 -0.015363289518281817 0.0065523479387841442 0.0046566769052800291 -0.013999052499295088 -0.0038603778826582489 0.002525420242454857 0.017982995841238233 0.0021286504297721681 0.0050211137742735452 0.0080393871485159325
leaf_weight=23 23 35 39 35 39 23 24 24 26 22 28 30 22 25 31 23 23 42 20 31 20 44 37 37 201 24 27 41 32 29
leaf_count=23 23 35 39 35 39 23 24 24 26 22 28 30 22 25 31 23 23 42 20 31 20 44 37 37 201 24 27 41 32 29
internal_value=0 -0.000950814 -0.000383402 -0.000957473 -0.000362716 -0.00168029 -0.00110883 -0.00285643 -0.00436701 -0.00350211 -0.00440918 0.00395629 -0.00271248 -0.00356768 -0.00274388 0.00572045 0.00682861 0.00182217 0.00356033 0.0059148 -0.00377905 0.00214198 -0.00300418 -0.00408606 -0.00245592 0.00963709 0.0117592 0.00726422 0.00977087 0.0126938
internal_weight=0 955 920 881 846 715 692 551 451 425 403 100 46 375 350 141 131 65 118 98 319 67 299 262 225 54 66 125 84 52
internal_count=1080 955 920 881 846 715 692 551 451 425 403 100 46 375 350 141 131 65 118 98 319 67 299 262 225 54 66 125 84 52
shrinkage=0.1


Tree=22
num_leaves=31
num_cat=0
split_feature=115 485 292 0 17 1135 1069 505 5 592 168 755 23 1017 15 18 27 2 600 7 37 8 14 18 9 18 5 205 1 209
split_gain=0.643574 0.662431 0.750803 0.711762 0.6018 0.547078 0.605308 0.788227 0.582177 0.463041 0.433041 0.473319 0.514187 0.337669 0.346115 0.418654 0.347982 0.356455 0.255057 0.252096 0.2309 0.197268 0.192703 0.208142 0.194558 0.37716 0.187316 0.17551 0.142017 0.113653
threshold=1.0000000180025095e-35 1.0000000180025095e-35 1.0000000180025095e-35 15.500000000000002 3.5000000000000004 1.0000000180025095e-35 1.0000000180025095e-35 1.0000000180025095e-35 1.0000000180025095e-35 1.0000000180025095e-35 1.0000000180025095e-35 1.0000000180025095e-35 1.0000000180025095e-35 1.0000000180025095e-35 1.0000000180025095e-35 1.0000000180025095e-35 1.0000000180025095e-35 1.0000000180025095e-35 1.0000000180025095e-35 1.5000000000000002 1.0000000180025095e-35 1.0000000180025095e-35 1.0000000180025095e-35 1.0000000180025095e-35 1.5000000000000002 1.0000000180025095e-35 1.5000000000000002 1.0000000180025095e-35 1.0000000180025095e-35 1.0000000180025095e-35
decision_type=2 2 2 2 2 2 2 2 2 2 2 2 2 2 2 2 2 2 2 2 2 2 2 2 2 2 2 2 2 2
left_child=1 2 3 4 5 6 7 9 29 10 11 12 13 14 22 16 17 21 -15 -7 -6 -16 23 -1 25 -24 -17 -26 -10 -8
right_child=-2 -3 -4 -5 20 19 8 -9 28 -11 -12 -13 -14 18 15 26 -18 -19 -20 -21 -22 -23 24 -25 27 -27 -28 -29 -30 -31
leaf_value=0.019326273062162933 -0.01333863883146218 -0.011155138891982906 -0.016118218392133715 -0.0043028423089092067 -0.012282223962247372 -0.013889212083537132 0.009781874259087173 0.023033966682851317 -0.0055426127720801608 -0.01041022610384971 0.016013153949204616 -0.0090600205585360527 -0.010282815664651848 0.019077306493155421 0.0067570321634411821 0.0071391858420718247 0.0061424190673278652 -0.01468543174987038 0.0045926578156650069 0.00097296119978030531 0.0011870653368532659 -0.0072881800681352613 -0.007879651582334191 0.0077113372163795353 0.014097221791744233 0.0098488676710985611 -0.0024431757628917694 0.003126807913184166 -0.016803211497608574 -0.00063381397165358073
leaf_weight=27 35 47 25 177 35 25 22 24 21 20 34 25 21 31 20 136 32 30 20 21 20 20 24 36 35 24 24 25 24 20
leaf_count=27 35 47 25 177 35 25 22 24 21 20 34 25 21 31 20 136 32 30 20 21 20 20 24 36 35 24 24 25 24 20
internal_value=0 0.000446749 0.00099313 0.00143278 0.00270817 0.00345727 0.00415631 0.00527267 -0.00364537 0.00454276 0.005073 0.00437118 0.00503609 0.00570076 0.00479426 0.00251017 -0.00249636 -0.00644551 0.0133971 -0.00710431 -0.0073843 -0.000265574 0.00829387 0.0126892 0.00572995 0.000984608 0.00570183 0.00952622 -0.0115483 0.00482202
internal_weight=0 1045 998 973 796 741 695 608 87 584 564 530 505 484 433 262 102 70 51 46 55 40 171 63 108 48 160 60 45 42
internal_count=1080 1045 998 973 796 741 695 608 87 584 564 530 505 484 433 262 102 70 51 46 55 40 171 63 108 48 160 60 45 42
shrinkage=0.1


Tree=23
num_leaves=31
num_cat=0
split_feature=1 121 903 840 27 18 1017 603 308 1072 314 569 1009 1005 829 1167 19 5 3 609 15 788 215 14 0 0 3 4 432 9
split_gain=0.58845 0.715625 0.591484 0.58513 0.622631 0.739799 0.601019 0.661942 0.49368 0.380645 0.409149 0.411179 0.480477 0.364056 0.307819 0.277456 0.231735 0.403443 0.250329 0.197923 0.181457 0.167696 0.180757 0.11784 0.101194 0.130893 0.0984231 0.159554 0.0733146 0.0668339
threshold=4.5000000000000009 1.0000000180025095e-35 1.0000000180025095e-35 1.0000000180025095e-35 1.0000000180025095e-35 1.0000000180025095e-35 1.0000000180025095e-35 1.0000000180025095e-35 1.0000000180025095e-35 1.0000000180025095e-35 1.0000000180025095e-35 1.0000000180025095e-35 1.0000000180025095e-35 1.0000000180025095e-35 1.0000000180025095e-35 1.0000000180025095e-35 1.0000000180025095e-35 1.0000000180025095e-35 1.0000000180025095e-35 1.0000000180025095e-35 1.5000000000000002 1.0000000180025095e-35 1.0000000180025095e-35 1.5000000000000002 33.500000000000007 29.500000000000004 1.5000000000000002 1.0000000180025095e-35 1.0000000180025095e-35 1.0000000180025095e-35
decision_type=2 2 2 2 2 2 2 2 2 2 2 2 2 2 2 2 2 2 2 2 2 2 2 2 2 2 2 2 2 2
left_child=1 2 3 4 5 6 7 8 9 10 11 12 16 14 21 20 18 -18 24 23 28 22 26 -8 25 29 27 -7 -6 -1
right_child=-2 -3 -4 -5 15 13 19 -9 -10 -11 -12 -13 -14 -15 -16 -17 17 -19 -20 -21 -22 -23 -24 -25 -26 -27 -28 -29 -30 -31
leaf_value=-0.0024605519745660867 0.013147984402762217 -0.015381432156408987 -0.014033899848060361 -0.016057927072757768 0.012528901146008417 0.015710711857360421 0.015210490608992783 -0.018502368924341032 0.0082500767514207662 -0.017120715016499161 0.010955474050715567 0.0095229918645186873 -0.014739096603674316 -0.009293367441277952 -0.0057577495391552269 0.01740939160436392 0.012035030134022236 -0.0054424951734420449 -0.012320810167917183 -0.00063657320483967114 -0.0013135397047908219 -0.0020129474112764003 0.00044960565199809413 0.0050877660027016762 -0.0090553696338946995 0.0046689847241277284 0.0058701471061325602 0.0067156060402636776 0.0046852595786648719 -0.0077415743585804416
leaf_weight=138 33 31 29 21 26 33 23 28 38 20 20 22 41 20 26 25 25 28 35 27 27 26 42 23 26 23 124 49 22 29
leaf_count=138 33 31 29 21 26 33 23 28 38 20 20 22 41 20 26 25 25 28 35 27 27 26 42 23 26 23 124 49 22 29
internal_value=0 -0.000414406 4.22647e-05 0.00045585 0.000814845 -4.78704e-05 -0.00228544 -0.00358884 -0.00265046 -0.0036682 -0.00297298 -0.00373203 -0.00457728 0.00376998 0.00464087 0.00828596 -0.00320677 0.00280162 -0.00447547 0.0061599 0.00524482 0.0056276 0.00642863 0.0101491 -0.00320424 -0.00240355 0.00764765 0.0103356 0.0089339 -0.00337762
internal_weight=0 1047 1016 987 966 866 546 473 445 407 387 367 345 320 300 100 304 53 251 73 75 274 248 46 216 190 206 82 48 167
internal_count=1080 1047 1016 987 966 866 546 473 445 407 387 367 345 320 300 100 304 53 251 73 75 274 248 46 216 190 206 82 48 167
shrinkage=0.1


Tree=24
num_leaves=31
num_cat=0
split_feature=505 65 115 25 420 23 334 833 1116 1165 13 7 265 375 1169 929 16 3 1160 182 695 5 369 69 16 3 19 6 8 13
split_gain=0.546544 0.760678 0.667697 0.503748 0.531045 0.535699 0.576656 0.467262 0.354282 0.404628 0.28857 0.270091 0.248161 0.26481 0.247858 0.281627 0.275151 0.230346 0.20071 0.151236 0.122678 0.147356 0.121108 0.152173 0.248293 0.215958 0.125079 0.142828 0.094151 0.0747656
threshold=1.0000000180025095e-35 1.0000000180025095e-35 1.0000000180025095e-35 1.0000000180025095e-35 1.5000000000000002 1.0000000180025095e-35 1.0000000180025095e-35 1.0000000180025095e-35 1.0000000180025095e-35 1.0000000180025095e-35 1.0000000180025095e-35 1.5000000000000002 1.0000000180025095e-35 1.0000000180025095e-35 1.0000000180025095e-35 1.0000000180025095e-35 1.0000000180025095e-35 1.5000000000000002 1.0000000180025095e-35 1.0000000180025095e-35 1.0000000180025095e-35 1.5000000000000002 1.0000000180025095e-35 1.0000000180025095e-35 1.0000000180025095e-35 1.5000000000000002 1.0000000180025095e-35 1.0000000180025095e-35 1.5000000000000002 1.0000000180025095e-35
decision_type=2 2 2 2 2 2 2 2 2 2 2 2 2 2 2 2 2 2 2 2 2 2 2 2 2 2 2 2 2 2
left_child=1 2 3 4 5 6 7 8 9 12 -7 -5 13 14 15 18 -16 -17 19 20 21 22 23 24 26 -26 27 -1 -25 -2
right_child=29 -3 -4 11 -6 10 -8 -9 -10 -11 -12 -13 -14 -15 16 17 -18 -19 -20 -21 -22 -23 -24 28 25 -27 -28 -29 -30 -31
leaf_value=0.0061429702551793995 0.015793988425284625 -0.01472351830970082 -0.015441797190794238 -0.012467835912600074 -0.0032678663802957076 0.00049615214578807348 -0.0078130401063721041 0.017718274691530193 -0.0095988373330328624 -0.0093447305685417214 -0.01592791622261638 -0.00097584940302066327 -0.0037753586441634556 0.016044594382955916 0.0059060472715646035 0.01979169948873195 -0.01013161729535331 0.0069340115486595192 -0.0047792677261421224 0.012202351149887993 -0.0027634300655968811 -0.00093243121362040528 0.00033806400323236312 -0.0012995832569656833 0.019752053038120786 0.0062447329796850685 0.0116506109200418 -0.0037496287422254682 0.0056884266906326603 0.0071472761686891323
leaf_weight=54 20 36 27 43 206 20 44 24 20 22 23 39 34 21 20 22 23 38 23 26 23 39 37 31 29 20 25 20 51 20
leaf_count=54 20 36 27 43 206 20 44 24 20 22 23 39 34 21 20 22 23 38 23 26 23 39 37 31 29 20 25 20 51 20
internal_value=0 -0.000441178 7.09376e-05 0.000499642 0.00118696 0.00251888 0.00323827 0.00404601 0.0034783 0.00394702 -0.00828881 -0.00700214 0.00449258 0.00505256 0.00457265 0.00528391 -0.00267224 0.0116485 0.00427366 0.00486019 0.00427995 0.00480936 0.00564805 0.00650226 0.00841687 0.0142389 0.00553528 0.00346929 0.00304662 0.0114706
internal_weight=0 1040 1004 977 895 689 646 602 578 558 43 82 536 502 481 438 43 60 378 355 329 306 267 230 148 49 99 74 82 40
internal_count=1080 1040 1004 977 895 689 646 602 578 558 43 82 536 502 481 438 43 60 378 355 329 306 267 230 148 49 99 74 82 40
shrinkage=0.1


Tree=25
num_leaves=31
num_cat=0
split_feature=851 505 65 115 367 7 25 334 52 1114 27 129 18 1 16 217 1123 3 989 19 3 12 2 0 8 9 0 9 1182 608
split_gain=0.48701 0.470258 0.585154 0.515572 0.679127 0.553459 0.472392 0.423814 0.411334 0.448568 0.362259 0.434456 0.371744 0.328344 0.347999 0.332759 0.331124 0.301695 0.502002 0.279944 0.299314 0.1687 0.185112 0.295247 0.141053 0.28663 0.138572 0.123978 0.0887447 0.0856462
threshold=1.0000000180025095e-35 1.0000000180025095e-35 1.0000000180025095e-35 1.0000000180025095e-35 1.0000000180025095e-35 1.5000000000000002 1.0000000180025095e-35 1.0000000180025095e-35 1.0000000180025095e-35 1.0000000180025095e-35 1.0000000180025095e-35 1.0000000180025095e-35 1.5000000000000002 1.0000000180025095e-35 1.5000000000000002 1.0000000180025095e-35 1.0000000180025095e-35 1.5000000000000002 1.0000000180025095e-35 1.0000000180025095e-35 1.0000000180025095e-35 1.5000000000000002 1.5000000000000002 1.5000000000000002 1.5000000000000002 1.0000000180025095e-35 16.500000000000004 2.5000000000000004 1.0000000180025095e-35 1.0000000180025095e-35
decision_type=2 2 2 2 2 2 2 2 2 2 2 2 2 2 2 2 2 2 2 2 2 2 2 2 2 2 2 2 2 2
left_child=1 2 3 4 5 6 7 8 9 10 11 12 17 15 -15 16 21 18 19 20 24 22 23 -7 25 26 -1 -19 29 -14
right_child=-2 -3 -4 -5 -6 13 -8 -9 -10 -11 -12 -13 28 14 -16 -17 -18 27 -20 -21 -22 -23 -24 -25 -26 -27 -28 -29 -30 -31
leaf_value=0.0048065102014404077 0.013794728570617735 0.010747375147970948 -0.013251166392324699 -0.013897617092287099 -0.014692646339535716 0.0052584644346670428 -0.011221052355371243 -0.012591728664658689 0.013638117697767236 0.010461552680418311 0.010629898197948934 -0.014830172314153366 0.013044464696819583 0.0033037461233990533 -0.012979438284500724 0.016380134138923426 -0.0064177696295082583 -0.013128089765086771 0.011693443177084971 0.0069930391225578453 -0.01481177309261901 -0.0020447383625044799 0.0048529652542646648 0.021068104022249051 0.00474763510376215 -0.014286157271514336 -0.00303856950430643 -0.0036201534977105135 0.0014075361688931783 0.0040129745268218577
leaf_weight=26 25 37 36 27 30 27 43 27 22 36 25 24 21 35 21 26 25 32 28 29 21 24 123 21 25 21 168 24 30 21
leaf_count=26 25 37 36 27 30 27 43 27 22 36 25 24 21 35 21 26 25 32 28 29 21 24 123 21 25 21 168 24 30 21
internal_value=0 -0.000326889 -0.000729392 -0.000270345 0.000114928 0.000595174 -0.00110789 -0.000358122 0.000239179 -0.000315956 -0.00109977 -0.00172369 -0.00101841 0.00410845 -0.00280245 0.00568166 0.0044173 -0.00228514 -0.00109328 -0.00232785 -0.00336351 0.00580641 0.00690832 0.0121752 -0.00236179 -0.00318846 -0.00198717 -0.00905326 0.00556156 0.00852872
internal_weight=0 1055 1018 982 955 925 623 580 553 531 495 470 446 302 56 246 220 374 318 290 261 195 171 48 240 215 194 56 72 42
internal_count=1080 1055 1018 982 955 925 623 580 553 531 495 470 446 302 56 246 220 374 318 290 261 195 171 48 240 215 194 56 72 42
shrinkage=0.1


Tree=26
num_leaves=31
num_cat=0
split_feature=1 121 522 49 96 27 100 505 467 514 195 25 1017 617 18 314 12 8 1000 329 1167 13 1 16 883 18 584 0 0 9
split_gain=0.403127 0.472254 0.435054 0.438673 0.439409 0.531153 0.477271 0.482719 0.402848 0.493751 0.655464 0.349176 0.345301 0.405036 0.279183 0.282313 0.283365 0.274517 0.238523 0.214231 0.187664 0.162086 0.150242 0.124643 0.114922 0.106278 0.0893018 0.0738417 0.100716 0.0583702
threshold=4.5000000000000009 1.0000000180025095e-35 1.0000000180025095e-35 1.0000000180025095e-35 1.0000000180025095e-35 1.0000000180025095e-35 1.0000000180025095e-35 1.0000000180025095e-35 1.0000000180025095e-35 1.0000000180025095e-35 1.0000000180025095e-35 1.0000000180025095e-35 1.0000000180025095e-35 1.0000000180025095e-35 1.0000000180025095e-35 1.0000000180025095e-35 1.0000000180025095e-35 1.5000000000000002 1.0000000180025095e-35 1.0000000180025095e-35 1.0000000180025095e-35 1.0000000180025095e-35 1.0000000180025095e-35 1.5000000000000002 1.0000000180025095e-35 1.0000000180025095e-35 1.0000000180025095e-35 30.500000000000004 25.500000000000004 4.5000000000000009
decision_type=2 2 2 2 2 2 2 2 2 2 2 2 2 2 2 2 2 2 2 2 2 2 2 2 2 2 2 2 2 2
left_child=1 2 3 4 5 6 7 8 9 10 11 12 13 14 15 16 17 21 -14 -16 23 27 -18 26 -10 -13 -7 28 -1 -5
right_child=-2 -3 -4 29 -6 20 -8 -9 24 -11 -12 25 18 -15 19 -17 22 -19 -20 -21 -22 -23 -24 -25 -26 -27 -28 -29 -30 -31
leaf_value=-0.0028748243585113411 0.010882424475328828 -0.012501509441062809 -0.011636414387894254 -0.013514454085379841 -0.011732711430845991 -0.001620620063951482 -0.014110597256909718 0.015096937654965113 0.013758148718625308 0.012109512487246146 -0.017027456515158215 -0.012831850700940079 0.015232668783515691 -0.012259800903201621 0.0047727379493528246 0.0087863124203868218 -0.011689724695558351 0.0086128687548417873 0.0017940631568697945 -0.0037414992021189797 0.016108403673085074 0.0050860007903699225 -0.0017714114646272114 0.011883309309963477 0.0046637073398222021 -0.0031357140280306342 0.0075159950461238627 0.00073192306729250175 -0.010057931101840476 -0.0060500692555003552
leaf_weight=129 33 31 31 20 27 23 22 23 24 31 24 26 25 27 165 25 42 28 28 36 24 29 24 22 33 20 20 43 23 22
leaf_count=129 33 31 31 20 27 23 22 23 24 31 24 26 25 27 165 25 42 28 28 36 24 29 24 22 33 20 20 43 23 22
internal_value=0 -0.000342999 2.79791e-05 0.000395082 0.000840452 0.00121106 0.0004211 0.000818239 0.000398277 -0.000238131 -0.000789683 -0.000208031 0.000411797 -0.000304885 0.000288466 -0.00144572 -0.00225013 -0.000722451 0.00813303 0.0032478 0.00855146 -0.00188937 -0.00808307 0.00576121 0.00849295 -0.00861614 0.00262897 -0.00292673 -0.00396174 -0.00960454
internal_weight=0 1047 1016 985 943 916 827 805 782 725 694 670 624 571 544 343 318 252 53 201 89 224 66 65 57 46 43 195 152 42
internal_count=1080 1047 1016 985 943 916 827 805 782 725 694 670 624 571 544 343 318 252 53 201 89 224 66 65 57 46 43 195 152 42
shrinkage=0.1


Tree=27
num_leaves=31
num_cat=0
split_feature=643 851 903 584 1049 195 65 18 989 367 755 19 1167 213 188 435 3 675 0 2 14 15 13 1009 0 715 0 0 13 205
split_gain=0.344112 0.371733 0.41117 0.476794 0.383529 0.441378 0.420869 0.458694 0.402306 0.401377 0.401331 0.345739 0.409194 0.425253 0.313274 0.339271 0.346773 0.281107 0.254644 0.237068 0.325841 0.282256 0.26503 0.156014 0.250438 0.0930181 0.0770593 0.122268 0.068741 0.0651847
threshold=1.0000000180025095e-35 1.0000000180025095e-35 1.0000000180025095e-35 1.0000000180025095e-35 1.0000000180025095e-35 1.0000000180025095e-35 1.0000000180025095e-35 1.5000000000000002 1.5000000000000002 1.0000000180025095e-35 1.0000000180025095e-35 1.0000000180025095e-35 1.0000000180025095e-35 1.0000000180025095e-35 1.0000000180025095e-35 1.0000000180025095e-35 1.0000000180025095e-35 1.0000000180025095e-35 1.5000000000000002 1.5000000000000002 1.5000000000000002 1.0000000180025095e-35 1.0000000180025095e-35 1.0000000180025095e-35 1.0000000180025095e-35 1.0000000180025095e-35 33.500000000000007 29.500000000000004 1.5000000000000002 1.0000000180025095e-35
decision_type=2 2 2 2 2 2 2 2 2 2 2 2 2 2 2 2 2 2 2 2 2 2 2 2 2 2 2 2 2 2
left_child=1 2 3 4 5 6 7 8 9 10 11 12 13 14 15 16 23 -5 -18 20 21 -13 -22 24 -1 -6 27 -26 -21 -9
right_child=-2 -3 -4 17 25 -7 -8 29 -10 -11 -12 19 -14 -15 -16 -17 18 -19 -20 28 22 -23 -24 -25 26 -27 -28 -29 -30 -31
